svm_type nu_svc
kernel_type polynomial
degree 3
gamma 0.3333333333333333
coef0 0.0
nr_class 3
total_sv 3
rho -1.103210641863574 0.9896178642986893 1.0000164640061493
label 15 45 25
probA 0.6931471784024834 0.6931471784024834 0.6931471784024834
probB 2.391895380739567E-16 2.391895380739567E-16 2.391895380739567E-16
nr_sv 1 1 1
SV
1.2392768064649972E-6 3.4226822428111946E-4 0:1.0 1:4.0 2:6.0 3:1.0 
-1.2392768064649972E-6 1.1197182162762156E-6 0:2.0 1:6.0 2:18.0 3:0.0 
-3.4226822428111946E-4 -1.1197182162762156E-6 0:3.0 1:1.0 2:0.0 3:1.0 
