svm_type nu_svc
kernel_type rbf
gamma 0.3333333333333333
nr_class 3
total_sv 3
rho 0.0 0.0 0.0
label 15 45 25
probA 0.6931471784024834 0.6931471784024834 0.6931471784024834
probB 2.391895380739567E-16 2.391895380739567E-16 2.391895380739567E-16
nr_sv 1 1 1
SV
1.0 1.0000000806349825 0:1.0 1:4.0 2:6.0 3:1.0 
-1.0 1.0 0:2.0 1:6.0 2:18.0 3:0.0 
-1.0000000806349825 -1.0 0:3.0 1:1.0 2:0.0 3:1.0 
