svm_type c_svc
kernel_type linear
nr_class 5
total_sv 45
rho 0.12612729673262232 -0.15748210424300535 0.6663480559888113 4.757542279075251 -2.7177098742022516 2.81027546555809 0.8245707821239467 10.617017345945566 0.8026242781200477 0.23109512157498532
label 5 1 3 2 4
probA -2.28166337843073 -2.378361149038944 -2.4095456600551852 -2.4501801132702337 -2.6879952176716624 -2.557074685429009 -2.207550135336043 -2.791044777769852 -2.2621867452400597 -2.2786963143035917
probB 0.02555670306736719 0.054190596875814956 -0.056278556505680505 0.021219853431048003 0.09421471447305739 0.015091373160428809 -0.1976320133531899 0.25765304668298267 -0.13494756077267397 -0.013061342200688244
nr_sv 8 7 12 9 9
SV
0.0 0.0 0.0 0.4599301140539474 0:0.8116254650957403 1:0.7801368723851554 2:0.17575989577673287 3:0.30286632006427755 4:0.24119704276919354 5:0.20812385362471983 6:0.2459566756932312 7:0.32168204940063205 8:0.5806179158772331 9:0.2836537764365486 10:0.21110406723671282 11:0.28118962617877397 12:0.23981858523398542 13:0.251390327859046 14:0.5753539590747794 15:0.6247978940712342 16:0.8215814554925984 17:0.2758352825395457 18:0.529114223417315 19:0.13971822046615268 20:0.17385832183334202 21:0.17424439274432468 22:0.5862155993970122 23:1.0 24:0.8470580825100376 25:0.596757794950192 26:0.22398839534105877 27:0.3534880356165311 28:0.26402296356469507 29:0.1808277220671568 30:0.6340379942997545 31:0.6447750143082978 32:0.6953511287993239 33:0.7943670320916822 34:0.2481659414191943 35:0.3048224764312772 36:0.21085675763371958 37:0.30984278338648835 38:0.13431619027616118 39:0.24074181456815172 40:0.3345372345628431 41:0.420002158064823 42:0.39851856509308176 43:0.32172369067747864 44:0.3250505111565264 45:0.3341926559753754 46:0.24865256714085718 47:0.3372350903237846 48:0.27977718561065634 49:0.18423123779911796 50:0.24344223249457364 51:0.3055485650293928 52:0.3247045130102794 53:0.24423493352995612 54:0.37408289690077245 55:0.23552352252181769 56:0.6665040804802653 57:0.17535279410558835 58:0.2587139749575112 59:0.7405557547018077 60:0.709213121118893 61:0.7651624006431652 62:0.7274029306324872 63:0.2630072551410468 64:0.38856607414905675 65:0.24003470749717937 66:0.16155850682794282 67:0.6365433633937791 68:0.5916090180563691 69:0.6961256434293803 70:0.74402794591567 71:0.1944432597376093 72:0.7428497110556223 73:0.7869703289309684 74:0.72491484588596 75:0.3144476671336458 76:0.2747339199140345 77:0.2729700216484325 78:0.7059101416486498 79:0.5780671465084322 
0.42505088305088423 0.04816892704475561 0.0 0.0 0:0.7462498055399442 1:0.738930072217451 2:0.38838498380595343 3:0.34931471529383623 4:0.4733297512677326 5:0.3708820944587464 6:0.12670816680996733 7:0.24223652047247238 8:0.6480756568764947 9:0.3807934653845858 10:0.3378871435862745 11:0.43742719952961195 12:0.3352292350246284 13:0.3614141551634935 14:0.5131217119027576 15:0.6433467359443882 16:0.7700031487520311 17:0.3621980946179179 18:0.6643829648004531 19:0.3342096830369419 20:0.16123941113802975 21:0.20095159399960344 22:0.49862478054057036 23:0.6953511287993239 24:0.8157083560521468 25:0.5596766846527506 26:0.30800388734910505 27:0.3790941492134727 28:0.3593140450470378 29:0.23252050287822745 30:0.5496982352216176 31:0.6280426271703721 32:1.0 33:0.7427418716967045 34:0.3953554221881175 35:0.4505797039458221 36:0.2574498708102865 37:0.4489368095403915 38:0.25529092190174657 39:0.3996628668494259 40:0.40299798805074827 41:0.6162000753696605 42:0.34140246409580705 43:0.49038654064894 44:0.4612737390052116 45:0.46422540633489706 46:0.394723260827098 47:0.4119202653884802 48:0.3568981269203336 49:0.31241081171174645 50:0.29133874696889817 51:0.36042549228266385 52:0.42579070653429074 53:0.3087729543287043 54:0.3093813644557162 55:0.31175573473362495 56:0.6563268138020405 57:0.2663368703031147 58:0.3380795001896361 59:0.4730686234389743 60:0.6706728389802425 61:0.7522486478313195 62:0.6949470628024481 63:0.4217491372329473 64:0.5201051532513736 65:0.3559705114322958 66:0.28445689138711205 67:0.56312881674765 68:0.6838151123628062 69:0.7841608501328761 70:0.6967342004564159 71:0.31012471941747816 72:0.7169379448753448 73:0.805778697588368 74:0.7726515214496443 75:0.387369215786779 76:0.3666684077212356 77:0.39304433626328494 78:0.6344124842661765 79:0.55988361394822 
0.07605104407856891 0.3372734122838459 0.28442744033597783 0.18992044835744118 0:0.6954782102633679 1:0.7909298806699432 2:0.2965916235447603 3:0.35453833551357194 4:0.3411007652952963 5:0.2984852415014484 6:0.1985889678791444 7:0.28636397870127284 8:0.6469972184969108 9:0.3644536091257678 10:0.29736589015609205 11:0.4004895480635878 12:0.2610356865485156 13:0.4904358391105568 14:0.47736889271172955 15:0.4143325051376193 16:0.6662314720937825 17:0.33777061252589985 18:0.48391068621498134 19:0.31167492010894116 20:0.18961502004796413 21:0.3038815531403897 22:0.4880253891188302 23:0.6665040804802653 24:0.6617939532300782 25:0.6183700593145651 26:0.36375972616013624 27:0.34065061268881813 28:0.4475118394716386 29:0.2381858708042457 30:0.5472694781023746 31:0.6084939567397609 32:0.6563268138020405 33:0.6700874982444335 34:0.3172519185299741 35:0.3390908966276818 36:0.3046589916136335 37:0.33409280046544604 38:0.26268280557936813 39:0.3093802432641978 40:0.48522376294709707 41:0.39649083828747944 42:0.2470163997762394 43:0.3114028852802802 44:0.31673067840920127 45:0.44554073158526863 46:0.35846702130811475 47:0.40914420042096866 48:0.34805912146199974 49:0.430215393268675 50:0.3537727583875401 51:0.42469617581299857 52:0.4029026001600774 53:0.3582109056477546 54:0.29532849393859645 55:0.29273545930076084 56:1.0 57:0.39191017614240303 58:0.4555846082342964 59:0.6260024374141717 60:0.621115397130695 61:0.7276528279432402 62:0.6949931558074355 63:0.2829500219560638 64:0.33906408354997336 65:0.38615292897281983 66:0.3621962450663633 67:0.5390917404528898 68:0.47705589019974143 69:0.6525185365876828 70:0.633003529516172 71:0.31885980368720446 72:0.6472451267343413 73:0.7868527949399504 74:0.7636311855627627 75:0.34704183777622793 76:0.3355748256531408 77:0.42714137954716364 78:0.7307970558819348 79:0.5463916457183299 
0.0 0.0 0.0 1.0 0:0.580786774647972 1:0.7497465719542857 2:0.22065199989203688 3:0.3689568664337835 4:0.31196863725101115 5:0.27996970203140736 6:0.11367813364856195 7:0.1782215513583992 8:0.6145149044743037 9:0.30881847438629484 10:0.2915143178193501 11:0.3585769571637795 12:0.31536044500785804 13:0.34743357516529405 14:0.5708513067681987 15:0.47090128173073087 16:0.7314775772942281 17:0.2899413263963711 18:0.41218166455719163 19:0.12930207866028903 20:0.20300172543885023 21:0.22120862373840056 22:0.5542762363934228 23:0.709213121118893 24:0.6924546404743973 25:0.599832488207668 26:0.2819609881742461 27:0.3764640347330227 28:0.32714973005146164 29:0.17254833302377331 30:0.7030076440374937 31:0.7690734470927918 32:0.6706728389802425 33:0.7488732898511488 34:0.269232987255623 35:0.3681510573699702 36:0.2696268751510912 37:0.3732916492429948 38:0.2183919680955987 39:0.3456002019418243 40:0.4043772422015148 41:0.4265122766241125 42:0.309904953416603 43:0.3656019282359384 44:0.3225648285668199 45:0.361061940959127 46:0.23532318884444733 47:0.41149551517993843 48:0.32092102121030236 49:0.25628768003746766 50:0.32450752648015 51:0.33096541077412506 52:0.37733740164605734 53:0.36614912120283316 54:0.23313802203401696 55:0.2931774913736057 56:0.621115397130695 57:0.2588602264729734 58:0.3180242319067682 59:0.6032569750486165 60:1.0 61:0.7465335353680095 62:0.7945718536252817 63:0.28861858616473457 64:0.412379051466643 65:0.2673598919661886 66:0.23760344325895055 67:0.5794556898997997 68:0.5634255969237085 69:0.6990704982494236 70:0.6938945923464932 71:0.26669404038459454 72:0.6794792341563292 73:0.7745795722453583 74:0.7469844527152453 75:0.35179700461816926 76:0.2973948657750889 77:0.3204105311214523 78:0.6343541530900499 79:0.6620625266815967 
0.0 0.0 0.0 0.3601764272525262 0:0.6246229245668373 1:0.7262131944743075 2:0.20861306426417764 3:0.30073602342422884 4:0.3268002236730558 5:0.24678449454308293 6:0.10679567004486289 7:0.16701040163694944 8:0.6462335489850993 9:0.24491378806154043 10:0.2456408822026623 11:0.33030244897049243 12:0.28498196863745745 13:0.3316115446503645 14:0.5979505045009577 15:0.4076484494988595 16:0.811897300837218 17:0.20765320504836624 18:0.4645364987892798 19:0.14005278591519232 20:0.11949974643623719 21:0.21724572222073135 22:0.6219379926435571 23:0.7274029306324872 24:0.7620339134670514 25:0.5903987676391934 26:0.32415875147160117 27:0.297014515022554 28:0.34087140764333734 29:0.26661224225814006 30:0.6214036306554488 31:0.6961511868279089 32:0.6949470628024481 33:0.7296332116146667 34:0.2937957048642106 35:0.30712412635535824 36:0.20613998656258928 37:0.28343182475342615 38:0.23746124917067246 39:0.2798324633472824 40:0.3636553076124239 41:0.3926001783174685 42:0.27861214775528576 43:0.2847795506010589 44:0.31599643971574665 45:0.38096793632313525 46:0.2850333184372157 47:0.3613333421495777 48:0.31076735145413314 49:0.26552087907543465 50:0.28606188365082647 51:0.3168269677344711 52:0.3762439554314511 53:0.2815046451185325 54:0.28970776239339097 55:0.24122790001509364 56:0.6949931558074355 57:0.2981071180021812 58:0.34328318855497064 59:0.6875001412248054 60:0.7945718536252817 61:0.9028014867031969 62:1.0 63:0.28088372168827686 64:0.37016547798159977 65:0.31853497235403505 66:0.23504662400683785 67:0.6318598147083789 68:0.6115267110363802 69:0.7667681162251865 70:0.7249517441105473 71:0.2385009466320244 72:0.741516643994321 73:0.8568605924775783 74:0.7952033775374079 75:0.34514575027686606 76:0.27973173547926383 77:0.33767540874848745 78:0.6100640926835453 79:0.6075673347465624 
0.0 0.0 0.0 1.0 0:0.6692838000376828 1:0.715017211676432 2:0.20821159681631707 3:0.40084521642427706 4:0.371261798828396 5:0.2661997798960424 6:0.23828283170576825 7:0.3516126721053422 8:0.7774567199637721 9:0.3367775703765409 10:0.19080065946608216 11:0.35801882593281964 12:0.2523467871409778 13:0.19199930015845662 14:0.692651140780399 15:0.6609454168160411 16:0.8320440128176505 17:0.347515739062772 18:0.5205384386801607 19:0.2200825537731532 20:0.13946848989174274 21:0.16102054540815694 22:0.7507226029346357 23:0.74402794591567 24:0.7918095777407392 25:0.6822770163946656 26:0.20366830861520843 27:0.3548740919575252 28:0.2115968317711497 29:0.2401587113891457 30:0.5998079321125237 31:0.65990166985719 32:0.6967342004564159 33:0.8515610116519191 34:0.2743715268394745 35:0.2658811188864075 36:0.26994167980261136 37:0.2845982827526723 38:0.211361448261521 39:0.24935306492195375 40:0.27142421682524787 41:0.4101468787388564 42:0.3732667895737424 43:0.3119826467831396 44:0.35003333173515977 45:0.31009797733751787 46:0.27197544926302497 47:0.2623831505003419 48:0.29402023337535804 49:0.21239392658478246 50:0.19795649400512558 51:0.24419494211947196 52:0.2470220993238457 53:0.1755246220569778 54:0.2853042335279254 55:0.20520186373951393 56:0.633003529516172 57:0.2563852371502703 58:0.15342796255461721 59:0.6484624398172456 60:0.6938945923464932 61:0.7886659652091185 62:0.7249517441105473 63:0.2943127819688888 64:0.30981059787820664 65:0.27095196823379675 66:0.1808562370258181 67:0.8235269313597147 68:0.7469813796935802 69:0.7525709241538422 70:1.0 71:0.22300616306183985 72:0.7921175495872124 73:0.7847848153384696 74:0.6649155610492323 75:0.2882986862826485 76:0.33351648968586844 77:0.30616489633332494 78:0.707538375018798 79:0.6547080326600003 
0.0 0.0 0.0 1.0 0:0.6821017400149367 1:0.7178242093370494 2:0.23331169816142724 3:0.30032680237248843 4:0.2732908807786891 5:0.2332751083051117 6:0.2475294569393637 7:0.2242670958338071 8:0.6279463344139622 9:0.22902947691682554 10:0.2908116809677494 11:0.3144080256073539 12:0.1432167431382678 13:0.28540100928290757 14:0.7022266161987685 15:0.5989047989829126 16:0.8437360575635159 17:0.28244416168799547 18:0.6579433241973873 19:0.1342190116778501 20:0.17288979167298138 21:0.2092465265882383 22:0.7056290854910787 23:0.7428497110556223 24:0.8100149857736128 25:0.5935614074475973 26:0.26209859295121707 27:0.298778504556062 28:0.25739704451771844 29:0.17419696289197123 30:0.658365762907603 31:0.6892325926445921 32:0.7169379448753448 33:0.8077477895077154 34:0.2729306703878367 35:0.2728788973687764 36:0.19614178132268284 37:0.2650806851314152 38:0.10904311169908451 39:0.2446451960569118 40:0.35166369691434485 41:0.3887266846400909 42:0.3491366450949153 43:0.2649668285924396 44:0.24956111415938986 45:0.3592080690375844 46:0.2628782994783783 47:0.31976704078511226 48:0.24256837726180663 49:0.23151079631391927 50:0.312721045409037 51:0.205934092632527 52:0.3235116391362049 53:0.2649729531229628 54:0.2914281980213358 55:0.24571647758867174 56:0.6472451267343413 57:0.15330539474444563 58:0.20462686815726827 59:0.6496531532856985 60:0.6794792341563292 61:0.7845233578469308 62:0.741516643994321 63:0.23895953327186784 64:0.301310163082888 65:0.2788528575263575 66:0.221003004460468 67:0.7225522131396747 68:0.5915009939872445 69:0.7026132211532301 70:0.7921175495872124 71:0.20346436206363006 72:1.0 73:0.8169829851920458 74:0.7794417497944546 75:0.2665165930267716 76:0.2563512440646597 77:0.2531406771671932 78:0.688677085332966 79:0.6038222613160569 
0.0 0.0 0.1202143160630806 1.0 0:0.7142202411330164 1:0.7449112275931535 2:0.35129549622564543 3:0.3412129941190874 4:0.34978283757705214 5:0.2621759317442305 6:0.25600092726583945 7:0.26172908865891986 8:0.5847602691444613 9:0.34207658158754817 10:0.3414868357407583 11:0.35081026153902484 12:0.26759953147917087 13:0.3412516608244564 14:0.6076740310976396 15:0.5145540385435362 16:0.6730863580690913 17:0.3472090245283412 18:0.5323613739980222 19:0.20701807025358782 20:0.21945727227823805 21:0.17933819726205766 22:0.6461777988928796 23:0.7059101416486498 24:0.6780064378855433 25:0.6363202784753268 26:0.3686080923150681 27:0.30732713723261 28:0.36129441715261257 29:0.17503895118617688 30:0.6339805292412213 31:0.5718380523836792 32:0.6344124842661765 33:0.7695094622220882 34:0.3824300657006215 35:0.3313335170679442 36:0.38022957974152327 37:0.3402026774725137 38:0.2514493390195225 39:0.2954830446337362 40:0.3672364209568708 41:0.40313595647403166 42:0.3727484251084784 43:0.3457167723868917 44:0.3256693916924936 45:0.4150167025288821 46:0.38273428180780916 47:0.34131634056664173 48:0.33712838429726366 49:0.355470099750747 50:0.3238524109595639 51:0.351407415047671 52:0.3081719877002966 53:0.2635792534542237 54:0.35148650552933197 55:0.38031823189065717 56:0.7307970558819348 57:0.38458872408046374 58:0.3367544005202144 59:0.7470320303094116 60:0.6343541530900499 61:0.6708965576179295 62:0.6100640926835453 63:0.3777359206088894 64:0.3223253427783646 65:0.3348234412431644 66:0.3187403689915973 67:0.699682130386622 68:0.536182553465064 69:0.6474443588511662 70:0.707538375018798 71:0.3002873595158988 72:0.688677085332966 73:0.6882177929703404 74:0.596063542378403 75:0.32934557592616864 76:0.3036003948388843 77:0.3836286775195288 78:1.0 79:0.513527510049491 
-0.0 0.0 0.40170209435768006 0.127326221978739 0:0.22626663131736216 1:0.3783667095627591 2:0.685115301546123 3:0.45641474922911407 4:0.46372128518979233 5:0.5245452841258 6:0.37665747032401364 7:0.30443800999131987 8:0.2136164612711399 9:0.3597847920169691 10:1.0 11:0.7542495963520068 12:0.6211408490076618 13:0.6057003681968816 14:0.22280526916622903 15:0.3916400027367774 16:0.19144865150071178 17:0.3951390227179098 18:0.35041280237907524 19:0.5377887225834854 20:0.4430943398555398 21:0.49835737106753875 22:0.20854033381419299 23:0.21110406723671282 24:0.26819920137419273 25:0.3652591473522558 26:0.4386274677855083 27:0.33759478138146803 28:0.4357981807603878 29:0.3999284641036826 30:0.32622887816839713 31:0.3054210044424289 32:0.3378871435862745 33:0.24362204151148203 34:0.5616658993213623 35:0.5828130481137054 36:0.42828889116013547 37:0.6796726436567812 38:0.5111066474591008 39:0.5587389692219227 40:0.5552939827265502 41:0.36205424204175773 42:0.3842806349396982 43:0.4565832334498282 44:0.4825438274316142 45:0.3965231728213921 46:0.5855409316074836 47:0.6272448025719595 48:0.5297905227114631 49:0.4829805977213085 50:0.516072551075409 51:0.4430564713999794 52:0.4632184026385125 53:0.49379426347132827 54:0.39072306377763744 55:0.502099541137654 56:0.29736589015609205 57:0.4070945056388865 58:0.3084215706961081 59:0.24093067154707082 60:0.2915143178193501 61:0.22314215124342401 62:0.2456408822026623 63:0.582294433752762 64:0.5497193918695087 65:0.4871638364642551 66:0.4996411795742545 67:0.23157174682222148 68:0.2841611825416164 69:0.2597564410632055 70:0.19080065946608216 71:0.6484487552649537 72:0.2908116809677494 73:0.2776221018062708 74:0.22426369843343166 75:0.5303044764193143 76:0.3294556216514737 77:0.4384610508796391 78:0.3414868357407583 79:0.30932846466286085 
-0.0 0.0 0.28395513714657633 0.0 0:0.26522595012881 1:0.25786536637112895 2:0.5857624615714481 3:0.36941754403604316 4:0.5449764018357547 5:0.6799376532629182 6:0.26884849713777914 7:0.3869557038680348 8:0.3818022251032047 9:0.43231813115722095 10:0.5377887225834854 11:0.6453521444090493 12:0.570683056730297 13:0.5127004151644226 14:0.1841423743676856 15:0.33146039788725234 16:0.13057375324480378 17:0.46708251881015717 18:0.29634052304378083 19:1.0 20:0.4122905329353493 21:0.5153112372590017 22:0.17616919619399046 23:0.13971822046615268 24:0.20910217458013178 25:0.41392437083803213 26:0.3063735037129547 27:0.36663814236642833 28:0.39757835270895303 29:0.5556914107067306 30:0.18941940205091576 31:0.25082393273947334 32:0.3342096830369419 33:0.10864256082521882 34:0.5120840595207267 35:0.6004911586764126 36:0.4008360577051489 37:0.7096325193974763 38:0.4099337780524652 39:0.6629380168897241 40:0.5054606783387732 41:0.4920725048790465 42:0.31095487392353066 43:0.5365628738487783 44:0.5568444149773463 45:0.38720740655106084 46:0.6205502073309475 47:0.49417898637896784 48:0.4667121795438984 49:0.47790149252280495 50:0.34114096256012605 51:0.4046470825976832 52:0.5091991000778021 53:0.3443386721088925 54:0.275654472198976 55:0.3786374015459999 56:0.31167492010894116 57:0.3432416562152104 58:0.3170705181468949 59:0.08926287399757722 60:0.12930207866028903 61:0.14679418624307472 62:0.14005278591519232 63:0.6108501477242709 64:0.5834991991381699 65:0.47832463166766337 66:0.4851837495122813 67:0.17480754409806554 68:0.3414544419542074 69:0.2300347811564836 70:0.2200825537731532 71:0.6067341531881267 72:0.1342190116778501 73:0.17990131541254176 74:0.18381783574466448 75:0.4490677653987241 76:0.3955575452186111 77:0.40148124887901604 78:0.20701807025358782 79:0.32628287377038917 
-0.0 1.0 0.8931930235325427 0.0 0:0.31789008635442334 1:0.3658617250107418 2:0.6453316953273092 3:0.5643708164495609 4:0.7511462394793482 5:0.5358066851523662 6:0.34104148244755944 7:0.37468471247465596 8:0.26328529135754636 9:0.5141198739083016 10:0.5616658993213623 11:0.7085366724493946 12:0.717059818756195 13:0.4959334901142485 14:0.22111333480824835 15:0.31686625005493096 16:0.2785464488296365 17:0.3400822005803853 18:0.34298184595780257 19:0.5120840595207267 20:0.4732253551035628 21:0.44345993964115443 22:0.24947158242698625 23:0.2481659414191943 24:0.3081547000104017 25:0.33639494502523687 26:0.6792317862012287 27:0.516850591812009 28:0.6095971729716743 29:0.5631462589390046 30:0.2646583869156594 31:0.21331098110062718 32:0.3953554221881175 33:0.2386141091560245 34:1.0 35:0.6284661920509537 36:0.654171869620477 37:0.5115729906921337 38:0.497905729289731 39:0.6886972206408637 40:0.4476010477923662 41:0.6932306044279464 42:0.49807228991394237 43:0.6359111657447881 44:0.741982886233735 45:0.535187305216565 46:0.75558938640612 47:0.5680557916667186 48:0.6452723871375905 49:0.6258136790934408 50:0.5868489286169843 51:0.5157731442952029 52:0.5606210419386097 53:0.5431768338264891 54:0.4426914688137823 55:0.6208179993163523 56:0.3172519185299741 57:0.49994220878926376 58:0.4629621900859483 59:0.23949579480951733 60:0.269232987255623 61:0.2896353622956136 62:0.2937957048642106 63:0.7589432490357702 64:0.6278843348226388 65:0.5499065920920991 66:0.5809907388600755 67:0.34049663563512195 68:0.3295358369457528 69:0.31069932825698593 70:0.2743715268394745 71:0.6327938371883446 72:0.2729306703878367 73:0.3569018813567952 74:0.30467017508457306 75:0.6161651798589248 76:0.5315570524736304 77:0.6401378229817962 78:0.3824300657006215 79:0.2715340292202959 
-0.0 0.5492061278995645 0.0 0.0 0:0.3268130888328638 1:0.4179828038498877 2:0.6696137781521219 3:0.5625477660454032 4:0.6948249695579103 5:0.7296987807817011 6:0.2969286840201128 7:0.4085011774976042 8:0.2602305663066753 9:0.42640857407172417 10:0.5828130481137054 11:0.7303836087060006 12:0.6402816931139216 13:0.5686960947064771 14:0.26389390851322664 15:0.4915951596657445 16:0.2723569766716828 17:0.4427311634302807 18:0.39120259081621145 19:0.6004911586764126 20:0.44579768604817777 21:0.47028826664677764 22:0.28648323179941765 23:0.3048224764312772 24:0.3352692090515212 25:0.4181845526775342 26:0.41131582641749587 27:0.5297030320265353 28:0.5011388794226818 29:0.5404502691479448 30:0.2702539858462187 31:0.3599387433692087 32:0.4505797039458221 33:0.2766083827343965 34:0.6284661920509537 35:1.0 36:0.4747359622209449 37:0.6926296334018048 38:0.40697468473123044 39:0.762202626813596 40:0.5608152404259666 41:0.6593944095118438 42:0.4106275344511233 43:0.7415574144581816 44:0.6807861552923223 45:0.6779890376392423 46:0.7450183131981958 47:0.7646370494299242 48:0.580445736569099 49:0.5796941413931336 50:0.43720577369980945 51:0.4984070687485074 52:0.5395006083255675 53:0.53755205239392 54:0.5103654323480662 55:0.5337536182657554 56:0.3390908966276818 57:0.404456259448453 58:0.46352101221402997 59:0.3223132414552487 60:0.3681510573699702 61:0.28725602488921487 62:0.30712412635535824 63:0.7714475294721388 64:0.749743942586159 65:0.5590969383807045 66:0.6135559448252698 67:0.2943105820627149 68:0.4409047461524323 69:0.33533015450423354 70:0.2658811188864075 71:0.5884721804945932 72:0.2728788973687764 73:0.3097300962124282 74:0.3472418463129996 75:0.6210019178665915 76:0.36643866598706254 77:0.5448533178708161 78:0.3313335170679442 79:0.416205748221744 
-0.5011019271294531 0.0 0.0 0.42739450634366444 0:0.48806744319990925 1:0.5071553518294053 2:0.5538230761283855 3:0.4521815350945136 4:0.766669675929017 5:0.5497484749968127 6:0.19754970174009276 7:0.39819811175144215 8:0.3681495931826584 9:0.4786345084839875 10:0.36205424204175773 11:0.6257174905169983 12:0.5989379359742791 13:0.41659664727115486 14:0.2693883359245236 15:0.47584533866863443 16:0.42352202913699954 17:0.4221073758364082 18:0.40317192154908876 19:0.4920725048790465 20:0.3419085018745401 21:0.3868034784917981 22:0.24820664997640368 23:0.420002158064823 24:0.4383880239305459 25:0.3897972299736265 26:0.5233243204166811 27:0.5483820868832604 28:0.5334284332453135 29:0.48741729334034545 30:0.28426483017492943 31:0.3054938824467033 32:0.6162000753696605 33:0.4063320609207757 34:0.6932306044279464 35:0.6593944095118438 36:0.45255684901538834 37:0.559143081692661 38:0.40205797974196067 39:0.634759995536351 40:0.45092172330368574 41:1.0 42:0.4081075535878992 43:0.7451639538423239 44:0.6824639756445587 45:0.5945066531617229 46:0.6474006285561094 47:0.5319985583418381 48:0.5141108820561615 49:0.4812749736508498 50:0.4692041378608024 51:0.5080877669608781 52:0.5543282714835491 53:0.4348728797480638 54:0.3934433198225472 55:0.49228607575349564 56:0.39649083828747944 57:0.329330684772929 58:0.4923649235810329 59:0.27496677659211904 60:0.4265122766241125 61:0.4226591182574733 62:0.3926001783174685 63:0.6634839774374508 64:0.7068826703643063 65:0.5471571422469216 66:0.4624625754449474 67:0.3154285655899012 68:0.40245012051487006 69:0.4461787262765412 70:0.4101468787388564 71:0.4811490531345481 72:0.3887266846400909 73:0.48980069007042043 74:0.45550085938052587 75:0.5043029260939109 76:0.5183251217265712 77:0.590406492202906 78:0.40313595647403166 79:0.31383579465123923 
-0.0 0.31971282132426465 0.24618496649452182 0.0 0:0.3775190740907546 1:0.39657515515290687 2:0.6362251070115299 3:0.5409367644660688 4:0.7589252221091252 5:0.504223145529465 6:0.21284706582801152 7:0.4008232146744771 8:0.3044214100059669 9:0.4881315163066997 10:0.4825438274316142 11:0.6497599940857334 12:0.7026450975052803 13:0.42775162519553567 14:0.11624970627862927 15:0.4279263421389326 16:0.322804138689936 17:0.3863113388907936 18:0.2657978379307883 19:0.5568444149773463 20:0.4225112182409536 21:0.44070625509673467 22:0.17463809064508487 23:0.3250505111565264 24:0.3348536687921669 25:0.31555607354090165 26:0.4690250700103705 27:0.5105850000873031 28:0.4831013830053442 29:0.5436678553602314 30:0.19382791582580003 31:0.2180031649443021 32:0.4612737390052116 33:0.2789385816511167 34:0.741982886233735 35:0.6807861552923223 36:0.542416110474202 37:0.582790248510169 38:0.5388623808835413 39:0.6545415442879693 40:0.5377471863541748 41:0.6824639756445587 42:0.46288903362649086 43:0.7647834727935893 44:1.0 45:0.5749100660232114 46:0.6878600490677134 47:0.6056984813956123 48:0.681343943433951 49:0.5598373416764302 50:0.4346886371810704 51:0.4933543977884804 52:0.6233192043253226 53:0.4665523464548369 54:0.43939446033899393 55:0.5428145068204207 56:0.31673067840920127 57:0.4680643496109802 58:0.38008708344600023 59:0.17927300329284723 60:0.3225648285668199 61:0.34970817962158035 62:0.31599643971574665 63:0.7511584591629537 64:0.7340793683995739 65:0.5868541356951378 66:0.5546078218545669 67:0.324875746694648 68:0.44901677529135425 69:0.41872540720861373 70:0.35003333173515977 71:0.5304387170537702 72:0.24956111415938986 73:0.383201815233081 74:0.33052444780245566 75:0.681573391633624 76:0.4967969225102973 77:0.5798145541601536 78:0.3256693916924936 79:0.24086002563232956 
-0.0 1.0 0.9797797936660332 0.0 0:0.21388710421664645 1:0.3551347690340604 2:0.6325408812837348 3:0.50524629452648 4:0.5574970062569097 5:0.6727246973294082 6:0.31543576110649774 7:0.34462597441282394 8:0.24653018506339364 9:0.37990845449296545 10:0.6484487552649537 11:0.650206823741762 12:0.6728333984493111 13:0.5360207909022434 14:0.24204320362894519 15:0.31373658897468804 16:0.22901892895240422 17:0.4451017234396582 18:0.28523315516509984 19:0.6067341531881267 20:0.41313139032911905 21:0.4613769756224202 22:0.21337650958509896 23:0.1944432597376093 24:0.23344327355447092 25:0.4290652613977637 26:0.4928373936117859 27:0.48984762437460716 28:0.5785975958770766 29:0.45403199529461646 30:0.23532100723515723 31:0.30887890058906603 32:0.31012471941747816 33:0.19704752411454876 34:0.6327938371883446 35:0.5884721804945932 36:0.490388211210235 37:0.7025265451791856 38:0.5722346004246006 39:0.6991638868072771 40:0.5963317947864295 41:0.4811490531345481 42:0.4058337087271863 43:0.44511671364990496 44:0.5304387170537702 45:0.3809934457167438 46:0.5555252800154757 47:0.6010575258063038 48:0.6283262483363481 49:0.6205929303560682 50:0.5188837366714817 51:0.48838105832587586 52:0.5426025868052982 53:0.5136089024574089 54:0.39778264107825734 55:0.5231657719469766 56:0.31885980368720446 57:0.5490079546651865 58:0.3943890558234735 59:0.24837758496038367 60:0.26669404038459454 61:0.20590269774655826 62:0.2385009466320244 63:0.5628029790230492 64:0.5554584129380137 65:0.6185089810503965 66:0.6126151354226825 67:0.18911667623671632 68:0.3472543266885183 69:0.2708252192957849 70:0.22300616306183985 71:1.0 72:0.20346436206363006 73:0.2565221010907538 74:0.2119111598228559 75:0.711167129384741 76:0.3815441842860039 77:0.6208766888384056 78:0.3002873595158988 79:0.3589573927522613 
-0.0 -0.0 1.0 0.08352266533349949 0:0.3222376611519915 1:0.48892611017683485 2:0.5034458623487315 3:1.0 4:0.5127744559158289 5:0.44004020069628474 6:0.6248651676960153 7:0.7034507279085254 8:0.34355294083073873 9:0.6321286603775622 10:0.45641474922911407 11:0.5733479178226921 12:0.4850404986812129 13:0.5775247205890527 14:0.29164857937082533 15:0.455919874182939 16:0.31019422980320754 17:0.6196651783460135 18:0.313645979990698 19:0.36941754403604316 20:0.5823745469244972 21:0.6202965965689982 22:0.3559813872759209 23:0.30286632006427755 24:0.3124807692772277 25:0.4670204710233273 26:0.6283894042316457 27:0.7235261390805021 28:0.6176875526054535 29:0.5665903405522714 30:0.3036854783762211 31:0.3623655505051916 32:0.34931471529383623 33:0.3514639216353501 34:0.5643708164495609 35:0.5625477660454032 36:0.688415762316883 37:0.4109698954510761 38:0.5276982002203823 39:0.49389080559124166 40:0.5488704157622007 41:0.4521815350945136 42:0.5675030002253311 43:0.5256629155237701 44:0.5409367644660688 45:0.592343112763148 46:0.4728767881739048 47:0.6514221228210226 48:0.6727980962454048 49:0.6098875174167275 50:0.6963693737122096 51:0.6682143085730288 52:0.5820871150876222 53:0.7644273493938556 54:0.45666751798832445 55:0.6528135503327003 56:0.35453833551357194 57:0.6005848204927982 58:0.5770860479667084 59:0.31901282385693785 60:0.3689568664337835 61:0.29076304203842224 62:0.30073602342422884 63:0.4467013477602313 64:0.3953295684478683 65:0.5771697966984953 66:0.627140204275745 67:0.3451741814446181 68:0.40964886587891713 69:0.36388968301490926 70:0.40084521642427706 71:0.50524629452648 72:0.30032680237248843 73:0.3741449138926862 74:0.3131774017497511 75:0.6956850882804981 76:0.7016162137568701 77:0.5974467956886179 78:0.3412129941190874 79:0.42747272636774253 
-0.0 -0.0 1.0 0.0 0:0.2878999390700093 1:0.33994585962968205 2:0.5074174991106679 3:0.6283894042316457 4:0.5578861431219593 5:0.3509894710604139 6:0.4521427171028697 7:0.49108094050630047 8:0.2429307004331715 9:0.5413635897655745 10:0.4386274677855083 11:0.47366416681463486 12:0.4905864142199257 13:0.6013257983063117 14:0.2184889886013978 15:0.15426462487644277 16:0.2549731434442014 17:0.416482945641131 18:0.2736780622645078 19:0.3063735037129547 20:0.44532104619074964 21:0.4751397712520564 22:0.21170406578675144 23:0.22398839534105877 24:0.276118676723346 25:0.23378139886087568 26:1.0 27:0.5947957518748155 28:0.8591478820021053 29:0.5387833458181273 30:0.22917383409660275 31:0.23038695607806614 32:0.30800388734910505 33:0.3151448277815355 34:0.6792317862012287 35:0.41131582641749587 36:0.6697448846427744 37:0.40960315484641874 38:0.6017976200204106 39:0.442995693883496 40:0.6037754036225221 41:0.5233243204166811 42:0.5507121366436993 43:0.4765249711219992 44:0.4690250700103705 45:0.5703365376792643 46:0.5813052364277485 47:0.536424983857444 48:0.6742767899835804 49:0.6352164727061123 50:0.8577121704670574 51:0.7331718922270835 52:0.7411582389346327 53:0.7190589348719033 54:0.49181408711361746 55:0.7479650793903379 56:0.36375972616013624 57:0.62626245414977 58:0.6831656647840434 59:0.26353941927069374 60:0.2819609881742461 61:0.34759490832211054 62:0.32415875147160117 63:0.4541232320827035 64:0.40686019091869574 65:0.6703838204481971 66:0.6375462475062391 67:0.25055301137729286 68:0.21793064075366825 69:0.3480884146629443 70:0.20366830861520843 71:0.4928373936117859 72:0.26209859295121707 73:0.3467595845936571 74:0.33337327870977895 75:0.6146997890326749 76:0.6205749678137491 77:0.6876380378633914 78:0.3686080923150681 79:0.215737967544084 
-0.3854423393286015 -0.3990723140915155 0.9904433868953653 0.3106695534401125 0:0.38380905536092624 1:0.4216105612250501 2:0.43775933040546827 3:0.592343112763148 4:0.5255426290637528 5:0.39183317650811866 6:0.4026389181879811 7:0.4894551829766935 8:0.3407741429489958 9:0.6096182118915017 10:0.3965231728213921 11:0.47429476584290237 12:0.4080586144492871 13:0.6247898832926118 14:0.18471347984384817 15:0.3673014989928385 16:0.32085627859008214 17:0.40725846718675385 18:0.32915869529378 19:0.38720740655106084 20:0.4544264413218485 21:0.5229798572277385 22:0.2595307689319638 23:0.3341926559753754 24:0.3837885398127329 25:0.38079707658214906 26:0.5703365376792643 27:0.5020752362959346 28:0.6083810036830382 29:0.5591462712384124 30:0.23335330901908624 31:0.2739475431939711 32:0.46422540633489706 33:0.3920327512117705 34:0.535187305216565 35:0.6779890376392423 36:0.4955013751489308 37:0.48754956359703083 38:0.5328857498052468 39:0.4852461367750839 40:0.5624476767738074 41:0.5945066531617229 42:0.5580207604127754 43:0.5876385741984249 44:0.5749100660232114 45:1.0 46:0.534672667499804 47:0.6533911122967402 48:0.6332515947579193 49:0.6408626685252232 50:0.5442246371518198 51:0.639934301643176 52:0.5924857326618443 53:0.6109445838733257 54:0.5617216873811721 55:0.6379991150351301 56:0.44554073158526863 57:0.5139940979408482 58:0.5689035273560326 59:0.295803282261615 60:0.361061940959127 61:0.39122547311970785 62:0.38096793632313525 63:0.5118528747262124 64:0.5789973855343028 65:0.5852699731102724 66:0.6196455035281433 67:0.2243851084738436 68:0.2679620161110913 69:0.4316035542744532 70:0.31009797733751787 71:0.3809934457167438 72:0.3592080690375844 73:0.4271657298595712 74:0.3952319734488324 75:0.5679533989979255 76:0.4865606737086722 77:0.6351268678417568 78:0.4150167025288821 79:0.2856955854665555 
-0.0 -1.0 0.0 0.0 0:0.3295522511817277 1:0.45789553168654695 2:0.5796964387244823 3:0.6514221228210226 4:0.5945595893942266 5:0.6347918726049888 6:0.3970322364358441 7:0.46374303853047444 8:0.22078316232653178 9:0.47793523884227096 10:0.6272448025719595 11:0.7179755681797328 12:0.6007402240312715 13:0.7360395088331884 14:0.19040111737819482 15:0.37209126649934937 16:0.35152477435589935 17:0.4993351816575624 18:0.3108168850918903 19:0.49417898637896784 20:0.4715384942649564 21:0.5225962052211988 22:0.23147445424208904 23:0.3372350903237846 24:0.3640949193992594 25:0.36500975975687544 26:0.536424983857444 27:0.6122336414800685 28:0.6304562918858798 29:0.6142756391872133 30:0.26285122975862824 31:0.3768805010405518 32:0.4119202653884802 33:0.307397993297355 34:0.5680557916667186 35:0.7646370494299242 36:0.5414186828481267 37:0.6774122906116627 38:0.5448277880376005 39:0.6287799886595463 40:0.7280825820857382 41:0.5319985583418381 42:0.5231483505305157 43:0.5861298863819259 44:0.6056984813956123 45:0.6533911122967402 46:0.6186592855753975 47:1.0 48:0.7220682530373801 49:0.7483768796650767 50:0.6053511174707786 51:0.5984616146716322 52:0.7111211862608073 53:0.6807290664743375 54:0.6038310318406166 55:0.5917254974869544 56:0.40914420042096866 57:0.5832286049712732 58:0.5483113897234757 59:0.325912900202817 60:0.41149551517993843 61:0.3132968109237518 62:0.3613333421495777 63:0.5873518685568916 64:0.6749666540393828 65:0.6712829348826159 66:0.7210327373157478 67:0.285916624069837 68:0.3067566147822863 69:0.323917002657933 70:0.2623831505003419 71:0.6010575258063038 72:0.31976704078511226 73:0.4041231835090766 74:0.3428194654392088 75:0.760110659793805 76:0.4242500362191223 77:0.651857038698545 78:0.34131634056664173 79:0.376344370471167 
-0.0 -0.26547664079038696 0.0 0.0 0:0.3208391741684939 1:0.37799966699988474 2:0.6300602625032066 3:0.6727980962454048 4:0.7141611076155756 5:0.5205042590792551 6:0.36166773484275183 7:0.4609053960644634 8:0.3192298871428219 9:0.540364224418258 10:0.5297905227114631 11:0.5967642968773227 12:0.6639433566300975 13:0.6725393618957272 14:0.14591494491042029 15:0.2961211355509267 16:0.29559754644383296 17:0.5228524201259749 18:0.2031446244600895 19:0.4667121795438984 20:0.4636854768492666 21:0.5051788485742914 22:0.20166611964515146 23:0.27977718561065634 24:0.31342471904852426 25:0.33581939023174 26:0.6742767899835804 27:0.6099771147636577 28:0.7134821438389709 29:0.6873863114272682 30:0.21003997221271153 31:0.2288286879208384 32:0.3568981269203336 33:0.3100156468670316 34:0.6452723871375905 35:0.580445736569099 36:0.6169648429640575 37:0.5772412787090595 38:0.683627100809244 39:0.5306231798500342 40:0.6710384935813221 41:0.5141108820561615 42:0.573877017209248 43:0.5433644726788417 44:0.681343943433951 45:0.6332515947579193 46:0.5845100670715537 47:0.7220682530373801 48:1.0 49:0.8271539724031154 50:0.6101219884660252 51:0.6497815658000502 52:0.7367929704253778 53:0.6312104308094089 54:0.6011197113655549 55:0.6681640529872515 56:0.34805912146199974 57:0.7396629687111778 58:0.5514051538588653 59:0.22103581377778359 60:0.32092102121030236 61:0.31245480215475285 62:0.31076735145413314 63:0.6089170143479194 64:0.6061849489619153 65:0.8507082920840302 66:0.8212469140487816 67:0.27544681253677955 68:0.3595820598615144 69:0.39067065036696064 70:0.29402023337535804 71:0.6283262483363481 72:0.24256837726180663 73:0.3873033902051772 74:0.34807524829009734 75:0.8513553726256815 76:0.569285816941658 77:0.7347799155225312 78:0.33712838429726366 79:0.25674972778056054 
-0.0 -0.3569585080041595 1.0 0.0 0:0.23691674048298964 1:0.340804059938243 2:0.6044719926296305 3:0.6098875174167275 4:0.6521610426374704 5:0.5280766626770371 6:0.40165550607763045 7:0.4605719211678794 8:0.29231803575624765 9:0.47382481300444756 10:0.4829805977213085 11:0.5486759541432397 12:0.5617067520061644 13:0.6943399781155193 14:0.116999369059338 15:0.19948154288808775 16:0.23908022898456982 17:0.5070282583977234 18:0.19091635616578714 19:0.47790149252280495 20:0.3769829880157579 21:0.4644297895859234 22:0.18609112246426127 23:0.18423123779911796 24:0.24497184727177013 25:0.319311811839631 26:0.6352164727061123 27:0.5689807372206666 28:0.7137191047166345 29:0.6154125954372529 30:0.16789256272276915 31:0.20381658274279157 32:0.31241081171174645 33:0.2311900917072828 34:0.6258136790934408 35:0.5796941413931336 36:0.5736594661272363 37:0.527921097109506 38:0.5441037619122082 39:0.5079782174216663 40:0.6676264835254442 41:0.4812749736508498 42:0.5109412313966932 43:0.40955223620048803 44:0.5598373416764302 45:0.6408626685252232 46:0.5380635364347718 47:0.7483768796650767 48:0.8271539724031154 49:1.0 50:0.5988312573714187 51:0.6042530478412388 52:0.6838997541263623 53:0.629415660174018 54:0.5901153635729466 55:0.5778089639891376 56:0.430215393268675 57:0.6859908096481702 58:0.5737106254792289 59:0.23637867091106382 60:0.25628768003746766 61:0.2370594016158486 62:0.26552087907543465 63:0.588800099052865 64:0.5221084262486287 65:0.8299406885327102 66:0.8877549221581653 67:0.22298121414823424 68:0.24798886130687392 69:0.2605285917164724 70:0.21239392658478246 71:0.6205929303560682 72:0.23151079631391927 73:0.33886259993085743 74:0.30877472807416 75:0.7782602491289237 76:0.5406018603001306 77:0.7911346349176852 78:0.355470099750747 79:0.21793290338492494 
-0.0 -0.0 1.0 0.0 0:0.3884169404039516 1:0.395825915204553 2:0.48191198405559776 3:0.6682143085730288 4:0.4986390336219848 5:0.42157927517362503 6:0.4779871379515317 7:0.6808866765624926 8:0.22228920012842773 9:0.6392325490921802 10:0.4430564713999794 11:0.4935911831910337 12:0.4663423254869597 13:0.595031709870055 14:0.11068198782168501 15:0.2105033343287737 16:0.28485632871003086 17:0.5082374202465659 18:0.22830907959344404 19:0.4046470825976832 20:0.49960694237512615 21:0.5594274141668842 22:0.13931812301165875 23:0.3055485650293928 24:0.34487211705670506 25:0.24572542899784805 26:0.7331718922270835 27:0.6318423276522763 28:0.767650775543207 29:0.5603035710565876 30:0.21156373458288985 31:0.255090352616547 32:0.36042549228266385 33:0.3684245055532958 34:0.5157731442952029 35:0.4984070687485074 36:0.6644131106040925 37:0.4919540434039459 38:0.514398452383267 39:0.5338881245530627 40:0.6286020483145903 41:0.5080877669608781 42:0.573543924422153 43:0.533991593498626 44:0.4933543977884804 45:0.639934301643176 46:0.5378130171918265 47:0.5984616146716322 48:0.6497815658000502 49:0.6042530478412388 50:0.681869544085272 51:1.0 52:0.6648315767897834 53:0.6538276152599088 54:0.43279633590636923 55:0.7472364325492928 56:0.42469617581299857 57:0.6599420211559652 58:0.7642867766379341 59:0.25743256324830494 60:0.33096541077412506 61:0.3286885076454176 62:0.3168269677344711 63:0.43657585095149837 64:0.4461287425184789 65:0.646766664885104 66:0.6205433251767081 67:0.17474780674726115 68:0.22968534532840396 69:0.39347018727010935 70:0.24419494211947196 71:0.48838105832587586 72:0.205934092632527 73:0.38173684626382237 74:0.33999931291427987 75:0.6616743229980702 76:0.6751667396367824 77:0.7101925829769683 78:0.351407415047671 79:0.23504919216059633 
-0.0 -0.0 0.39424019918736064 0.0 0:0.27374508843008694 1:0.3980508626061982 2:0.4671442534674476 3:0.7644273493938556 4:0.4419382931764161 5:0.40787669317758746 6:0.5077952988168284 7:0.5376917566008808 8:0.21258864728356555 9:0.46858613576676994 10:0.49379426347132827 11:0.5543923368334693 12:0.481217176922116 13:0.6807854747056157 14:0.23527324750018214 15:0.324505436118747 16:0.24519962893378539 17:0.43105244858341385 18:0.2696564341543477 19:0.3443386721088925 20:0.4703323310826909 21:0.5839487631126835 22:0.17241648684445027 23:0.24423493352995612 24:0.23408302616829263 25:0.2780296325566918 26:0.7190589348719033 27:0.5342613778050058 28:0.7109595052049741 29:0.4730645020964195 30:0.24506523376101255 31:0.3482152853864539 32:0.3087729543287043 33:0.3166761490326414 34:0.5431768338264891 35:0.53755205239392 36:0.5898464359706503 37:0.4534227845213829 38:0.5551310891868453 39:0.5291523583590846 40:0.6777099127447831 41:0.4348728797480638 42:0.51026706481006 43:0.5190086820598596 44:0.4665523464548369 45:0.6109445838733257 46:0.4345188340877511 47:0.6807290664743375 48:0.6312104308094089 49:0.629415660174018 50:0.8182954367432012 51:0.6538276152599088 52:0.688283372313527 53:1.0 54:0.45851466520057094 55:0.6322072830486556 56:0.3582109056477546 57:0.5057016799827465 58:0.6164392003637694 59:0.249552944793262 60:0.36614912120283316 61:0.2543025674366739 62:0.2815046451185325 63:0.3836217257017288 64:0.47122077891571135 65:0.5279564843691278 66:0.6449059701254775 67:0.14233031076886343 68:0.2110118294181167 69:0.2940778227962411 70:0.1755246220569778 71:0.5136089024574089 72:0.2649729531229628 73:0.30429391750845636 74:0.336905869511569 75:0.6218602451686479 76:0.5079962638121912 77:0.5502428624798367 78:0.2635792534542237 79:0.3068351641961815 
-0.0 -0.6950162105314049 1.0 0.0 0:0.3082803205398037 1:0.3194287763007311 2:0.5764892473371972 3:0.6528135503327003 4:0.4981705745267253 5:0.41718540493370215 6:0.42950208378326094 7:0.5500952326929734 8:0.2302136880992179 9:0.6032140843243806 10:0.502099541137654 11:0.47929673581317767 12:0.5234160430257654 13:0.6320784685828087 14:0.2529810869766166 15:0.253092507467551 16:0.20949455387508908 17:0.4343025544490398 18:0.2914816767354783 19:0.3786374015459999 20:0.6576035413515399 21:0.4926126007932961 22:0.20896690215266034 23:0.23552352252181769 24:0.29251308378687657 25:0.2523674422858628 26:0.7479650793903379 27:0.6148230774572749 28:0.6648728296029414 29:0.4634427638564754 30:0.34148158272505064 31:0.2457234589009618 32:0.31175573473362495 33:0.27508157238943626 34:0.6208179993163523 35:0.5337536182657554 36:0.6671629785930057 37:0.4818922524500533 38:0.6539176369240134 39:0.5653805303836482 40:0.5892098401805264 41:0.49228607575349564 42:0.5745345952652943 43:0.5616479527510474 44:0.5428145068204207 45:0.6379991150351301 46:0.5499983823134436 47:0.5917254974869544 48:0.6681640529872515 49:0.5778089639891376 50:0.6765132125508404 51:0.7472364325492928 52:0.6252427748260128 53:0.6322072830486556 54:0.45625972176131147 55:1.0 56:0.29273545930076084 57:0.6278581894773253 58:0.549666962639545 59:0.24819293129449274 60:0.2931774913736057 61:0.27007230836611185 62:0.24122790001509364 63:0.5031197820358226 64:0.42488282851862175 65:0.5880789005458795 66:0.5918714975544719 67:0.21280750537579593 68:0.17040452824307994 69:0.34118365816507806 70:0.20520186373951393 71:0.5231657719469766 72:0.24571647758867174 73:0.3113584696853644 74:0.2670306972777876 75:0.6557055450050522 76:0.5615633037777921 77:0.6611129935227253 78:0.38031823189065717 79:0.23881486526799153 
-0.0 -0.0 0.10957053379201417 0.0 0:0.2893206151930503 1:0.3193012826319301 2:0.6756791900418408 3:0.627140204275745 4:0.6176883190366307 5:0.5496485408348232 6:0.4505636348486016 7:0.5136499518495885 8:0.29343606660406707 9:0.5073291351710998 10:0.4996411795742545 11:0.5920906953348946 12:0.5229743196444424 13:0.6871826911362501 14:0.1617026521546207 15:0.246217311366088 16:0.23007544082565418 17:0.5306402005199492 18:0.21282942862250262 19:0.4851837495122813 20:0.432297265888083 21:0.5503066132736135 22:0.20698024598528447 23:0.16155850682794282 24:0.21970621165808377 25:0.3381156957512557 26:0.6375462475062391 27:0.5870080591342377 28:0.715963326712296 29:0.6835015375431225 30:0.20016932254090675 31:0.26188859316997476 32:0.28445689138711205 33:0.22584924667984096 34:0.5809907388600755 35:0.6135559448252698 36:0.5519881571674413 37:0.5091640978758606 38:0.5780315524870987 39:0.5714440639831957 40:0.6316615057961836 41:0.4624625754449474 42:0.5008968523939727 43:0.4992707939547769 44:0.5546078218545669 45:0.6196455035281433 46:0.5233326414579862 47:0.7210327373157478 48:0.8212469140487816 49:0.8877549221581653 50:0.6366544735752466 51:0.6205433251767081 52:0.7137867003156944 53:0.6449059701254775 54:0.5369538657232388 55:0.5918714975544719 56:0.3621962450663633 57:0.6835712025157323 58:0.6032899004747989 59:0.23581535569014805 60:0.23760344325895055 61:0.1879262129697355 62:0.23504662400683785 63:0.5597916432351511 64:0.4940097499980024 65:0.8580820297496214 66:1.0 67:0.2325775504227852 68:0.28145969342283594 69:0.24614945448795073 70:0.1808562370258181 71:0.6126151354226825 72:0.221003004460468 73:0.2999883743038818 74:0.26743202243507236 75:0.808301810137317 76:0.553762335169059 77:0.7852717313838091 78:0.3187403689915973 79:0.24812390495783115 
-0.0 -0.15239527580636236 0.0 0.0 0:0.32816366824490284 1:0.4408571635413053 2:0.6735568594337027 3:0.6956850882804981 4:0.6206782789555348 5:0.5450995830849377 6:0.3871131971725825 7:0.5305633635109266 8:0.24571642308799607 9:0.5083213643468091 10:0.5303044764193143 11:0.5887477142846227 12:0.6110820023120744 13:0.6255778603840076 14:0.17856280393540705 15:0.32945792768809307 16:0.3751217718269772 17:0.5405431510846457 18:0.24366522136225865 19:0.4490677653987241 20:0.4754998618223898 21:0.55052495856182 22:0.2131328967776718 23:0.3144476671336458 24:0.3095169839801299 25:0.3544804403300196 26:0.6146997890326749 27:0.679684994905166 28:0.6994886580580882 29:0.6316782360822395 30:0.18914277371421967 31:0.26458525290249296 32:0.387369215786779 33:0.25985300494903446 34:0.6161651798589248 35:0.6210019178665915 36:0.5962134857323701 37:0.5925935279208632 38:0.6571348152875185 39:0.561997778875371 40:0.7490483062139066 41:0.5043029260939109 42:0.5690306184416138 43:0.5222143494355174 44:0.681573391633624 45:0.5679533989979255 46:0.5224960758135277 47:0.760110659793805 48:0.8513553726256815 49:0.7782602491289237 50:0.642197757206779 51:0.6616743229980702 52:0.7519856898163075 53:0.6218602451686479 54:0.5960239292051172 55:0.6557055450050522 56:0.34704183777622793 57:0.6875599794906679 58:0.5630644895210347 59:0.29222878799810154 60:0.35179700461816926 61:0.3105222724757332 62:0.34514575027686606 63:0.59804566943962 64:0.5690716319980269 65:0.8403659712846926 66:0.808301810137317 67:0.3072635217165192 68:0.3787333036926846 69:0.3822822336059667 70:0.2882986862826485 71:0.711167129384741 72:0.2665165930267716 73:0.3846701920999093 74:0.3302946000473664 75:1.0 76:0.5882721619173199 77:0.7733909435254962 78:0.32934557592616864 79:0.2532041219052746 
-0.0 -0.0 0.03982853753314717 0.0 0:0.34948717989142936 1:0.369554354090396 2:0.5752983959517117 3:0.5974467956886179 4:0.5745761074697955 5:0.4482541171552195 6:0.37521768954266366 7:0.5300519080328203 8:0.2771632034717223 9:0.5222384577286097 10:0.4384610508796391 11:0.5345773203777627 12:0.5190677010307597 13:0.5489361060359681 14:0.12001285425909117 15:0.26387006666355356 16:0.309572855074253 17:0.501236446662907 18:0.21818722644636734 19:0.40148124887901604 20:0.3822503822456816 21:0.48456199633774616 22:0.16844571261407187 23:0.2729700216484325 24:0.3346650169652072 25:0.31357674794255486 26:0.6876380378633914 27:0.6403377835159396 28:0.7472293672988009 29:0.5967139051454289 30:0.18825257269471948 31:0.249218368506678 32:0.39304433626328494 33:0.29894581879404847 34:0.6401378229817962 35:0.5448533178708161 36:0.5908885867041684 37:0.5249449085051254 38:0.5917923560922671 39:0.5287212533516312 40:0.5831876834143914 41:0.590406492202906 42:0.481052178898627 43:0.4999046818779619 44:0.5798145541601536 45:0.6351268678417568 46:0.549230147526891 47:0.651857038698545 48:0.7347799155225312 49:0.7911346349176852 50:0.5844976484506488 51:0.7101925829769683 52:0.6719457926498089 53:0.5502428624798367 54:0.5365748564554254 55:0.6611129935227253 56:0.42714137954716364 57:0.7025540765820282 58:0.6806679139612433 59:0.28203342326173314 60:0.3204105311214523 61:0.3240978357635501 62:0.33767540874848745 63:0.5378002925954409 64:0.5021533201209663 65:0.8169291313116306 66:0.7852717313838091 67:0.23238645936469457 68:0.2774018355730993 69:0.37678832189626804 70:0.30616489633332494 71:0.6208766888384056 72:0.2531406771671932 73:0.389341854373631 74:0.3629818722850649 75:0.7733909435254962 76:0.6306066772466422 77:1.0 78:0.3836286775195288 79:0.22896979451990868 
-0.10730818446249211 -0.0 -0.0 0.14281340387493796 0:0.34801894716492826 1:0.3967963784685641 2:0.37210000049436354 3:0.6196651783460135 4:0.4608725517380485 5:0.4139288256233447 6:0.501024286802118 7:0.5488999949654505 8:0.39119076650549156 9:0.6282365079839825 10:0.3951390227179098 11:0.4770228641858493 12:0.3502120758437556 13:0.5451218577474761 14:0.17852906822905978 15:0.3551097965692841 16:0.2576339583032601 17:1.0 18:0.16864138921424993 19:0.46708251881015717 20:0.5469964690989191 21:0.5606375538006041 22:0.2323860806077848 23:0.2758352825395457 24:0.2616621437407015 25:0.43042949634824956 26:0.416482945641131 27:0.6840907504023697 28:0.5024277151513373 29:0.49726974415728625 30:0.22768685855996093 31:0.2448606812696582 32:0.3621980946179179 33:0.2814806563096996 34:0.3400822005803853 35:0.4427311634302807 36:0.5711908172375674 37:0.4355075091714694 38:0.3353953745428745 39:0.41181260265323055 40:0.6199879199851891 41:0.4221073758364082 42:0.4073551421229029 43:0.328763894140301 44:0.3863113388907936 45:0.40725846718675385 46:0.3678345742616356 47:0.4993351816575624 48:0.5228524201259749 49:0.5070282583977234 50:0.4221932305310975 51:0.5082374202465659 52:0.5327963972170988 53:0.43105244858341385 54:0.3473179950847217 55:0.4343025544490398 56:0.33777061252589985 57:0.4542895533707463 58:0.47249259464434423 59:0.2058794138864547 60:0.2899413263963711 61:0.24300848897794283 62:0.20765320504836624 63:0.355164925594136 64:0.27933427374566777 65:0.5916980834712412 66:0.5306402005199492 67:0.25451222257411066 68:0.38257106502816407 69:0.30533691725544304 70:0.347515739062772 71:0.4451017234396582 72:0.28244416168799547 73:0.32143200740321237 74:0.28011294182425145 75:0.5405431510846457 76:0.7647641174676933 77:0.501236446662907 78:0.3472090245283412 79:0.2755512843163631 
-0.0 -0.0 -1.0 0.0 0:0.369499973686734 1:0.40437136735326884 2:0.4136411706533334 3:0.7235261390805021 4:0.4895329515294603 5:0.41180938125233896 6:0.42140427047431683 7:0.5958534843083441 8:0.36283163886018 9:0.6835071947367306 10:0.33759478138146803 11:0.47645008800624905 12:0.454271489915716 13:0.4457944443885573 14:0.1838681154006937 15:0.4417340350891731 16:0.2973630606504076 17:0.6840907504023697 18:0.22567933562664433 19:0.36663814236642833 20:0.641567869962254 21:0.5402662731277886 22:0.23298553581624654 23:0.3534880356165311 24:0.3510414810830593 25:0.43576795738379026 26:0.5947957518748155 27:1.0 28:0.6394452750775488 29:0.5960047039390739 30:0.26412293261558534 31:0.3106472514960562 32:0.3790941492134727 33:0.2950177970339131 34:0.516850591812009 35:0.5297030320265353 36:0.7025354607585903 37:0.42960414820180903 38:0.4884650490780533 39:0.5148402984523472 40:0.545856402840355 41:0.5483820868832604 42:0.4643613705605246 43:0.4699846446273435 44:0.5105850000873031 45:0.5020752362959346 46:0.43284266009458094 47:0.6122336414800685 48:0.6099771147636577 49:0.5689807372206666 50:0.6172273527804484 51:0.6318423276522763 52:0.6544688656861832 53:0.5342613778050058 54:0.35368714224231235 55:0.6148230774572749 56:0.34065061268881813 57:0.5987700569909862 58:0.5731601412527171 59:0.23823678011501262 60:0.3764640347330227 61:0.29820611480054343 62:0.297014515022554 63:0.443813877958163 64:0.4095147714026658 65:0.6141840703920153 66:0.5870080591342377 67:0.2881734863166852 68:0.35215740832635106 69:0.3156715381750915 70:0.3548740919575252 71:0.48984762437460716 72:0.298778504556062 73:0.39881107887417994 74:0.36792040590313513 75:0.679684994905166 76:0.7639317083870183 77:0.6403377835159396 78:0.30732713723261 79:0.3861745510278166 
-0.0 -0.9642382432461226 -0.8964989655789866 0.0 0:0.2313661257182156 1:0.2477834939285364 2:0.48383251950703254 3:0.5665903405522714 4:0.5496132713658635 5:0.44193678310459095 6:0.4118896740558663 7:0.5198042798260596 8:0.27064069845386185 9:0.5249347797219154 10:0.3999284641036826 11:0.56266020750308 12:0.547757104262152 13:0.5689335448607893 14:0.10522694455681005 15:0.2908885593244298 16:0.1978564183682175 17:0.49726974415728625 18:0.12414056621210458 19:0.5556914107067306 20:0.45938159119348865 21:0.6181365216316073 22:0.20242119112887486 23:0.1808277220671568 24:0.20617309808579992 25:0.333444301433183 26:0.5387833458181273 27:0.5960047039390739 28:0.5661275976440763 29:1.0 30:0.12860270434849408 31:0.16862293765436764 32:0.23252050287822745 33:0.18455519640213863 34:0.5631462589390046 35:0.5404502691479448 36:0.4905108719023352 37:0.44428566817907156 38:0.4787206662655038 39:0.5356010034144749 40:0.5346996561983888 41:0.48741729334034545 42:0.4673113432549844 43:0.489634623567066 44:0.5436678553602314 45:0.5591462712384124 46:0.5253109999384244 47:0.6142756391872133 48:0.6873863114272682 49:0.6154125954372529 50:0.536732080339245 51:0.5603035710565876 52:0.6581753973729572 53:0.4730645020964195 54:0.47997579468349383 55:0.4634427638564754 56:0.2381858708042457 57:0.502572715422255 58:0.5186091083899474 59:0.15105976960919743 60:0.17254833302377331 61:0.21555660297479823 62:0.26661224225814006 63:0.5346079329995775 64:0.48798776873535576 65:0.6897944988663399 66:0.6835015375431225 67:0.22889557636828958 68:0.3015018429419737 69:0.24692149542360026 70:0.2401587113891457 71:0.45403199529461646 72:0.17419696289197123 73:0.29115844598369994 74:0.22293320575999492 75:0.6316782360822395 76:0.5703843888871962 77:0.5967139051454289 78:0.17503895118617688 79:0.24709858178964686 
-0.0 -0.4921601837552222 -1.0 0.0 0:0.25809239812423646 1:0.31440282529124736 2:0.45629591485807064 3:0.688415762316883 4:0.49844781451167663 5:0.3890017130218441 6:0.479227005241167 7:0.5957191978292465 8:0.2673688535757227 9:0.6830261755382293 10:0.42828889116013547 11:0.5052969994699659 12:0.5290108790311641 13:0.42569486089951436 14:0.22503943704785298 15:0.26283811338681956 16:0.20220527234507799 17:0.5711908172375674 18:0.2362887855737923 19:0.4008360577051489 20:0.6872046483218227 21:0.4730755888178041 22:0.24096280515168478 23:0.21085675763371958 24:0.21404776535931858 25:0.2979024638069261 26:0.6697448846427744 27:0.7025354607585903 28:0.6319087754246749 29:0.4905108719023352 30:0.2770160124877949 31:0.20043481551105014 32:0.2574498708102865 33:0.27303441715655336 34:0.654171869620477 35:0.4747359622209449 36:1.0 37:0.46969052081163554 38:0.5085841350262494 39:0.5036886244124492 40:0.4777756916881843 41:0.45255684901538834 42:0.5154203207326855 43:0.4928280131646397 44:0.542416110474202 45:0.4955013751489308 46:0.5808087477703656 47:0.5414186828481267 48:0.6169648429640575 49:0.5736594661272363 50:0.5661912894621636 51:0.6644131106040925 52:0.5351410790249069 53:0.5898464359706503 54:0.44388271230231313 55:0.6671629785930057 56:0.3046589916136335 57:0.6868045330656758 58:0.5563896245099715 59:0.27709643624598235 60:0.2696268751510912 61:0.24342048308479566 62:0.20613998656258928 63:0.5343349650740481 64:0.40521981924364486 65:0.5492919209804776 66:0.5519881571674413 67:0.3211373726147058 68:0.2601798583318833 69:0.27029541298428983 70:0.26994167980261136 71:0.490388211210235 72:0.19614178132268284 73:0.2785267936196771 74:0.22958353711162505 75:0.5962134857323701 76:0.6989371802899451 77:0.5908885867041684 78:0.38022957974152327 79:0.25212211051659017 
-0.0 -0.8832509000907195 -0.7763261481954504 0.0 0:0.200384888468437 1:0.26527698822747803 2:0.48439974280192527 3:0.5276982002203823 4:0.5145328493813941 5:0.3774761923820005 6:0.31744075061916155 7:0.355029819420573 8:0.27405572612817924 9:0.5141341200922471 10:0.5111066474591008 11:0.5146990952274343 12:0.6385853098047372 13:0.5872567063058767 14:0.17077713345450474 15:0.23540621377160434 16:0.15738586587959558 17:0.3353953745428745 18:0.14264225836777533 19:0.4099337780524652 20:0.5005940405780279 21:0.5047417371671684 22:0.10813828329958967 23:0.13431619027616118 24:0.17919797731640658 25:0.2746366367400469 26:0.6017976200204106 27:0.4884650490780533 28:0.5783877509110522 29:0.4787206662655038 30:0.14953717554847096 31:0.17771659909009305 32:0.25529092190174657 33:0.19637817782332642 34:0.497905729289731 35:0.40697468473123044 36:0.5085841350262494 37:0.5164721854154415 38:1.0 39:0.48344269451152855 40:0.5429582172756402 41:0.40205797974196067 42:0.4004317425805244 43:0.43566210125562704 44:0.5388623808835413 45:0.5328857498052468 46:0.3754737330778318 47:0.5448277880376005 48:0.683627100809244 49:0.5441037619122082 50:0.5869903707610217 51:0.514398452383267 52:0.56500358701876 53:0.5551310891868453 54:0.4382403218559333 55:0.6539176369240134 56:0.26268280557936813 57:0.6073544951997345 58:0.41793219695785955 59:0.15541397881896052 60:0.2183919680955987 61:0.25028761062006605 62:0.23746124917067246 63:0.4206184914322575 64:0.4567764124328412 65:0.6076272021539055 66:0.5780315524870987 67:0.14997226195697252 68:0.1518026793332359 69:0.3017628366714834 70:0.211361448261521 71:0.5722346004246006 72:0.10904311169908451 73:0.2545023731851901 74:0.1804624593691716 75:0.6571348152875185 76:0.4341327326802168 77:0.5917923560922671 78:0.2514493390195225 79:0.19880683661281784 
-0.2508648531351182 -0.0 -0.8612575436334501 0.25443912575948163 0:0.32106415850856357 1:0.3175441030113766 2:0.42948727040115303 3:0.5675030002253311 4:0.4227919672992872 5:0.32241360460192015 6:0.5849779524572938 7:0.6283468359054531 8:0.23911873564461075 9:0.5266700324659034 10:0.3842806349396982 11:0.3695817933673171 12:0.37673441788711354 13:0.47782303363255774 14:0.31599620112537696 15:0.36252365970227923 16:0.40270248451469187 17:0.4073551421229029 18:0.3503653231204435 19:0.31095487392353066 20:0.4524907684938122 21:0.3594873268078156 22:0.33569837531173724 23:0.39851856509308176 24:0.39013021483999755 25:0.2803267872357393 26:0.5507121366436993 27:0.4643613705605246 28:0.47933133893332946 29:0.4673113432549844 30:0.2996569878996569 31:0.29253076186893 32:0.34140246409580705 33:0.413800871097627 34:0.49807228991394237 35:0.4106275344511233 36:0.5154203207326855 37:0.41920853387226387 38:0.4004317425805244 39:0.3903582793610604 40:0.5019116345822052 41:0.4081075535878992 42:1.0 43:0.4106975399385893 44:0.46288903362649086 45:0.5580207604127754 46:0.39850488120130273 47:0.5231483505305157 48:0.573877017209248 49:0.5109412313966932 50:0.5390446906495028 51:0.573543924422153 52:0.5027355003409353 53:0.51026706481006 54:0.6725302468854144 55:0.5745345952652943 56:0.2470163997762394 57:0.49030452874122754 58:0.4108880251070416 59:0.3550703925625266 60:0.309904953416603 61:0.24740944004833787 62:0.27861214775528576 63:0.4588373759329938 64:0.41870450895518874 65:0.44722225062206516 66:0.5008968523939727 67:0.4167693692805731 68:0.3763633647791802 69:0.35456957169154846 70:0.3732667895737424 71:0.4058337087271863 72:0.3491366450949153 73:0.34316685514669987 74:0.2506742633942872 75:0.5690306184416138 76:0.4565358774655337 77:0.481052178898627 78:0.3727484251084784 79:0.2402598889230195 
-0.04646871880144811 -0.46516568810528985 -0.0 0.128880574881951 0:0.21176449736419814 1:0.3038991361822771 2:0.5125585603719434 3:0.45666751798832445 4:0.44594474781529186 5:0.43424133571302637 6:0.4768270827450589 7:0.5022170837695934 8:0.1896736941364648 9:0.38114575748719737 10:0.39072306377763744 11:0.4404223816041034 12:0.40626721699806434 13:0.48560422910962836 14:0.30502724588786856 15:0.3760765971049103 16:0.36510895349425726 17:0.3473179950847217 18:0.30126704295667694 19:0.275654472198976 20:0.3448467967884574 21:0.2761112986495059 22:0.37462574679350674 23:0.37408289690077245 24:0.3203786897551266 25:0.23294830094604227 26:0.49181408711361746 27:0.35368714224231235 28:0.4448062685601377 29:0.47997579468349383 30:0.18310087087487856 31:0.1968989935429083 32:0.3093813644557162 33:0.32681162670468195 34:0.4426914688137823 35:0.5103654323480662 36:0.44388271230231313 37:0.48980380723494 38:0.4382403218559333 39:0.3654666072399375 40:0.546817358306716 41:0.3934433198225472 42:0.6725302468854144 43:0.3673964837437218 44:0.43939446033899393 45:0.5617216873811721 46:0.44906317772744336 47:0.6038310318406166 48:0.6011197113655549 49:0.5901153635729466 50:0.4429196521894635 51:0.43279633590636923 52:0.49116594388526824 53:0.45851466520057094 54:1.0 55:0.45625972176131147 56:0.29532849393859645 57:0.5013876861945786 58:0.3963455529078086 59:0.47094604981129606 60:0.23313802203401696 61:0.2427157291108763 62:0.28970776239339097 63:0.4816227156230833 64:0.5306404383191196 65:0.5526156961949361 66:0.5369538657232388 67:0.40001871185014465 68:0.33108510785805934 69:0.3182588230005451 70:0.2853042335279254 71:0.39778264107825734 72:0.2914281980213358 73:0.292062861236795 74:0.2590480039213265 75:0.5960239292051172 76:0.2824514827586531 77:0.5365748564554254 78:0.35148650552933197 79:0.19949205976487877 
-0.0 -0.0 -1.0 0.0 0:0.2458956242054549 1:0.30104027054886756 2:0.5271155917076857 3:0.6005848204927982 4:0.49367308084334216 5:0.40176800428902015 6:0.41467628076231605 7:0.4535371615674826 8:0.2446556686323646 9:0.5989551399917601 10:0.4070945056388865 11:0.42515327787277113 12:0.4188768842962549 13:0.5037749459663681 14:0.1693571090124519 15:0.17959332630054192 16:0.20809130644954948 17:0.4542895533707463 18:0.2214544943181032 19:0.3432416562152104 20:0.47714346213167064 21:0.3962088189329829 22:0.231591757206726 23:0.17535279410558835 24:0.22221390970478766 25:0.3046557519290948 26:0.62626245414977 27:0.5987700569909862 28:0.6125081749594754 29:0.502572715422255 30:0.18540158257753905 31:0.1827827525183915 32:0.2663368703031147 33:0.25362005135074733 34:0.49994220878926376 35:0.404456259448453 36:0.6868045330656758 37:0.4356299555730101 38:0.6073544951997345 39:0.4232378273741484 40:0.5114713226731946 41:0.329330684772929 42:0.49030452874122754 43:0.3769919682967805 44:0.4680643496109802 45:0.5139940979408482 46:0.4704611913561665 47:0.5832286049712732 48:0.7396629687111778 49:0.6859908096481702 50:0.5197187274622688 51:0.6599420211559652 52:0.5675787973113152 53:0.5057016799827465 54:0.5013876861945786 55:0.6278581894773253 56:0.39191017614240303 57:1.0 58:0.5958390212343381 59:0.33729346713701536 60:0.2588602264729734 61:0.2442135128938806 62:0.2981071180021812 63:0.45458686694444284 64:0.36149866809397285 65:0.6785972018775792 66:0.6835712025157323 67:0.24112710358513842 68:0.2546685384469199 69:0.29568872944650265 70:0.2563852371502703 71:0.5490079546651865 72:0.15330539474444563 73:0.30079517964513014 74:0.2513441574079619 75:0.6875599794906679 76:0.5690671748442164 77:0.7025540765820282 78:0.38458872408046374 79:0.2160237942784856 
-0.0 -0.0 -1.0 0.0 0:0.3458914312392582 1:0.3261101423026535 2:0.36895506343025797 3:0.5770860479667084 4:0.4037987775400401 5:0.38979332574160913 6:0.430701168671382 7:0.5359354617266655 8:0.1865705730070918 9:0.5007320828122399 10:0.3084215706961081 11:0.41243964578078474 12:0.4129759822161043 13:0.5645153907068642 14:0.06319482466910072 15:0.1493399979088964 16:0.22581725753365578 17:0.47249259464434423 18:0.2299436019812254 19:0.3170705181468949 20:0.37377690164585503 21:0.5819838294017188 22:0.08557245847267474 23:0.2587139749575112 24:0.27651644610996057 25:0.23441327377528792 26:0.6831656647840434 27:0.5731601412527171 28:0.7314602859652588 29:0.5186091083899474 30:0.1220444196324468 31:0.1860978943532372 32:0.3380795001896361 33:0.29615789816948934 34:0.4629621900859483 35:0.46352101221402997 36:0.5563896245099715 37:0.3903277281548974 38:0.41793219695785955 39:0.4648497566098351 40:0.5883855080273028 41:0.4923649235810329 42:0.4108880251070416 43:0.4395846417367279 44:0.38008708344600023 45:0.5689035273560326 46:0.4863165794972013 47:0.5483113897234757 48:0.5514051538588653 49:0.5737106254792289 50:0.6129145692933069 51:0.7642867766379341 52:0.6471671124491558 53:0.6164392003637694 54:0.3963455529078086 55:0.549666962639545 56:0.4555846082342964 57:0.5958390212343381 58:1.0 59:0.26212919199622775 60:0.3180242319067682 61:0.29984577843249016 62:0.34328318855497064 63:0.37892772947262343 64:0.39144891185772984 65:0.6070037128129937 66:0.6032899004747989 67:0.11369265830398563 68:0.22134200712405422 69:0.2973771361045221 70:0.15342796255461721 71:0.3943890558234735 72:0.20462686815726827 73:0.3288080764752433 74:0.4280412196020016 75:0.5630644895210347 76:0.6306979264628646 77:0.6806679139612433 78:0.3367544005202144 79:0.18919005452491117 
-1.0 -0.0 -0.0 -0.0 0:0.5944965261649474 1:0.6102232609294033 2:0.22413828195283814 3:0.34355294083073873 4:0.37698550204504844 5:0.2945679846408092 6:0.1789132501935363 7:0.2694875012785639 8:1.0 9:0.42860423358677774 10:0.2136164612711399 11:0.3225122621235545 12:0.2801706409869953 13:0.28145959487202454 14:0.6536003955522589 15:0.5256596067451409 16:0.6644644809749547 17:0.39119076650549156 18:0.4314336602204575 19:0.3818022251032047 20:0.2374251559468451 21:0.24558331920616644 22:0.6988924434965533 23:0.5806179158772331 24:0.6769067423781098 25:0.723688573586486 26:0.2429307004331715 27:0.36283163886018 28:0.26389728434129917 29:0.27064069845386185 30:0.6748167308408306 31:0.7057696122659922 32:0.6480756568764947 33:0.6834744439593361 34:0.26328529135754636 35:0.2602305663066753 36:0.2673688535757227 37:0.29027490875069306 38:0.27405572612817924 39:0.2971258990949861 40:0.24923287298212426 41:0.3681495931826584 42:0.23911873564461075 43:0.24859519051481987 44:0.3044214100059669 45:0.3407741429489958 46:0.20929688452923365 47:0.22078316232653178 48:0.3192298871428219 49:0.29231803575624765 50:0.19323259607929497 51:0.22228920012842773 52:0.32998847052514596 53:0.21258864728356555 54:0.1896736941364648 55:0.2302136880992179 56:0.6469972184969108 57:0.2446556686323646 58:0.1865705730070918 59:0.4598335523100837 60:0.6145149044743037 61:0.7092236046730123 62:0.6462335489850993 63:0.26952047573281124 64:0.28453899782725556 65:0.28148545720201723 66:0.29343606660406707 67:0.6482149833232409 68:0.6444477694790065 69:0.6897024299544878 70:0.7774567199637721 71:0.24653018506339364 72:0.6279463344139622 73:0.7291565177649704 74:0.6715589132173629 75:0.24571642308799607 76:0.39883083658298973 77:0.2771632034717223 78:0.5847602691444613 79:0.6941878786133701 
-0.0 -0.511512490829222 -0.308697815279803 -0.4807000397636644 0:0.5315038715479992 1:0.5175319682809033 2:0.4079222725051565 3:0.455919874182939 4:0.3414727530278959 5:0.3669629000862025 6:0.3716962624110511 7:0.43003877609717733 8:0.5256596067451409 9:0.3405028099887555 10:0.3916400027367774 11:0.4455304007824873 12:0.34846310310146184 13:0.23999270541295234 14:0.5464125794756602 15:1.0 16:0.5370307827098163 17:0.3551097965692841 18:0.5648184702270973 19:0.33146039788725234 20:0.3358769349418798 21:0.30199736927975607 22:0.5296225147240718 23:0.6247978940712342 24:0.6177870943933644 25:0.609901255029987 26:0.15426462487644277 27:0.4417340350891731 28:0.15951416461026557 29:0.2908885593244298 30:0.44115095103524005 31:0.5184675503318965 32:0.6433467359443882 33:0.5966786177873811 34:0.31686625005493096 35:0.4915951596657445 36:0.26283811338681956 37:0.4360856706022734 38:0.23540621377160434 39:0.42001058073215913 40:0.30907426174580793 41:0.47584533866863443 42:0.36252365970227923 43:0.5238099370397072 44:0.4279263421389326 45:0.3673014989928385 46:0.29800322276055813 47:0.37209126649934937 48:0.2961211355509267 49:0.19948154288808775 50:0.2740429237968636 51:0.2105033343287737 52:0.26834938103752737 53:0.324505436118747 54:0.3760765971049103 55:0.253092507467551 56:0.4143325051376193 57:0.17959332630054192 58:0.1493399979088964 59:0.4962844944095242 60:0.47090128173073087 61:0.4316146707843672 62:0.4076484494988595 63:0.45247821021397194 64:0.5166852132647666 65:0.23981006032664717 66:0.246217311366088 67:0.5518983762728558 68:0.6746430585690195 69:0.4849733607439659 70:0.6609454168160411 71:0.31373658897468804 72:0.5989047989829126 73:0.4782580179403268 74:0.5066842898199098 75:0.32945792768809307 76:0.3001642265385218 77:0.26387006666355356 78:0.5145540385435362 79:0.5054235904636744 
-0.26891196113676896 -0.04320823749318142 -0.08549440349380892 -0.006236648980793133 0:0.5581361141271556 1:0.7210026956010098 2:0.357800062552467 3:0.4670204710233273 4:0.3757948914962733 5:0.4272986594238034 6:0.23142174295719656 7:0.2412849805908987 8:0.723688573586486 9:0.4205237103465775 10:0.3652591473522558 11:0.41617890665901347 12:0.38614354714423826 13:0.3334016738586656 14:0.6077081186101235 15:0.609901255029987 16:0.5713561700998189 17:0.43042949634824956 18:0.4312611913813674 19:0.41392437083803213 20:0.3424546072945778 21:0.3720752515827813 22:0.7045829310561735 23:0.596757794950192 24:0.5910436433055545 25:1.0 26:0.23378139886087568 27:0.43576795738379026 28:0.2610072105652562 29:0.333444301433183 30:0.6839779738081424 31:0.7371204354597948 32:0.5596766846527506 33:0.5518330674242338 34:0.33639494502523687 35:0.4181845526775342 36:0.2979024638069261 37:0.3991407293333533 38:0.2746366367400469 39:0.40837345196695374 40:0.31788369288102286 41:0.3897972299736265 42:0.2803267872357393 43:0.32558711077831065 44:0.31555607354090165 45:0.38079707658214906 46:0.2861179407894904 47:0.36500975975687544 48:0.33581939023174 49:0.319311811839631 50:0.27189640492923783 51:0.24572542899784805 52:0.32094782008867506 53:0.2780296325566918 54:0.23294830094604227 55:0.2523674422858628 56:0.6183700593145651 57:0.3046557519290948 58:0.23441327377528792 59:0.540764995104474 60:0.599832488207668 61:0.5643239140763048 62:0.5903987676391934 63:0.3969409219268264 64:0.40119568639001874 65:0.2849266026846137 66:0.3381156957512557 67:0.5801851635495973 68:0.6334305823111137 69:0.5475343608085147 70:0.6822770163946656 71:0.4290652613977637 72:0.5935614074475973 73:0.6112838773931403 74:0.5859351327287101 75:0.3544804403300196 76:0.4096964978912974 77:0.31357674794255486 78:0.6363202784753268 79:0.8111116504423653 
-0.10016999521477178 -0.0 -0.0 -0.0 0:0.5302977452412212 1:0.6647508973393734 2:0.29228478947417147 3:0.3036854783762211 4:0.219735588014761 5:0.27189042030073646 6:0.14212742718041338 7:0.130566725487513 8:0.6748167308408306 9:0.2997015958873668 10:0.32622887816839713 11:0.2806377886848837 12:0.2523629081292838 13:0.2334703038535807 14:0.7782456796002 15:0.44115095103524005 16:0.6017166981058983 17:0.22768685855996093 18:0.5770875045801518 19:0.18941940205091576 20:0.33978344435464924 21:0.17811004793637358 22:0.7466058005829741 23:0.6340379942997545 24:0.6608813428126346 25:0.6839779738081424 26:0.22917383409660275 27:0.26412293261558534 28:0.14788780660633283 29:0.12860270434849408 30:1.0 31:0.8479965838330765 32:0.5496982352216176 33:0.6426220036256427 34:0.2646583869156594 35:0.2702539858462187 36:0.2770160124877949 37:0.25332516257704507 38:0.14953717554847096 39:0.31488358322807675 40:0.20054280506460737 41:0.28426483017492943 42:0.2996569878996569 43:0.2509300286713132 44:0.19382791582580003 45:0.23335330901908624 46:0.1941072269081574 47:0.26285122975862824 48:0.21003997221271153 49:0.16789256272276915 50:0.2451299295392652 51:0.21156373458288985 52:0.20243191816745706 53:0.24506523376101255 54:0.18310087087487856 55:0.34148158272505064 56:0.5472694781023746 57:0.18540158257753905 58:0.1220444196324468 59:0.6039401754280899 60:0.7030076440374937 61:0.6192964821522413 62:0.6214036306554488 63:0.2864509076712972 64:0.2809684508659132 65:0.11641120828313462 66:0.20016932254090675 67:0.6325648604708747 68:0.5267993728768972 69:0.5632523444672886 70:0.5998079321125237 71:0.23532100723515723 72:0.658365762907603 73:0.6750135944043573 74:0.6429046185797119 75:0.18914277371421967 76:0.21007341762408158 77:0.18825257269471948 78:0.6339805292412213 79:0.769616786758963 
-1.0 -0.0 -0.0 -0.0 0:0.550742097112608 1:0.7267502276675188 2:0.26797951810464865 3:0.3623655505051916 4:0.23707324803997873 5:0.3640445004354653 6:0.13736453626437728 7:0.17897040839824307 8:0.7057696122659922 9:0.29239189117121245 10:0.3054210044424289 11:0.36188795829518916 12:0.23664795124382335 13:0.3015124139248467 14:0.7601615425262538 15:0.5184675503318965 16:0.7394171707123108 17:0.2448606812696582 18:0.5380617510829206 19:0.25082393273947334 20:0.2405914661219809 21:0.20250269473227173 22:0.7129285768851884 23:0.6447750143082978 24:0.6849410939192047 25:0.7371204354597948 26:0.23038695607806614 27:0.3106472514960562 28:0.23349623307957965 29:0.16862293765436764 30:0.8479965838330765 31:1.0 32:0.6280426271703721 33:0.6916099361850505 34:0.21331098110062718 35:0.3599387433692087 36:0.20043481551105014 37:0.34764114963729664 38:0.17771659909009305 39:0.3867807858405539 40:0.2895479818033341 41:0.3054938824467033 42:0.29253076186893 43:0.34082421389824114 44:0.2180031649443021 45:0.2739475431939711 46:0.19587902374899308 47:0.3768805010405518 48:0.2288286879208384 49:0.20381658274279157 50:0.3054538360953425 51:0.255090352616547 52:0.34327602071513 53:0.3482152853864539 54:0.1968989935429083 55:0.2457234589009618 56:0.6084939567397609 57:0.1827827525183915 58:0.1860978943532372 59:0.5658140038599022 60:0.7690734470927918 61:0.6790179172543789 62:0.6961511868279089 63:0.24294141431690502 64:0.34173747807369986 65:0.1665524928881469 66:0.26188859316997476 67:0.6364652813116769 68:0.6206770425465269 69:0.6942546907119774 70:0.65990166985719 71:0.30887890058906603 72:0.6892325926445921 73:0.7146139820579624 74:0.6936786778531849 75:0.26458525290249296 76:0.22643451126455386 77:0.249218368506678 78:0.5718380523836792 79:0.8555316897694181 
-1.0 -0.0 -0.0 -0.0 0:0.574095117217778 1:0.6529326310027033 2:0.2780726359534375 3:0.31901282385693785 4:0.21009729041620875 5:0.28918537120447085 6:0.3441419937585054 7:0.3418232500229235 8:0.4598335523100837 9:0.18109984014685251 10:0.24093067154707082 11:0.2943786058391321 12:0.1934835798668078 13:0.25720310723787565 14:0.6844128616507934 15:0.4962844944095242 16:0.6624123060316911 17:0.2058794138864547 18:0.5158491952465641 19:0.08926287399757722 20:0.1597233974218722 21:0.13993895972100984 22:0.7301786586631673 23:0.7405557547018077 24:0.6249057302994998 25:0.540764995104474 26:0.26353941927069374 27:0.23823678011501262 28:0.24275150685967578 29:0.15105976960919743 30:0.6039401754280899 31:0.5658140038599022 32:0.4730686234389743 33:0.664098032848269 34:0.23949579480951733 35:0.3223132414552487 36:0.27709643624598235 37:0.22649342811645776 38:0.15541397881896052 39:0.22541554225568966 40:0.29380473654623285 41:0.27496677659211904 42:0.3550703925625266 43:0.22041103146992433 44:0.17927300329284723 45:0.295803282261615 46:0.33061300087621476 47:0.325912900202817 48:0.22103581377778359 49:0.23637867091106382 50:0.27349225961565743 51:0.25743256324830494 52:0.22551887960443018 53:0.249552944793262 54:0.47094604981129606 55:0.24819293129449274 56:0.6260024374141717 57:0.33729346713701536 58:0.26212919199622775 59:1.0 60:0.6032569750486165 61:0.6230846333385163 62:0.6875001412248054 63:0.28570945180955476 64:0.25818328240245664 65:0.25597187916791564 66:0.23581535569014805 67:0.711803932274705 68:0.5284855273766285 69:0.5407744309176841 70:0.6484624398172456 71:0.24837758496038367 72:0.6496531532856985 73:0.6079799052413404 74:0.5518727073508507 75:0.29222878799810154 76:0.1640368463632492 77:0.28203342326173314 78:0.7470320303094116 79:0.4981926550066884 
-1.0 -0.0 -0.0 -0.0 0:0.5550546838204022 1:0.6017620233729966 2:0.32619546976343894 3:0.3451741814446181 4:0.37520285702314177 5:0.32067791445312843 6:0.25822655439774905 7:0.28097998749350445 8:0.6482149833232409 9:0.29146001038066816 10:0.23157174682222148 11:0.34628017417648416 12:0.28178907220033284 13:0.20480975326994846 14:0.7515965358985119 15:0.5518983762728558 16:0.7808803590216705 17:0.25451222257411066 18:0.5753580698157758 19:0.17480754409806554 20:0.20089031343891592 21:0.10826850942845691 22:0.8364029218322566 23:0.6365433633937791 24:0.70724847497839 25:0.5801851635495973 26:0.25055301137729286 27:0.2881734863166852 28:0.18594730435709975 29:0.22889557636828958 30:0.6325648604708747 31:0.6364652813116769 32:0.56312881674765 33:0.7183568337049546 34:0.34049663563512195 35:0.2943105820627149 36:0.3211373726147058 37:0.24592955563269192 38:0.14997226195697252 39:0.2657746788183086 40:0.22737717685146902 41:0.3154285655899012 42:0.4167693692805731 43:0.3038151459076878 44:0.324875746694648 45:0.2243851084738436 46:0.3647573382117663 47:0.285916624069837 48:0.27544681253677955 49:0.22298121414823424 50:0.21356471113567438 51:0.17474780674726115 52:0.2506255231448593 53:0.14233031076886343 54:0.40001871185014465 55:0.21280750537579593 56:0.5390917404528898 57:0.24112710358513842 58:0.11369265830398563 59:0.711803932274705 60:0.5794556898997997 61:0.65204822188907 62:0.6318598147083789 63:0.3788083441164315 64:0.31610355118110084 65:0.23752447899746582 66:0.2325775504227852 67:1.0 68:0.7536149707991082 69:0.6687724556035637 70:0.8235269313597147 71:0.18911667623671632 72:0.7225522131396747 73:0.6787006500206527 74:0.5884599622295812 75:0.3072635217165192 76:0.23699461429519147 77:0.23238645936469457 78:0.699682130386622 79:0.6010764720293635 
-0.6409450333123741 -0.0 -0.0 -0.0 0:0.5115092756551194 1:0.5595431096492627 2:0.3916680604885553 3:0.40964886587891713 4:0.469056897600788 5:0.4823690074650891 6:0.257204440738046 7:0.2933703793319929 8:0.6444477694790065 9:0.2894154873362728 10:0.2841611825416164 11:0.4128574349260859 12:0.393469787910162 13:0.24721400419468514 14:0.6119453852988929 15:0.6746430585690195 16:0.6600026594837356 17:0.38257106502816407 18:0.5836983285386934 19:0.3414544419542074 20:0.20267197984013774 21:0.24777141057791308 22:0.6551117200872603 23:0.5916090180563691 24:0.6636833548898412 25:0.6334305823111137 26:0.21793064075366825 27:0.35215740832635106 28:0.2117036528837236 29:0.3015018429419737 30:0.5267993728768972 31:0.6206770425465269 32:0.6838151123628062 33:0.6372297814226477 34:0.3295358369457528 35:0.4409047461524323 36:0.2601798583318833 37:0.3910808497952486 38:0.1518026793332359 39:0.38508343995357397 40:0.3258647986317468 41:0.40245012051487006 42:0.3763633647791802 43:0.4323970435705875 44:0.44901677529135425 45:0.2679620161110913 46:0.40602878220593963 47:0.3067566147822863 48:0.3595820598615144 49:0.24798886130687392 50:0.22476714810483428 51:0.22968534532840396 52:0.3124070163029188 53:0.2110118294181167 54:0.33108510785805934 55:0.17040452824307994 56:0.47705589019974143 57:0.2546685384469199 58:0.22134200712405422 59:0.5284855273766285 60:0.5634255969237085 61:0.6467153506477948 62:0.6115267110363802 63:0.44571329974959956 64:0.4521283904584718 65:0.32496209647492325 66:0.28145969342283594 67:0.7536149707991082 68:1.0 69:0.6768156795055258 70:0.7469813796935802 71:0.3472543266885183 72:0.5915009939872445 73:0.6004592924520107 74:0.6356731900714094 75:0.3787333036926846 76:0.3188243226595455 77:0.2774018355730993 78:0.536182553465064 79:0.594701644037569 
-0.0 -0.0 -0.0 -0.0391964157719131 0:0.4997300581195593 1:0.6869277172727526 2:0.2879261252258715 3:0.42747272636774253 4:0.3216269547106871 5:0.45408943008363245 6:0.17907090090646172 7:0.20266577494308988 8:0.6941878786133701 9:0.33225751415888183 10:0.30932846466286085 11:0.40872598574784463 12:0.3609023263349985 13:0.30514415277876517 14:0.6872559737940571 15:0.5054235904636744 16:0.6019286501131268 17:0.2755512843163631 18:0.5432954149131375 19:0.32628287377038917 20:0.3173015939536194 21:0.27315863467212914 22:0.7591931639601026 23:0.5780671465084322 24:0.6599406485552535 25:0.8111116504423653 26:0.215737967544084 27:0.38617455 
