svm_type nu_svc
kernel_type linear
nr_class 3
total_sv 3
rho -2.066666666666667 0.8775510204081632 1.0056980056980056
label 15 45 25
probA 0.6931471784024834 0.6931471784024834 0.6931471784024834
probB 2.391895380739567E-16 2.391895380739567E-16 2.391895380739567E-16
nr_sv 1 1 1
SV
0.013333333333333334 0.04081632653061224 0:1.0 1:4.0 2:6.0 3:1.0 
-0.013333333333333334 0.005698005698005698 0:2.0 1:6.0 2:18.0 3:0.0 
-0.04081632653061224 -0.005698005698005698 0:3.0 1:1.0 2:0.0 3:1.0 
