svm_type nu_svc
kernel_type sigmoid
gamma 0.3333333333333333
coef0 0.0
nr_class 3
total_sv 3
rho NaN 0.07290405015106545 36.88552188552188
label 15 45 25
probA 0.6931471784024834 0.6931471784024834 0.6931471784024834
probB 2.391895380739567E-16 2.391895380739567E-16 2.391895380739567E-16
nr_sv 1 1 1
SV
Infinity 111.65011379819786 0:1.0 1:4.0 2:6.0 3:1.0 
-Infinity 56488.94276094276 0:2.0 1:6.0 2:18.0 3:0.0 
-111.65011379819786 -56488.94276094276 0:3.0 1:1.0 2:0.0 3:1.0 
