svm_type c_svc
kernel_type polynomial
degree 3
gamma 0.012658227848101266
coef0 0.0
nr_class 5
total_sv 80
rho 0.8695266989525408 0.7757548422086984 -0.8405886224354617 -0.9450865708931815 -0.04473323468118906 -0.9274155030725524 -0.8990323124817223 -0.893817875534296 -0.8417103601677809 -0.9443183515832061
label 5 1 3 2 4
probA 0.7992637395224417 0.6276284498869057 0.8192371532894935 -297.39685646449226 0.2170619762537477 0.6799621573191612 -61.487743774675295 0.6693081327877901 1.5696802043902365 0.764422098476348
probB 0.22317947625459447 0.06625455315913374 -0.2512971868223654 293.785604311618 2.3136257374621591E-4 -0.6319233542483171 58.09369943182124 -0.7021499876507629 -1.6368661094448387 -0.8271843264378438
nr_sv 17 18 18 15 12
SV
1.0 1.0 1.0 1.0 0:1.0 1:0.7491365505528333 2:0.30557456963255836 3:0.3222376611519915 4:0.3423440580032563 5:0.22105758649994398 6:0.17096670296637953 7:0.28409590858248984 8:0.5944965261649474 9:0.34377954703515873 10:0.22626663131736216 11:0.34536644915242154 12:0.22180482317182107 13:0.3327979193021271 14:0.4536674714410938 15:0.5315038715479992 16:0.7304853700675893 17:0.34801894716492826 18:0.5047667855624824 19:0.26522595012881 20:0.18757913147827182 21:0.23869762318849885 22:0.4578648267819614 23:0.8116254650957403 24:0.796207631452033 25:0.5581361141271556 26:0.2878999390700093 27:0.369499973686734 28:0.37239967995720424 29:0.2313661257182156 30:0.5302977452412212 31:0.550742097112608 32:0.7462498055399442 33:0.7152021368142341 34:0.31789008635442334 35:0.3268130888328638 36:0.25809239812423646 37:0.31730736146882343 38:0.200384888468437 39:0.3112463184584656 40:0.3268587028961357 41:0.48806744319990925 42:0.32106415850856357 43:0.42743993636227895 44:0.3775190740907546 45:0.38380905536092624 46:0.3254963810089829 47:0.3295522511817277 48:0.3208391741684939 49:0.23691674048298964 50:0.25739356058958535 51:0.3884169404039516 52:0.3960094461357592 53:0.27374508843008694 54:0.21176449736419814 55:0.3082803205398037 56:0.6954782102633679 57:0.2458956242054549 58:0.3458914312392582 59:0.574095117217778 60:0.580786774647972 61:0.6914783972105942 62:0.6246229245668373 63:0.29157087360979195 64:0.34707079382499795 65:0.3021425931370625 66:0.2893206151930503 67:0.5550546838204022 68:0.5115092756551194 69:0.6838482469563361 70:0.6692838000376828 71:0.21388710421664645 72:0.6821017400149367 73:0.7539751518386102 74:0.68239960775171 75:0.32816366824490284 76:0.36324868701156937 77:0.34948717989142936 78:0.7142202411330164 79:0.4997300581195593 
1.0 1.0 1.0 0.0 0:0.7491365505528333 1:1.0 2:0.3637506023014355 3:0.48892611017683485 4:0.3943090183169209 5:0.339511009183388 6:0.16873923522137935 7:0.26086432983775404 8:0.6102232609294033 9:0.36765327589928626 10:0.3783667095627591 11:0.4689379694490392 12:0.31947668757313286 13:0.4197346460563515 14:0.5600469929905969 15:0.5175319682809033 16:0.7741190160639368 17:0.3967963784685641 18:0.5091449629836016 19:0.25786536637112895 20:0.1951898434575196 21:0.25271508800097503 22:0.5875903127642297 23:0.7801368723851554 24:0.7177158071926668 25:0.7210026956010098 26:0.33994585962968205 27:0.40437136735326884 28:0.38585069654033605 29:0.2477834939285364 30:0.6647508973393734 31:0.7267502276675188 32:0.738930072217451 33:0.7353989479503538 34:0.3658617250107418 35:0.4179828038498877 36:0.31440282529124736 37:0.4167885039614038 38:0.26527698822747803 39:0.35161244391385493 40:0.4684393401627679 41:0.5071553518294053 42:0.3175441030113766 43:0.4027259695017466 44:0.39657515515290687 45:0.4216105612250501 46:0.35174436395281666 47:0.45789553168654695 48:0.37799966699988474 49:0.340804059938243 50:0.4047038578532035 51:0.395825915204553 52:0.420603046408541 53:0.3980508626061982 54:0.3038991361822771 55:0.3194287763007311 56:0.7909298806699432 57:0.30104027054886756 58:0.3261101423026535 59:0.6529326310027033 60:0.7497465719542857 61:0.7512807761458551 62:0.7262131944743075 63:0.3444105163263922 64:0.41680379742266865 65:0.3832898089690634 66:0.3193012826319301 67:0.6017620233729966 68:0.5595431096492627 69:0.7664063237816701 70:0.715017211676432 71:0.3551347690340604 72:0.7178242093370494 73:0.8298167995460493 74:0.701031537761851 75:0.4408571635413053 76:0.39036164573230514 77:0.369554354090396 78:0.7449112275931535 79:0.6869277172727526 
1.0 1.0 1.0 1.0 0:0.7304853700675893 1:0.7741190160639368 2:0.2390681392122661 3:0.31019422980320754 4:0.3140947462921095 5:0.25973299858066723 6:0.16618947687213342 7:0.27656036719994703 8:0.6644644809749547 9:0.24808151317047603 10:0.19144865150071178 11:0.30574408960231425 12:0.2017802275806216 13:0.275311123793663 14:0.6783576539425975 15:0.5370307827098163 16:1.0 17:0.2576339583032601 18:0.5503888647207607 19:0.13057375324480378 20:0.09309793217933851 21:0.13349319386393035 22:0.6891810156339732 23:0.8215814554925984 24:0.8404035910861267 25:0.5713561700998189 26:0.2549731434442014 27:0.2973630606504076 28:0.297146170623768 29:0.1978564183682175 30:0.6017166981058983 31:0.7394171707123108 32:0.7700031487520311 33:0.8451984344787014 34:0.2785464488296365 35:0.2723569766716828 36:0.20220527234507799 37:0.2884901462544177 38:0.15738586587959558 39:0.2667608310076105 40:0.34342855352381807 41:0.42352202913699954 42:0.40270248451469187 43:0.33585845301015493 44:0.322804138689936 45:0.32085627859008214 46:0.25061452985058325 47:0.35152477435589935 48:0.29559754644383296 49:0.23908022898456982 50:0.24613980549030715 51:0.28485632871003086 52:0.38004040351390755 53:0.24519962893378539 54:0.36510895349425726 55:0.20949455387508908 56:0.6662314720937825 57:0.20809130644954948 58:0.22581725753365578 59:0.6624123060316911 60:0.7314775772942281 61:0.8344848707447203 62:0.811897300837218 63:0.24583168779934023 64:0.3385228492449698 65:0.28920584109199216 66:0.23007544082565418 67:0.7808803590216705 68:0.6600026594837356 69:0.8346872627541538 70:0.8320440128176505 71:0.22901892895240422 72:0.8437360575635159 73:0.8710423924963558 74:0.7527338866091107 75:0.3751217718269772 76:0.2888419618615388 77:0.309572855074253 78:0.6730863580690913 79:0.6019286501131268 
1.0 1.0 1.0 1.0 0:0.8116254650957403 1:0.7801368723851554 2:0.17575989577673287 3:0.30286632006427755 4:0.24119704276919354 5:0.20812385362471983 6:0.2459566756932312 7:0.32168204940063205 8:0.5806179158772331 9:0.2836537764365486 10:0.21110406723671282 11:0.28118962617877397 12:0.23981858523398542 13:0.251390327859046 14:0.5753539590747794 15:0.6247978940712342 16:0.8215814554925984 17:0.2758352825395457 18:0.529114223417315 19:0.13971822046615268 20:0.17385832183334202 21:0.17424439274432468 22:0.5862155993970122 23:1.0 24:0.8470580825100376 25:0.596757794950192 26:0.22398839534105877 27:0.3534880356165311 28:0.26402296356469507 29:0.1808277220671568 30:0.6340379942997545 31:0.6447750143082978 32:0.6953511287993239 33:0.7943670320916822 34:0.2481659414191943 35:0.3048224764312772 36:0.21085675763371958 37:0.30984278338648835 38:0.13431619027616118 39:0.24074181456815172 40:0.3345372345628431 41:0.420002158064823 42:0.39851856509308176 43:0.32172369067747864 44:0.3250505111565264 45:0.3341926559753754 46:0.24865256714085718 47:0.3372350903237846 48:0.27977718561065634 49:0.18423123779911796 50:0.24344223249457364 51:0.3055485650293928 52:0.3247045130102794 53:0.24423493352995612 54:0.37408289690077245 55:0.23552352252181769 56:0.6665040804802653 57:0.17535279410558835 58:0.2587139749575112 59:0.7405557547018077 60:0.709213121118893 61:0.7651624006431652 62:0.7274029306324872 63:0.2630072551410468 64:0.38856607414905675 65:0.24003470749717937 66:0.16155850682794282 67:0.6365433633937791 68:0.5916090180563691 69:0.6961256434293803 70:0.74402794591567 71:0.1944432597376093 72:0.7428497110556223 73:0.7869703289309684 74:0.72491484588596 75:0.3144476671336458 76:0.2747339199140345 77:0.2729700216484325 78:0.7059101416486498 79:0.5780671465084322 
1.0 1.0 0.0 0.0 0:0.796207631452033 1:0.7177158071926668 2:0.24160886672927906 3:0.3124807692772277 4:0.33131491758527326 5:0.28743775864911564 6:0.18120037516451962 7:0.2671768063248481 8:0.6769067423781098 9:0.3257314945511982 10:0.26819920137419273 11:0.33000952177093873 12:0.27813727161533763 13:0.31365649771672865 14:0.6246489512420633 15:0.6177870943933644 16:0.8404035910861267 17:0.2616621437407015 18:0.6695427079780778 19:0.20910217458013178 20:0.16543513033389415 21:0.1620006324739981 22:0.6535484813255117 23:0.8470580825100376 24:1.0 25:0.5910436433055545 26:0.276118676723346 27:0.3510414810830593 28:0.3163418624100903 29:0.20617309808579992 30:0.6608813428126346 31:0.6849410939192047 32:0.8157083560521468 33:0.8271852582666424 34:0.3081547000104017 35:0.3352692090515212 36:0.21404776535931858 37:0.3427012178996438 38:0.17919797731640658 39:0.31721450917715166 40:0.317753579820647 41:0.4383880239305459 42:0.39013021483999755 43:0.33683653500307115 44:0.3348536687921669 45:0.3837885398127329 46:0.3094830559668955 47:0.3640949193992594 48:0.31342471904852426 49:0.24497184727177013 50:0.2431956572416628 51:0.34487211705670506 52:0.34692997428995254 53:0.23408302616829263 54:0.3203786897551266 55:0.29251308378687657 56:0.6617939532300782 57:0.22221390970478766 58:0.27651644610996057 59:0.6249057302994998 60:0.6924546404743973 61:0.7945726337685399 62:0.7620339134670514 63:0.3143487969512695 64:0.42346552315864827 65:0.2759566583520674 66:0.21970621165808377 67:0.70724847497839 68:0.6636833548898412 69:0.7811320198030403 70:0.7918095777407392 71:0.23344327355447092 72:0.8100149857736128 73:0.8405901239968974 74:0.7768617115035893 75:0.3095169839801299 76:0.29613992503896874 77:0.3346650169652072 78:0.6780064378855433 79:0.6599406485552535 
1.0 1.0 1.0 0.0 0:0.7462498055399442 1:0.738930072217451 2:0.38838498380595343 3:0.34931471529383623 4:0.4733297512677326 5:0.3708820944587464 6:0.12670816680996733 7:0.24223652047247238 8:0.6480756568764947 9:0.3807934653845858 10:0.3378871435862745 11:0.43742719952961195 12:0.3352292350246284 13:0.3614141551634935 14:0.5131217119027576 15:0.6433467359443882 16:0.7700031487520311 17:0.3621980946179179 18:0.6643829648004531 19:0.3342096830369419 20:0.16123941113802975 21:0.20095159399960344 22:0.49862478054057036 23:0.6953511287993239 24:0.8157083560521468 25:0.5596766846527506 26:0.30800388734910505 27:0.3790941492134727 28:0.3593140450470378 29:0.23252050287822745 30:0.5496982352216176 31:0.6280426271703721 32:1.0 33:0.7427418716967045 34:0.3953554221881175 35:0.4505797039458221 36:0.2574498708102865 37:0.4489368095403915 38:0.25529092190174657 39:0.3996628668494259 40:0.40299798805074827 41:0.6162000753696605 42:0.34140246409580705 43:0.49038654064894 44:0.4612737390052116 45:0.46422540633489706 46:0.394723260827098 47:0.4119202653884802 48:0.3568981269203336 49:0.31241081171174645 50:0.29133874696889817 51:0.36042549228266385 52:0.42579070653429074 53:0.3087729543287043 54:0.3093813644557162 55:0.31175573473362495 56:0.6563268138020405 57:0.2663368703031147 58:0.3380795001896361 59:0.4730686234389743 60:0.6706728389802425 61:0.7522486478313195 62:0.6949470628024481 63:0.4217491372329473 64:0.5201051532513736 65:0.3559705114322958 66:0.28445689138711205 67:0.56312881674765 68:0.6838151123628062 69:0.7841608501328761 70:0.6967342004564159 71:0.31012471941747816 72:0.7169379448753448 73:0.805778697588368 74:0.7726515214496443 75:0.387369215786779 76:0.3666684077212356 77:0.39304433626328494 78:0.6344124842661765 79:0.55988361394822 
1.0 1.0 1.0 1.0 0:0.7152021368142341 1:0.7353989479503538 2:0.18962360076768026 3:0.3514639216353501 4:0.29857903373311134 5:0.200677258280836 6:0.25204269743394797 7:0.31272675669146405 8:0.6834744439593361 9:0.331217252218288 10:0.24362204151148203 11:0.3210845773774119 12:0.22085569063036206 13:0.2591289281322642 14:0.6737961997414563 15:0.5966786177873811 16:0.8451984344787014 17:0.2814806563096996 18:0.5613026359772405 19:0.10864256082521882 20:0.11243579383569274 21:0.10122236414439269 22:0.6669318367522761 23:0.7943670320916822 24:0.8271852582666424 25:0.5518330674242338 26:0.3151448277815355 27:0.2950177970339131 28:0.30127986731363793 29:0.18455519640213863 30:0.6426220036256427 31:0.6916099361850505 32:0.7427418716967045 33:1.0 34:0.2386141091560245 35:0.2766083827343965 36:0.27303441715655336 37:0.31495274956428915 38:0.19637817782332642 39:0.2344243491389491 40:0.3151943628574773 41:0.4063320609207757 42:0.413800871097627 43:0.3594283448750113 44:0.2789385816511167 45:0.3920327512117705 46:0.2689632450694943 47:0.307397993297355 48:0.3100156468670316 49:0.2311900917072828 50:0.3222275701788613 51:0.3684245055532958 52:0.3032926348501897 53:0.3166761490326414 54:0.32681162670468195 55:0.27508157238943626 56:0.6700874982444335 57:0.25362005135074733 58:0.29615789816948934 59:0.664098032848269 60:0.7488732898511488 61:0.8089229801274003 62:0.7296332116146667 63:0.23069037572497497 64:0.3453599145056344 65:0.26703592379959995 66:0.22584924667984096 67:0.7183568337049546 68:0.6372297814226477 69:0.7775818890823294 70:0.8515610116519191 71:0.19704752411454876 72:0.8077477895077154 73:0.8200890414333948 74:0.7311787550404856 75:0.25985300494903446 76:0.26805108491607327 77:0.29894581879404847 78:0.7695094622220882 79:0.6000805300061932 
1.0 1.0 1.0 1.0 0:0.6954782102633679 1:0.7909298806699432 2:0.2965916235447603 3:0.35453833551357194 4:0.3411007652952963 5:0.2984852415014484 6:0.1985889678791444 7:0.28636397870127284 8:0.6469972184969108 9:0.3644536091257678 10:0.29736589015609205 11:0.4004895480635878 12:0.2610356865485156 13:0.4904358391105568 14:0.47736889271172955 15:0.4143325051376193 16:0.6662314720937825 17:0.33777061252589985 18:0.48391068621498134 19:0.31167492010894116 20:0.18961502004796413 21:0.3038815531403897 22:0.4880253891188302 23:0.6665040804802653 24:0.6617939532300782 25:0.6183700593145651 26:0.36375972616013624 27:0.34065061268881813 28:0.4475118394716386 29:0.2381858708042457 30:0.5472694781023746 31:0.6084939567397609 32:0.6563268138020405 33:0.6700874982444335 34:0.3172519185299741 35:0.3390908966276818 36:0.3046589916136335 37:0.33409280046544604 38:0.26268280557936813 39:0.3093802432641978 40:0.48522376294709707 41:0.39649083828747944 42:0.2470163997762394 43:0.3114028852802802 44:0.31673067840920127 45:0.44554073158526863 46:0.35846702130811475 47:0.40914420042096866 48:0.34805912146199974 49:0.430215393268675 50:0.3537727583875401 51:0.42469617581299857 52:0.4029026001600774 53:0.3582109056477546 54:0.29532849393859645 55:0.29273545930076084 56:1.0 57:0.39191017614240303 58:0.4555846082342964 59:0.6260024374141717 60:0.621115397130695 61:0.7276528279432402 62:0.6949931558074355 63:0.2829500219560638 64:0.33906408354997336 65:0.38615292897281983 66:0.3621962450663633 67:0.5390917404528898 68:0.47705589019974143 69:0.6525185365876828 70:0.633003529516172 71:0.31885980368720446 72:0.6472451267343413 73:0.7868527949399504 74:0.7636311855627627 75:0.34704183777622793 76:0.3355748256531408 77:0.42714137954716364 78:0.7307970558819348 79:0.5463916457183299 
1.0 1.0 1.0 1.0 0:0.580786774647972 1:0.7497465719542857 2:0.22065199989203688 3:0.3689568664337835 4:0.31196863725101115 5:0.27996970203140736 6:0.11367813364856195 7:0.1782215513583992 8:0.6145149044743037 9:0.30881847438629484 10:0.2915143178193501 11:0.3585769571637795 12:0.31536044500785804 13:0.34743357516529405 14:0.5708513067681987 15:0.47090128173073087 16:0.7314775772942281 17:0.2899413263963711 18:0.41218166455719163 19:0.12930207866028903 20:0.20300172543885023 21:0.22120862373840056 22:0.5542762363934228 23:0.709213121118893 24:0.6924546404743973 25:0.599832488207668 26:0.2819609881742461 27:0.3764640347330227 28:0.32714973005146164 29:0.17254833302377331 30:0.7030076440374937 31:0.7690734470927918 32:0.6706728389802425 33:0.7488732898511488 34:0.269232987255623 35:0.3681510573699702 36:0.2696268751510912 37:0.3732916492429948 38:0.2183919680955987 39:0.3456002019418243 40:0.4043772422015148 41:0.4265122766241125 42:0.309904953416603 43:0.3656019282359384 44:0.3225648285668199 45:0.361061940959127 46:0.23532318884444733 47:0.41149551517993843 48:0.32092102121030236 49:0.25628768003746766 50:0.32450752648015 51:0.33096541077412506 52:0.37733740164605734 53:0.36614912120283316 54:0.23313802203401696 55:0.2931774913736057 56:0.621115397130695 57:0.2588602264729734 58:0.3180242319067682 59:0.6032569750486165 60:1.0 61:0.7465335353680095 62:0.7945718536252817 63:0.28861858616473457 64:0.412379051466643 65:0.2673598919661886 66:0.23760344325895055 67:0.5794556898997997 68:0.5634255969237085 69:0.6990704982494236 70:0.6938945923464932 71:0.26669404038459454 72:0.6794792341563292 73:0.7745795722453583 74:0.7469844527152453 75:0.35179700461816926 76:0.2973948657750889 77:0.3204105311214523 78:0.6343541530900499 79:0.6620625266815967 
1.0 1.0 1.0 0.0 0:0.6914783972105942 1:0.7512807761458551 2:0.16969758202809382 3:0.29076304203842224 4:0.3512148467300992 5:0.21712647633041568 6:0.10062869837810676 7:0.18579675854666955 8:0.7092236046730123 9:0.2788804173234865 10:0.22314215124342401 11:0.3252469494832696 12:0.25662394616316286 13:0.2757746939508459 14:0.5984648051801489 15:0.4316146707843672 16:0.8344848707447203 17:0.24300848897794283 18:0.5159770125762382 19:0.14679418624307472 20:0.11404352250240438 21:0.17942786621561083 22:0.60012335135998 23:0.7651624006431652 24:0.7945726337685399 25:0.5643239140763048 26:0.34759490832211054 27:0.29820611480054343 28:0.3538781796801753 29:0.21555660297479823 30:0.6192964821522413 31:0.6790179172543789 32:0.7522486478313195 33:0.8089229801274003 34:0.2896353622956136 35:0.28725602488921487 36:0.24342048308479566 37:0.25670478965630994 38:0.25028761062006605 39:0.23067871190392775 40:0.3454763769942777 41:0.4226591182574733 42:0.24740944004833787 43:0.30933863476344015 44:0.34970817962158035 45:0.39122547311970785 46:0.3235884442132644 47:0.3132968109237518 48:0.31245480215475285 49:0.2370594016158486 50:0.2883056285581159 51:0.3286885076454176 52:0.3715849526737759 53:0.2543025674366739 54:0.2427157291108763 55:0.27007230836611185 56:0.7276528279432402 57:0.2442135128938806 58:0.29984577843249016 59:0.6230846333385163 60:0.7465335353680095 61:1.0 62:0.9028014867031969 63:0.23787411989034501 64:0.34078740071913227 65:0.3380992164325906 66:0.1879262129697355 67:0.65204822188907 68:0.6467153506477948 69:0.8209264445167551 70:0.7886659652091185 71:0.20590269774655826 72:0.7845233578469308 73:0.8938281997072992 74:0.810564235385239 75:0.3105222724757332 76:0.2962326666892249 77:0.3240978357635501 78:0.6708965576179295 79:0.5766398602839835 
1.0 1.0 1.0 1.0 0:0.6246229245668373 1:0.7262131944743075 2:0.20861306426417764 3:0.30073602342422884 4:0.3268002236730558 5:0.24678449454308293 6:0.10679567004486289 7:0.16701040163694944 8:0.6462335489850993 9:0.24491378806154043 10:0.2456408822026623 11:0.33030244897049243 12:0.28498196863745745 13:0.3316115446503645 14:0.5979505045009577 15:0.4076484494988595 16:0.811897300837218 17:0.20765320504836624 18:0.4645364987892798 19:0.14005278591519232 20:0.11949974643623719 21:0.21724572222073135 22:0.6219379926435571 23:0.7274029306324872 24:0.7620339134670514 25:0.5903987676391934 26:0.32415875147160117 27:0.297014515022554 28:0.34087140764333734 29:0.26661224225814006 30:0.6214036306554488 31:0.6961511868279089 32:0.6949470628024481 33:0.7296332116146667 34:0.2937957048642106 35:0.30712412635535824 36:0.20613998656258928 37:0.28343182475342615 38:0.23746124917067246 39:0.2798324633472824 40:0.3636553076124239 41:0.3926001783174685 42:0.27861214775528576 43:0.2847795506010589 44:0.31599643971574665 45:0.38096793632313525 46:0.2850333184372157 47:0.3613333421495777 48:0.31076735145413314 49:0.26552087907543465 50:0.28606188365082647 51:0.3168269677344711 52:0.3762439554314511 53:0.2815046451185325 54:0.28970776239339097 55:0.24122790001509364 56:0.6949931558074355 57:0.2981071180021812 58:0.34328318855497064 59:0.6875001412248054 60:0.7945718536252817 61:0.9028014867031969 62:1.0 63:0.28088372168827686 64:0.37016547798159977 65:0.31853497235403505 66:0.23504662400683785 67:0.6318598147083789 68:0.6115267110363802 69:0.7667681162251865 70:0.7249517441105473 71:0.2385009466320244 72:0.741516643994321 73:0.8568605924775783 74:0.7952033775374079 75:0.34514575027686606 76:0.27973173547926383 77:0.33767540874848745 78:0.6100640926835453 79:0.6075673347465624 
1.0 1.0 1.0 1.0 0:0.6838482469563361 1:0.7664063237816701 2:0.3333264338018921 3:0.36388968301490926 4:0.3738385821179053 5:0.29587599815511545 6:0.12524126445228567 7:0.24642718976578024 8:0.6897024299544878 9:0.3199547380737002 10:0.2597564410632055 11:0.3056940954291942 12:0.2903096690334288 13:0.36388926894273155 14:0.5612295252919758 15:0.4849733607439659 16:0.8346872627541538 17:0.30533691725544304 18:0.47782584818287427 19:0.2300347811564836 20:0.157385087470253 21:0.18359162063628456 22:0.5891124194064525 23:0.6961256434293803 24:0.7811320198030403 25:0.5475343608085147 26:0.3480884146629443 27:0.3156715381750915 28:0.36768635496311197 29:0.24692149542360026 30:0.5632523444672886 31:0.6942546907119774 32:0.7841608501328761 33:0.7775818890823294 34:0.31069932825698593 35:0.33533015450423354 36:0.27029541298428983 37:0.38201792398302276 38:0.3017628366714834 39:0.33406952611979757 40:0.38831567490105234 41:0.4461787262765412 42:0.35456957169154846 43:0.436604929997391 44:0.41872540720861373 45:0.4316035542744532 46:0.3534382873805634 47:0.323917002657933 48:0.39067065036696064 49:0.2605285917164724 50:0.29607539238351127 51:0.39347018727010935 52:0.42578782647974966 53:0.2940778227962411 54:0.3182588230005451 55:0.34118365816507806 56:0.6525185365876828 57:0.29568872944650265 58:0.2973771361045221 59:0.5407744309176841 60:0.6990704982494236 61:0.8209264445167551 62:0.7667681162251865 63:0.32317414934812877 64:0.3977145359603595 65:0.3655467216031208 66:0.24614945448795073 67:0.6687724556035637 68:0.6768156795055258 69:1.0 70:0.7525709241538422 71:0.2708252192957849 72:0.7026132211532301 73:0.8419416489950453 74:0.7449389683574659 75:0.3822822336059667 76:0.37545688498588065 77:0.37678832189626804 78:0.6474443588511662 79:0.6054621669891306 
1.0 1.0 1.0 1.0 0:0.6692838000376828 1:0.715017211676432 2:0.20821159681631707 3:0.40084521642427706 4:0.371261798828396 5:0.2661997798960424 6:0.23828283170576825 7:0.3516126721053422 8:0.7774567199637721 9:0.3367775703765409 10:0.19080065946608216 11:0.35801882593281964 12:0.2523467871409778 13:0.19199930015845662 14:0.692651140780399 15:0.6609454168160411 16:0.8320440128176505 17:0.347515739062772 18:0.5205384386801607 19:0.2200825537731532 20:0.13946848989174274 21:0.16102054540815694 22:0.7507226029346357 23:0.74402794591567 24:0.7918095777407392 25:0.6822770163946656 26:0.20366830861520843 27:0.3548740919575252 28:0.2115968317711497 29:0.2401587113891457 30:0.5998079321125237 31:0.65990166985719 32:0.6967342004564159 33:0.8515610116519191 34:0.2743715268394745 35:0.2658811188864075 36:0.26994167980261136 37:0.2845982827526723 38:0.211361448261521 39:0.24935306492195375 40:0.27142421682524787 41:0.4101468787388564 42:0.3732667895737424 43:0.3119826467831396 44:0.35003333173515977 45:0.31009797733751787 46:0.27197544926302497 47:0.2623831505003419 48:0.29402023337535804 49:0.21239392658478246 50:0.19795649400512558 51:0.24419494211947196 52:0.2470220993238457 53:0.1755246220569778 54:0.2853042335279254 55:0.20520186373951393 56:0.633003529516172 57:0.2563852371502703 58:0.15342796255461721 59:0.6484624398172456 60:0.6938945923464932 61:0.7886659652091185 62:0.7249517441105473 63:0.2943127819688888 64:0.30981059787820664 65:0.27095196823379675 66:0.1808562370258181 67:0.8235269313597147 68:0.7469813796935802 69:0.7525709241538422 70:1.0 71:0.22300616306183985 72:0.7921175495872124 73:0.7847848153384696 74:0.6649155610492323 75:0.2882986862826485 76:0.33351648968586844 77:0.30616489633332494 78:0.707538375018798 79:0.6547080326600003 
1.0 1.0 1.0 1.0 0:0.6821017400149367 1:0.7178242093370494 2:0.23331169816142724 3:0.30032680237248843 4:0.2732908807786891 5:0.2332751083051117 6:0.2475294569393637 7:0.2242670958338071 8:0.6279463344139622 9:0.22902947691682554 10:0.2908116809677494 11:0.3144080256073539 12:0.1432167431382678 13:0.28540100928290757 14:0.7022266161987685 15:0.5989047989829126 16:0.8437360575635159 17:0.28244416168799547 18:0.6579433241973873 19:0.1342190116778501 20:0.17288979167298138 21:0.2092465265882383 22:0.7056290854910787 23:0.7428497110556223 24:0.8100149857736128 25:0.5935614074475973 26:0.26209859295121707 27:0.298778504556062 28:0.25739704451771844 29:0.17419696289197123 30:0.658365762907603 31:0.6892325926445921 32:0.7169379448753448 33:0.8077477895077154 34:0.2729306703878367 35:0.2728788973687764 36:0.19614178132268284 37:0.2650806851314152 38:0.10904311169908451 39:0.2446451960569118 40:0.35166369691434485 41:0.3887266846400909 42:0.3491366450949153 43:0.2649668285924396 44:0.24956111415938986 45:0.3592080690375844 46:0.2628782994783783 47:0.31976704078511226 48:0.24256837726180663 49:0.23151079631391927 50:0.312721045409037 51:0.205934092632527 52:0.3235116391362049 53:0.2649729531229628 54:0.2914281980213358 55:0.24571647758867174 56:0.6472451267343413 57:0.15330539474444563 58:0.20462686815726827 59:0.6496531532856985 60:0.6794792341563292 61:0.7845233578469308 62:0.741516643994321 63:0.23895953327186784 64:0.301310163082888 65:0.2788528575263575 66:0.221003004460468 67:0.7225522131396747 68:0.5915009939872445 69:0.7026132211532301 70:0.7921175495872124 71:0.20346436206363006 72:1.0 73:0.8169829851920458 74:0.7794417497944546 75:0.2665165930267716 76:0.2563512440646597 77:0.2531406771671932 78:0.688677085332966 79:0.6038222613160569 
1.0 1.0 0.0 0.0 0:0.7539751518386102 1:0.8298167995460493 2:0.26175135549445305 3:0.3741449138926862 4:0.38235787926524284 5:0.23752597932923594 6:0.15202431470161382 7:0.25129825179986737 8:0.7291565177649704 9:0.3376862813715863 10:0.2776221018062708 11:0.3797352044957051 12:0.2889534574246219 13:0.37071522859102213 14:0.5792644047474385 15:0.4782580179403268 16:0.8710423924963558 17:0.32143200740321237 18:0.545480343997051 19:0.17990131541254176 20:0.15796818940206445 21:0.23193153663811805 22:0.6100844467007961 23:0.7869703289309684 24:0.8405901239968974 25:0.6112838773931403 26:0.3467595845936571 27:0.39881107887417994 28:0.4046880655506784 29:0.29115844598369994 30:0.6750135944043573 31:0.7146139820579624 32:0.805778697588368 33:0.8200890414333948 34:0.3569018813567952 35:0.3097300962124282 36:0.2785267936196771 37:0.2924896580004084 38:0.2545023731851901 39:0.31532189310143593 40:0.40744955514420933 41:0.48980069007042043 42:0.34316685514669987 43:0.33959885749142005 44:0.383201815233081 45:0.4271657298595712 46:0.308431639203587 47:0.4041231835090766 48:0.3873033902051772 49:0.33886259993085743 50:0.3248146979462587 51:0.38173684626382237 52:0.4230799997525364 53:0.30429391750845636 54:0.292062861236795 55:0.3113584696853644 56:0.7868527949399504 57:0.30079517964513014 58:0.3288080764752433 59:0.6079799052413404 60:0.7745795722453583 61:0.8938281997072992 62:0.8568605924775783 63:0.28084590975471496 64:0.3632817784376044 65:0.38178012867171063 66:0.2999883743038818 67:0.6787006500206527 68:0.6004592924520107 69:0.8419416489950453 70:0.7847848153384696 71:0.2565221010907538 72:0.8169829851920458 73:1.0 74:0.8359261510139084 75:0.3846701920999093 76:0.3969410356131348 77:0.389341854373631 78:0.6882177929703404 79:0.6446638916166099 
1.0 1.0 1.0 1.0 0:0.68239960775171 1:0.701031537761851 2:0.26931905899232145 3:0.3131774017497511 4:0.3882922789117682 5:0.30539359547533623 6:0.13195347061570123 7:0.167741816756321 8:0.6715589132173629 9:0.29623583272576 10:0.22426369843343166 11:0.298054280439319 12:0.30444119304019407 13:0.35781675380982175 14:0.5857609993645965 15:0.5066842898199098 16:0.7527338866091107 17:0.28011294182425145 18:0.5630539029138599 19:0.18381783574466448 20:0.21052630148655294 21:0.29295065312125657 22:0.5616492838825181 23:0.72491484588596 24:0.7768617115035893 25:0.5859351327287101 26:0.33337327870977895 27:0.36792040590313513 28:0.357380136413996 29:0.22293320575999492 30:0.6429046185797119 31:0.6936786778531849 32:0.7726515214496443 33:0.7311787550404856 34:0.30467017508457306 35:0.3472418463129996 36:0.22958353711162505 37:0.29579838055197777 38:0.1804624593691716 39:0.34047000713189673 40:0.3995965270105334 41:0.45550085938052587 42:0.2506742633942872 43:0.35692805749780265 44:0.33052444780245566 45:0.3952319734488324 46:0.3159831813369566 47:0.3428194654392088 48:0.34807524829009734 49:0.30877472807416 50:0.3174865494303611 51:0.33999931291427987 52:0.4010352367686447 53:0.336905869511569 54:0.2590480039213265 55:0.2670306972777876 56:0.7636311855627627 57:0.2513441574079619 58:0.4280412196020016 59:0.5518727073508507 60:0.7469844527152453 61:0.810564235385239 62:0.7952033775374079 63:0.34109551759185375 64:0.43399644625965 65:0.3324231899360922 66:0.26743202243507236 67:0.5884599622295812 68:0.6356731900714094 69:0.7449389683574659 70:0.6649155610492323 71:0.2119111598228559 72:0.7794417497944546 73:0.8359261510139084 74:1.0 75:0.3302946000473664 76:0.33999602833732406 77:0.3629818722850649 78:0.596063542378403 79:0.6018085261809012 
1.0 1.0 1.0 1.0 0:0.7142202411330164 1:0.7449112275931535 2:0.35129549622564543 3:0.3412129941190874 4:0.34978283757705214 5:0.2621759317442305 6:0.25600092726583945 7:0.26172908865891986 8:0.5847602691444613 9:0.34207658158754817 10:0.3414868357407583 11:0.35081026153902484 12:0.26759953147917087 13:0.3412516608244564 14:0.6076740310976396 15:0.5145540385435362 16:0.6730863580690913 17:0.3472090245283412 18:0.5323613739980222 19:0.20701807025358782 20:0.21945727227823805 21:0.17933819726205766 22:0.6461777988928796 23:0.7059101416486498 24:0.6780064378855433 25:0.6363202784753268 26:0.3686080923150681 27:0.30732713723261 28:0.36129441715261257 29:0.17503895118617688 30:0.6339805292412213 31:0.5718380523836792 32:0.6344124842661765 33:0.7695094622220882 34:0.3824300657006215 35:0.3313335170679442 36:0.38022957974152327 37:0.3402026774725137 38:0.2514493390195225 39:0.2954830446337362 40:0.3672364209568708 41:0.40313595647403166 42:0.3727484251084784 43:0.3457167723868917 44:0.3256693916924936 45:0.4150167025288821 46:0.38273428180780916 47:0.34131634056664173 48:0.33712838429726366 49:0.355470099750747 50:0.3238524109595639 51:0.351407415047671 52:0.3081719877002966 53:0.2635792534542237 54:0.35148650552933197 55:0.38031823189065717 56:0.7307970558819348 57:0.38458872408046374 58:0.3367544005202144 59:0.7470320303094116 60:0.6343541530900499 61:0.6708965576179295 62:0.6100640926835453 63:0.3777359206088894 64:0.3223253427783646 65:0.3348234412431644 66:0.3187403689915973 67:0.699682130386622 68:0.536182553465064 69:0.6474443588511662 70:0.707538375018798 71:0.3002873595158988 72:0.688677085332966 73:0.6882177929703404 74:0.596063542378403 75:0.32934557592616864 76:0.3036003948388843 77:0.3836286775195288 78:1.0 79:0.513527510049491 
-1.0 1.0 1.0 1.0 0:0.30557456963255836 1:0.3637506023014355 2:1.0 3:0.5034458623487315 4:0.6633924008813993 5:0.6591795600215615 6:0.3295488576507613 7:0.3927875717591897 8:0.22413828195283814 9:0.3547398927160722 10:0.685115301546123 11:0.6365436829217662 12:0.6092864565404383 13:0.5345748987532001 14:0.2731856018520653 15:0.4079222725051565 16:0.2390681392122661 17:0.37210000049436354 18:0.39060002835735685 19:0.5857624615714481 20:0.46994674399668634 21:0.4790853962047811 22:0.30192810629068606 23:0.17575989577673287 24:0.24160886672927906 25:0.357800062552467 26:0.5074174991106679 27:0.4136411706533334 28:0.4839868747110524 29:0.48383251950703254 30:0.29228478947417147 31:0.26797951810464865 32:0.38838498380595343 33:0.18962360076768026 34:0.6453316953273092 35:0.6696137781521219 36:0.45629591485807064 37:0.5800829070637223 38:0.48439974280192527 39:0.664973551288963 40:0.49416169396951576 41:0.5538230761283855 42:0.42948727040115303 43:0.6611101710107323 44:0.6362251070115299 45:0.43775933040546827 46:0.6457098271582845 47:0.5796964387244823 48:0.6300602625032066 49:0.6044719926296305 50:0.5132013689291153 51:0.48191198405559776 52:0.4990975944859798 53:0.4671442534674476 54:0.5125585603719434 55:0.5764892473371972 56:0.2965916235447603 57:0.5271155917076857 58:0.36895506343025797 59:0.2780726359534375 60:0.22065199989203688 61:0.16969758202809382 62:0.20861306426417764 63:0.7679115191127674 64:0.626262574734225 65:0.6107393229205949 66:0.6756791900418408 67:0.32619546976343894 68:0.3916680604885553 69:0.3333264338018921 70:0.20821159681631707 71:0.6325408812837348 72:0.23331169816142724 73:0.26175135549445305 74:0.26931905899232145 75:0.6735568594337027 76:0.3919169641203913 77:0.5752983959517117 78:0.35129549622564543 79:0.2879261252258715 
-1.0 1.0 1.0 0.0 0:0.3423440580032563 1:0.3943090183169209 2:0.6633924008813993 3:0.5127744559158289 4:1.0 5:0.684411628347996 6:0.21722628830017915 7:0.3268929391739135 8:0.37698550204504844 9:0.4643606298910491 10:0.46372128518979233 11:0.7178961294435362 12:0.7554565650881093 13:0.5285988296644075 14:0.2570709497256888 15:0.3414727530278959 16:0.3140947462921095 17:0.4608725517380485 18:0.30197364344112676 19:0.5449764018357547 20:0.3521976573157569 21:0.394759627724213 22:0.3149474406258126 23:0.24119704276919354 24:0.33131491758527326 25:0.3757948914962733 26:0.5578861431219593 27:0.4895329515294603 28:0.5628240764767778 29:0.5496132713658635 30:0.219735588014761 31:0.23707324803997873 32:0.4733297512677326 33:0.29857903373311134 34:0.7511462394793482 35:0.6948249695579103 36:0.49844781451167663 37:0.5578995908945298 38:0.5145328493813941 39:0.685874972466104 40:0.5002672999443744 41:0.766669675929017 42:0.4227919672992872 43:0.6452998792815248 44:0.7589252221091252 45:0.5255426290637528 46:0.7306890268866599 47:0.5945595893942266 48:0.7141611076155756 49:0.6521610426374704 50:0.4665208061356389 51:0.4986390336219848 52:0.5605288360405803 53:0.4419382931764161 54:0.44594474781529186 55:0.4981705745267253 56:0.3411007652952963 57:0.49367308084334216 58:0.4037987775400401 59:0.21009729041620875 60:0.31196863725101115 61:0.3512148467300992 62:0.3268002236730558 63:0.7463884463497978 64:0.6859313283353432 65:0.6592746605499022 66:0.6176883190366307 67:0.37520285702314177 68:0.469056897600788 69:0.3738385821179053 70:0.371261798828396 71:0.5574970062569097 72:0.2732908807786891 73:0.38235787926524284 74:0.3882922789117682 75:0.6206782789555348 76:0.4973040116687335 77:0.5745761074697955 78:0.34978283757705214 79:0.3216269547106871 
-1.0 1.0 1.0 1.0 0:0.22105758649994398 1:0.339511009183388 2:0.6591795600215615 3:0.44004020069628474 4:0.684411628347996 5:1.0 6:0.26965870201306497 7:0.35578533984219135 8:0.2945679846408092 9:0.3210666905848742 10:0.5245452841258 11:0.7118751110121593 12:0.6609813645020128 13:0.5341552392878497 14:0.3352973594982318 15:0.3669629000862025 16:0.25973299858066723 17:0.4139288256233447 18:0.41095759608515314 19:0.6799376532629182 20:0.3729029203698107 21:0.4015911938349367 22:0.36803354183584447 23:0.20812385362471983 24:0.28743775864911564 25:0.4272986594238034 26:0.3509894710604139 27:0.41180938125233896 28:0.4216954475986936 29:0.44193678310459095 30:0.27189042030073646 31:0.3640445004354653 32:0.3708820944587464 33:0.200677258280836 34:0.5358066851523662 35:0.7296987807817011 36:0.3890017130218441 37:0.6727125917515878 38:0.3774761923820005 39:0.8099406948384548 40:0.5120059766810009 41:0.5497484749968127 42:0.32241360460192015 43:0.5739845093538913 44:0.504223145529465 45:0.39183317650811866 46:0.6878402373340635 47:0.6347918726049888 48:0.5205042590792551 49:0.5280766626770371 50:0.3907747736854868 51:0.42157927517362503 52:0.4440888603808746 53:0.40787669317758746 54:0.43424133571302637 55:0.41718540493370215 56:0.2984852415014484 57:0.40176800428902015 58:0.38979332574160913 59:0.28918537120447085 60:0.27996970203140736 61:0.21712647633041568 62:0.24678449454308293 63:0.6433221831369806 64:0.6821784335578751 65:0.5158719094871516 66:0.5496485408348232 67:0.32067791445312843 68:0.4823690074650891 69:0.29587599815511545 70:0.2661997798960424 71:0.6727246973294082 72:0.2332751083051117 73:0.23752597932923594 74:0.30539359547533623 75:0.5450995830849377 76:0.3403879828815742 77:0.4482541171552195 78:0.2621759317442305 79:0.45408943008363245 
-1.0 1.0 1.0 1.0 0:0.22626663131736216 1:0.3783667095627591 2:0.685115301546123 3:0.45641474922911407 4:0.46372128518979233 5:0.5245452841258 6:0.37665747032401364 7:0.30443800999131987 8:0.2136164612711399 9:0.3597847920169691 10:1.0 11:0.7542495963520068 12:0.6211408490076618 13:0.6057003681968816 14:0.22280526916622903 15:0.3916400027367774 16:0.19144865150071178 17:0.3951390227179098 18:0.35041280237907524 19:0.5377887225834854 20:0.4430943398555398 21:0.49835737106753875 22:0.20854033381419299 23:0.21110406723671282 24:0.26819920137419273 25:0.3652591473522558 26:0.4386274677855083 27:0.33759478138146803 28:0.4357981807603878 29:0.3999284641036826 30:0.32622887816839713 31:0.3054210044424289 32:0.3378871435862745 33:0.24362204151148203 34:0.5616658993213623 35:0.5828130481137054 36:0.42828889116013547 37:0.6796726436567812 38:0.5111066474591008 39:0.5587389692219227 40:0.5552939827265502 41:0.36205424204175773 42:0.3842806349396982 43:0.4565832334498282 44:0.4825438274316142 45:0.3965231728213921 46:0.5855409316074836 47:0.6272448025719595 48:0.5297905227114631 49:0.4829805977213085 50:0.516072551075409 51:0.4430564713999794 52:0.4632184026385125 53:0.49379426347132827 54:0.39072306377763744 55:0.502099541137654 56:0.29736589015609205 57:0.4070945056388865 58:0.3084215706961081 59:0.24093067154707082 60:0.2915143178193501 61:0.22314215124342401 62:0.2456408822026623 63:0.582294433752762 64:0.5497193918695087 65:0.4871638364642551 66:0.4996411795742545 67:0.23157174682222148 68:0.2841611825416164 69:0.2597564410632055 70:0.19080065946608216 71:0.6484487552649537 72:0.2908116809677494 73:0.2776221018062708 74:0.22426369843343166 75:0.5303044764193143 76:0.3294556216514737 77:0.4384610508796391 78:0.3414868357407583 79:0.30932846466286085 
-1.0 1.0 0.0 0.0 0:0.34536644915242154 1:0.4689379694490392 2:0.6365436829217662 3:0.5733479178226921 4:0.7178961294435362 5:0.7118751110121593 6:0.32352642742874216 7:0.44911029124690366 8:0.3225122621235545 9:0.4934196042632111 10:0.7542495963520068 11:1.0 12:0.738042356360262 13:0.6260248213371195 14:0.30208091533661063 15:0.4455304007824873 16:0.30574408960231425 17:0.4770228641858493 18:0.3730614654973506 19:0.6453521444090493 20:0.42030377786628437 21:0.5290509923958149 22:0.2695831134238729 23:0.28118962617877397 24:0.33000952177093873 25:0.41617890665901347 26:0.47366416681463486 27:0.47645008800624905 28:0.5428291007604411 29:0.56266020750308 30:0.2806377886848837 31:0.36188795829518916 32:0.43742719952961195 33:0.3210845773774119 34:0.7085366724493946 35:0.7303836087060006 36:0.5052969994699659 37:0.6837073293643583 38:0.5146990952274343 39:0.7219169178855167 40:0.5845650564806459 41:0.6257174905169983 42:0.3695817933673171 43:0.6329318022105018 44:0.6497599940857334 45:0.47429476584290237 46:0.7211451737405464 47:0.7179755681797328 48:0.5967642968773227 49:0.5486759541432397 50:0.5423907730969324 51:0.4935911831910337 52:0.5521874381317408 53:0.5543923368334693 54:0.4404223816041034 55:0.47929673581317767 56:0.4004895480635878 57:0.42515327787277113 58:0.41243964578078474 59:0.2943786058391321 60:0.3585769571637795 61:0.3252469494832696 62:0.33030244897049243 63:0.6093947098967534 64:0.6558345928051661 65:0.566835541411828 66:0.5920906953348946 67:0.34628017417648416 68:0.4128574349260859 69:0.3056940954291942 70:0.35801882593281964 71:0.650206823741762 72:0.3144080256073539 73:0.3797352044957051 74:0.298054280439319 75:0.5887477142846227 76:0.43698517776412393 77:0.5345773203777627 78:0.35081026153902484 79:0.40872598574784463 
-1.0 1.0 1.0 1.0 0:0.22180482317182107 1:0.31947668757313286 2:0.6092864565404383 3:0.4850404986812129 4:0.7554565650881093 5:0.6609813645020128 6:0.21048293531530402 7:0.35012048875125623 8:0.2801706409869953 9:0.4196441436587881 10:0.6211408490076618 11:0.738042356360262 12:1.0 13:0.5790380851951038 14:0.20816300300921126 15:0.34846310310146184 16:0.2017802275806216 17:0.3502120758437556 18:0.26254562731879294 19:0.570683056730297 20:0.47726733401104016 21:0.502014359978422 22:0.2188557956333774 23:0.23981858523398542 24:0.27813727161533763 25:0.38614354714423826 26:0.4905864142199257 27:0.454271489915716 28:0.5176589638016693 29:0.547757104262152 30:0.2523629081292838 31:0.23664795124382335 32:0.3352292350246284 33:0.22085569063036206 34:0.717059818756195 35:0.6402816931139216 36:0.5290108790311641 37:0.6503811832969193 38:0.6385853098047372 39:0.741256780710201 40:0.49871602400412524 41:0.5989379359742791 42:0.37673441788711354 43:0.5931951500762236 44:0.7026450975052803 45:0.4080586144492871 46:0.6452597703834184 47:0.6007402240312715 48:0.6639433566300975 49:0.5617067520061644 50:0.4749969393315165 51:0.4663423254869597 52:0.514516033798672 53:0.481217176922116 54:0.40626721699806434 55:0.5234160430257654 56:0.2610356865485156 57:0.4188768842962549 58:0.4129759822161043 59:0.1934835798668078 60:0.31536044500785804 61:0.25662394616316286 62:0.28498196863745745 63:0.6772169355241238 64:0.7091238571879461 65:0.5635707073204376 66:0.5229743196444424 67:0.28178907220033284 68:0.393469787910162 69:0.2903096690334288 70:0.2523467871409778 71:0.6728333984493111 72:0.1432167431382678 73:0.2889534574246219 74:0.30444119304019407 75:0.6110820023120744 76:0.43503937434569306 77:0.5190677010307597 78:0.26759953147917087 79:0.3609023263349985 
-1.0 1.0 1.0 1.0 0:0.26522595012881 1:0.25786536637112895 2:0.5857624615714481 3:0.36941754403604316 4:0.5449764018357547 5:0.6799376532629182 6:0.26884849713777914 7:0.3869557038680348 8:0.3818022251032047 9:0.43231813115722095 10:0.5377887225834854 11:0.6453521444090493 12:0.570683056730297 13:0.5127004151644226 14:0.1841423743676856 15:0.33146039788725234 16:0.13057375324480378 17:0.46708251881015717 18:0.29634052304378083 19:1.0 20:0.4122905329353493 21:0.5153112372590017 22:0.17616919619399046 23:0.13971822046615268 24:0.20910217458013178 25:0.41392437083803213 26:0.3063735037129547 27:0.36663814236642833 28:0.39757835270895303 29:0.5556914107067306 30:0.18941940205091576 31:0.25082393273947334 32:0.3342096830369419 33:0.10864256082521882 34:0.5120840595207267 35:0.6004911586764126 36:0.4008360577051489 37:0.7096325193974763 38:0.4099337780524652 39:0.6629380168897241 40:0.5054606783387732 41:0.4920725048790465 42:0.31095487392353066 43:0.5365628738487783 44:0.5568444149773463 45:0.38720740655106084 46:0.6205502073309475 47:0.49417898637896784 48:0.4667121795438984 49:0.47790149252280495 50:0.34114096256012605 51:0.4046470825976832 52:0.5091991000778021 53:0.3443386721088925 54:0.275654472198976 55:0.3786374015459999 56:0.31167492010894116 57:0.3432416562152104 58:0.3170705181468949 59:0.08926287399757722 60:0.12930207866028903 61:0.14679418624307472 62:0.14005278591519232 63:0.6108501477242709 64:0.5834991991381699 65:0.47832463166766337 66:0.4851837495122813 67:0.17480754409806554 68:0.3414544419542074 69:0.2300347811564836 70:0.2200825537731532 71:0.6067341531881267 72:0.1342190116778501 73:0.17990131541254176 74:0.18381783574466448 75:0.4490677653987241 76:0.3955575452186111 77:0.40148124887901604 78:0.20701807025358782 79:0.32628287377038917 
-0.0 1.0 1.0 0.0 0:0.31789008635442334 1:0.3658617250107418 2:0.6453316953273092 3:0.5643708164495609 4:0.7511462394793482 5:0.5358066851523662 6:0.34104148244755944 7:0.37468471247465596 8:0.26328529135754636 9:0.5141198739083016 10:0.5616658993213623 11:0.7085366724493946 12:0.717059818756195 13:0.4959334901142485 14:0.22111333480824835 15:0.31686625005493096 16:0.2785464488296365 17:0.3400822005803853 18:0.34298184595780257 19:0.5120840595207267 20:0.4732253551035628 21:0.44345993964115443 22:0.24947158242698625 23:0.2481659414191943 24:0.3081547000104017 25:0.33639494502523687 26:0.6792317862012287 27:0.516850591812009 28:0.6095971729716743 29:0.5631462589390046 30:0.2646583869156594 31:0.21331098110062718 32:0.3953554221881175 33:0.2386141091560245 34:1.0 35:0.6284661920509537 36:0.654171869620477 37:0.5115729906921337 38:0.497905729289731 39:0.6886972206408637 40:0.4476010477923662 41:0.6932306044279464 42:0.49807228991394237 43:0.6359111657447881 44:0.741982886233735 45:0.535187305216565 46:0.75558938640612 47:0.5680557916667186 48:0.6452723871375905 49:0.6258136790934408 50:0.5868489286169843 51:0.5157731442952029 52:0.5606210419386097 53:0.5431768338264891 54:0.4426914688137823 55:0.6208179993163523 56:0.3172519185299741 57:0.49994220878926376 58:0.4629621900859483 59:0.23949579480951733 60:0.269232987255623 61:0.2896353622956136 62:0.2937957048642106 63:0.7589432490357702 64:0.6278843348226388 65:0.5499065920920991 66:0.5809907388600755 67:0.34049663563512195 68:0.3295358369457528 69:0.31069932825698593 70:0.2743715268394745 71:0.6327938371883446 72:0.2729306703878367 73:0.3569018813567952 74:0.30467017508457306 75:0.6161651798589248 76:0.5315570524736304 77:0.6401378229817962 78:0.3824300657006215 79:0.2715340292202959 
-1.0 1.0 0.0 0.0 0:0.3268130888328638 1:0.4179828038498877 2:0.6696137781521219 3:0.5625477660454032 4:0.6948249695579103 5:0.7296987807817011 6:0.2969286840201128 7:0.4085011774976042 8:0.2602305663066753 9:0.42640857407172417 10:0.5828130481137054 11:0.7303836087060006 12:0.6402816931139216 13:0.5686960947064771 14:0.26389390851322664 15:0.4915951596657445 16:0.2723569766716828 17:0.4427311634302807 18:0.39120259081621145 19:0.6004911586764126 20:0.44579768604817777 21:0.47028826664677764 22:0.28648323179941765 23:0.3048224764312772 24:0.3352692090515212 25:0.4181845526775342 26:0.41131582641749587 27:0.5297030320265353 28:0.5011388794226818 29:0.5404502691479448 30:0.2702539858462187 31:0.3599387433692087 32:0.4505797039458221 33:0.2766083827343965 34:0.6284661920509537 35:1.0 36:0.4747359622209449 37:0.6926296334018048 38:0.40697468473123044 39:0.762202626813596 40:0.5608152404259666 41:0.6593944095118438 42:0.4106275344511233 43:0.7415574144581816 44:0.6807861552923223 45:0.6779890376392423 46:0.7450183131981958 47:0.7646370494299242 48:0.580445736569099 49:0.5796941413931336 50:0.43720577369980945 51:0.4984070687485074 52:0.5395006083255675 53:0.53755205239392 54:0.5103654323480662 55:0.5337536182657554 56:0.3390908966276818 57:0.404456259448453 58:0.46352101221402997 59:0.3223132414552487 60:0.3681510573699702 61:0.28725602488921487 62:0.30712412635535824 63:0.7714475294721388 64:0.749743942586159 65:0.5590969383807045 66:0.6135559448252698 67:0.2943105820627149 68:0.4409047461524323 69:0.33533015450423354 70:0.2658811188864075 71:0.5884721804945932 72:0.2728788973687764 73:0.3097300962124282 74:0.3472418463129996 75:0.6210019178665915 76:0.36643866598706254 77:0.5448533178708161 78:0.3313335170679442 79:0.416205748221744 
-1.0 1.0 1.0 1.0 0:0.31730736146882343 1:0.4167885039614038 2:0.5800829070637223 3:0.4109698954510761 4:0.5578995908945298 5:0.6727125917515878 6:0.24385225416229817 7:0.298956463150436 8:0.29027490875069306 9:0.41455346469135207 10:0.6796726436567812 11:0.6837073293643583 12:0.6503811832969193 13:0.5452228668605279 14:0.222939971850018 15:0.4360856706022734 16:0.2884901462544177 17:0.4355075091714694 18:0.33777354128643267 19:0.7096325193974763 20:0.3601883801342741 21:0.36002418571636313 22:0.16687269133125116 23:0.30984278338648835 24:0.3427012178996438 25:0.3991407293333533 26:0.40960315484641874 27:0.42960414820180903 28:0.49915948166737434 29:0.44428566817907156 30:0.25332516257704507 31:0.34764114963729664 32:0.4489368095403915 33:0.31495274956428915 34:0.5115729906921337 35:0.6926296334018048 36:0.46969052081163554 37:1.0 38:0.5164721854154415 39:0.658823507757202 40:0.64492084985528 41:0.559143081692661 42:0.41920853387226387 43:0.6346811962557481 44:0.582790248510169 45:0.48754956359703083 46:0.6429153768309291 47:0.6774122906116627 48:0.5772412787090595 49:0.527921097109506 50:0.41955793039366673 51:0.4919540434039459 52:0.5878183559972969 53:0.4534227845213829 54:0.48980380723494 55:0.4818922524500533 56:0.33409280046544604 57:0.4356299555730101 58:0.3903277281548974 59:0.22649342811645776 60:0.3732916492429948 61:0.25670478965630994 62:0.28343182475342615 63:0.6339372378848647 64:0.7535840000571394 65:0.5666935668163166 66:0.5091640978758606 67:0.24592955563269192 68:0.3910808497952486 69:0.38201792398302276 70:0.2845982827526723 71:0.7025265451791856 72:0.2650806851314152 73:0.2924896580004084 74:0.29579838055197777 75:0.5925935279208632 76:0.31245692687005383 77:0.5249449085051254 78:0.3402026774725137 79:0.3674745391151736 
-1.0 1.0 1.0 0.0 0:0.3112463184584656 1:0.35161244391385493 2:0.664973551288963 3:0.49389080559124166 4:0.685874972466104 5:0.8099406948384548 6:0.3395213766189803 7:0.43032606061755974 8:0.2971258990949861 9:0.4261403798049588 10:0.5587389692219227 11:0.7219169178855167 12:0.741256780710201 13:0.5663196544158062 14:0.3067269685876186 15:0.42001058073215913 16:0.2667608310076105 17:0.41181260265323055 18:0.36424634497251 19:0.6629380168897241 20:0.5142477299284651 21:0.5349159040588295 22:0.29710550657123863 23:0.24074181456815172 24:0.31721450917715166 25:0.40837345196695374 26:0.442995693883496 27:0.5148402984523472 28:0.521382749766459 29:0.5356010034144749 30:0.31488358322807675 31:0.3867807858405539 32:0.3996628668494259 33:0.2344243491389491 34:0.6886972206408637 35:0.762202626813596 36:0.5036886244124492 37:0.658823507757202 38:0.48344269451152855 39:1.0 40:0.5338941400813495 41:0.634759995536351 42:0.3903582793610604 43:0.6991986743631144 44:0.6545415442879693 45:0.4852461367750839 46:0.6914220274422583 47:0.6287799886595463 48:0.5306231798500342 49:0.5079782174216663 50:0.481347806992773 51:0.5338881245530627 52:0.5476092044046499 53:0.5291523583590846 54:0.3654666072399375 55:0.5653805303836482 56:0.3093802432641978 57:0.4232378273741484 58:0.4648497566098351 59:0.22541554225568966 60:0.3456002019418243 61:0.23067871190392775 62:0.2798324633472824 63:0.6853000368137943 64:0.6604185875536532 65:0.5114531032714704 66:0.5714440639831957 67:0.2657746788183086 68:0.38508343995357397 69:0.33406952611979757 70:0.24935306492195375 71:0.6991638868072771 72:0.2446451960569118 73:0.31532189310143593 74:0.34047000713189673 75:0.561997778875371 76:0.44266444364610313 77:0.5287212533516312 78:0.2954830446337362 79:0.4628228316222581 
-1.0 1.0 1.0 1.0 0:0.48806744319990925 1:0.5071553518294053 2:0.5538230761283855 3:0.4521815350945136 4:0.766669675929017 5:0.5497484749968127 6:0.19754970174009276 7:0.39819811175144215 8:0.3681495931826584 9:0.4786345084839875 10:0.36205424204175773 11:0.6257174905169983 12:0.5989379359742791 13:0.41659664727115486 14:0.2693883359245236 15:0.47584533866863443 16:0.42352202913699954 17:0.4221073758364082 18:0.40317192154908876 19:0.4920725048790465 20:0.3419085018745401 21:0.3868034784917981 22:0.24820664997640368 23:0.420002158064823 24:0.4383880239305459 25:0.3897972299736265 26:0.5233243204166811 27:0.5483820868832604 28:0.5334284332453135 29:0.48741729334034545 30:0.28426483017492943 31:0.3054938824467033 32:0.6162000753696605 33:0.4063320609207757 34:0.6932306044279464 35:0.6593944095118438 36:0.45255684901538834 37:0.559143081692661 38:0.40205797974196067 39:0.634759995536351 40:0.45092172330368574 41:1.0 42:0.4081075535878992 43:0.7451639538423239 44:0.6824639756445587 45:0.5945066531617229 46:0.6474006285561094 47:0.5319985583418381 48:0.5141108820561615 49:0.4812749736508498 50:0.4692041378608024 51:0.5080877669608781 52:0.5543282714835491 53:0.4348728797480638 54:0.3934433198225472 55:0.49228607575349564 56:0.39649083828747944 57:0.329330684772929 58:0.4923649235810329 59:0.27496677659211904 60:0.4265122766241125 61:0.4226591182574733 62:0.3926001783174685 63:0.6634839774374508 64:0.7068826703643063 65:0.5471571422469216 66:0.4624625754449474 67:0.3154285655899012 68:0.40245012051487006 69:0.4461787262765412 70:0.4101468787388564 71:0.4811490531345481 72:0.3887266846400909 73:0.48980069007042043 74:0.45550085938052587 75:0.5043029260939109 76:0.5183251217265712 77:0.590406492202906 78:0.40313595647403166 79:0.31383579465123923 
-1.0 1.0 1.0 1.0 0:0.42743993636227895 1:0.4027259695017466 2:0.6611101710107323 3:0.5256629155237701 4:0.6452998792815248 5:0.5739845093538913 6:0.23932160664283741 7:0.43497230616033355 8:0.24859519051481987 9:0.431927782488495 10:0.4565832334498282 11:0.6329318022105018 12:0.5931951500762236 13:0.4333634024803198 14:0.22806630693994778 15:0.5238099370397072 16:0.33585845301015493 17:0.328763894140301 18:0.35896439080722853 19:0.5365628738487783 20:0.42044434949606785 21:0.39561673300894284 22:0.1775917139675427 23:0.32172369067747864 24:0.33683653500307115 25:0.32558711077831065 26:0.4765249711219992 27:0.4699846446273435 28:0.4615940434657182 29:0.489634623567066 30:0.2509300286713132 31:0.34082421389824114 32:0.49038654064894 33:0.3594283448750113 34:0.6359111657447881 35:0.7415574144581816 36:0.4928280131646397 37:0.6346811962557481 38:0.43566210125562704 39:0.6991986743631144 40:0.4459891408183664 41:0.7451639538423239 42:0.4106975399385893 43:1.0 44:0.7647834727935893 45:0.5876385741984249 46:0.7120827474701227 47:0.5861298863819259 48:0.5433644726788417 49:0.40955223620048803 50:0.48652735256427354 51:0.533991593498626 52:0.5864557457765309 53:0.5190086820598596 54:0.3673964837437218 55:0.5616479527510474 56:0.3114028852802802 57:0.3769919682967805 58:0.4395846417367279 59:0.22041103146992433 60:0.3656019282359384 61:0.30933863476344015 62:0.2847795506010589 63:0.7023461188916993 64:0.7175629551346483 65:0.47513113439310883 66:0.4992707939547769 67:0.3038151459076878 68:0.4323970435705875 69:0.436604929997391 70:0.3119826467831396 71:0.44511671364990496 72:0.2649668285924396 73:0.33959885749142005 74:0.35692805749780265 75:0.5222143494355174 76:0.40747665832067825 77:0.4999046818779619 78:0.3457167723868917 79:0.29677680378745036 
-1.0 1.0 1.0 0.0 0:0.3775190740907546 1:0.39657515515290687 2:0.6362251070115299 3:0.5409367644660688 4:0.7589252221091252 5:0.504223145529465 6:0.21284706582801152 7:0.4008232146744771 8:0.3044214100059669 9:0.4881315163066997 10:0.4825438274316142 11:0.6497599940857334 12:0.7026450975052803 13:0.42775162519553567 14:0.11624970627862927 15:0.4279263421389326 16:0.322804138689936 17:0.3863113388907936 18:0.2657978379307883 19:0.5568444149773463 20:0.4225112182409536 21:0.44070625509673467 22:0.17463809064508487 23:0.3250505111565264 24:0.3348536687921669 25:0.31555607354090165 26:0.4690250700103705 27:0.5105850000873031 28:0.4831013830053442 29:0.5436678553602314 30:0.19382791582580003 31:0.2180031649443021 32:0.4612737390052116 33:0.2789385816511167 34:0.741982886233735 35:0.6807861552923223 36:0.542416110474202 37:0.582790248510169 38:0.5388623808835413 39:0.6545415442879693 40:0.5377471863541748 41:0.6824639756445587 42:0.46288903362649086 43:0.7647834727935893 44:1.0 45:0.5749100660232114 46:0.6878600490677134 47:0.6056984813956123 48:0.681343943433951 49:0.5598373416764302 50:0.4346886371810704 51:0.4933543977884804 52:0.6233192043253226 53:0.4665523464548369 54:0.43939446033899393 55:0.5428145068204207 56:0.31673067840920127 57:0.4680643496109802 58:0.38008708344600023 59:0.17927300329284723 60:0.3225648285668199 61:0.34970817962158035 62:0.31599643971574665 63:0.7511584591629537 64:0.7340793683995739 65:0.5868541356951378 66:0.5546078218545669 67:0.324875746694648 68:0.44901677529135425 69:0.41872540720861373 70:0.35003333173515977 71:0.5304387170537702 72:0.24956111415938986 73:0.383201815233081 74:0.33052444780245566 75:0.681573391633624 76:0.4967969225102973 77:0.5798145541601536 78:0.3256693916924936 79:0.24086002563232956 
-1.0 1.0 1.0 1.0 0:0.3254963810089829 1:0.35174436395281666 2:0.6457098271582845 3:0.4728767881739048 4:0.7306890268866599 5:0.6878402373340635 6:0.3346119182196283 7:0.3912894067543927 8:0.20929688452923365 9:0.41453229622600507 10:0.5855409316074836 11:0.7211451737405464 12:0.6452597703834184 13:0.4969282481595455 14:0.20888281141108175 15:0.29800322276055813 16:0.25061452985058325 17:0.3678345742616356 18:0.3767999972223832 19:0.6205502073309475 20:0.3975614004339604 21:0.3724863745143807 22:0.2704099885358348 23:0.24865256714085718 24:0.3094830559668955 25:0.2861179407894904 26:0.5813052364277485 27:0.43284266009458094 28:0.5533589051243728 29:0.5253109999384244 30:0.1941072269081574 31:0.19587902374899308 32:0.394723260827098 33:0.2689632450694943 34:0.75558938640612 35:0.7450183131981958 36:0.5808087477703656 37:0.6429153768309291 38:0.3754737330778318 39:0.6914220274422583 40:0.49180166644117707 41:0.6474006285561094 42:0.39850488120130273 43:0.7120827474701227 44:0.6878600490677134 45:0.534672667499804 46:1.0 47:0.6186592855753975 48:0.5845100670715537 49:0.5380635364347718 50:0.5212367846636214 51:0.5378130171918265 52:0.561415604231247 53:0.4345188340877511 54:0.44906317772744336 55:0.5499983823134436 56:0.35846702130811475 57:0.4704611913561665 58:0.4863165794972013 59:0.33061300087621476 60:0.23532318884444733 61:0.3235884442132644 62:0.2850333184372157 63:0.7689635238587731 64:0.6710840401246051 65:0.5969100406575826 66:0.5233326414579862 67:0.3647573382117663 68:0.40602878220593963 69:0.3534382873805634 70:0.27197544926302497 71:0.5555252800154757 72:0.2628782994783783 73:0.308431639203587 74:0.3159831813369566 75:0.5224960758135277 76:0.4025841150630929 77:0.549230147526891 78:0.38273428180780916 79:0.28654925606860765 
-1.0 1.0 1.0 1.0 0:0.29157087360979195 1:0.3444105163263922 2:0.7679115191127674 3:0.4467013477602313 4:0.7463884463497978 5:0.6433221831369806 6:0.25400749711806353 7:0.2986955094482535 8:0.26952047573281124 9:0.40220150948992966 10:0.582294433752762 11:0.6093947098967534 12:0.6772169355241238 13:0.41037302392164876 14:0.2625724985351553 15:0.45247821021397194 16:0.24583168779934023 17:0.355164925594136 18:0.3630200833184122 19:0.6108501477242709 20:0.42903476933096096 21:0.3655470578807266 22:0.2933358144599593 23:0.2630072551410468 24:0.3143487969512695 25:0.3969409219268264 26:0.4541232320827035 27:0.443813877958163 28:0.40571871376014984 29:0.5346079329995775 30:0.2864509076712972 31:0.24294141431690502 32:0.4217491372329473 33:0.23069037572497497 34:0.7589432490357702 35:0.7714475294721388 36:0.5343349650740481 37:0.6339372378848647 38:0.4206184914322575 39:0.6853000368137943 40:0.46859375932186353 41:0.6634839774374508 42:0.4588373759329938 43:0.7023461188916993 44:0.7511584591629537 45:0.5118528747262124 46:0.7689635238587731 47:0.5873518685568916 48:0.6089170143479194 49:0.588800099052865 50:0.38243154789936595 51:0.43657585095149837 52:0.4702275672482865 53:0.3836217257017288 54:0.4816227156230833 55:0.5031197820358226 56:0.2829500219560638 57:0.45458686694444284 58:0.37892772947262343 59:0.28570945180955476 60:0.28861858616473457 61:0.23787411989034501 62:0.28088372168827686 63:1.0 64:0.7978089517577751 65:0.5423449157771607 66:0.5597916432351511 67:0.3788083441164315 68:0.44571329974959956 69:0.32317414934812877 70:0.2943127819688888 71:0.5628029790230492 72:0.23895953327186784 73:0.28084590975471496 74:0.34109551759185375 75:0.59804566943962 76:0.39446731769274757 77:0.5378002925954409 78:0.3777359206088894 79:0.2893107922175327 
-1.0 1.0 0.0 1.0 0:0.34707079382499795 1:0.41680379742266865 2:0.626262574734225 3:0.3953295684478683 4:0.6859313283353432 5:0.6821784335578751 6:0.1387841152437908 7:0.2379133322563917 8:0.28453899782725556 9:0.4107795589095901 10:0.5497193918695087 11:0.6558345928051661 12:0.7091238571879461 13:0.4491881899367995 14:0.21723212427653968 15:0.5166852132647666 16:0.3385228492449698 17:0.27933427374566777 18:0.3934898349582764 19:0.5834991991381699 20:0.3262226977622701 21:0.3245472906551564 22:0.22790302088390338 23:0.38856607414905675 24:0.42346552315864827 25:0.40119568639001874 26:0.40686019091869574 27:0.4095147714026658 28:0.41779045303905343 29:0.48798776873535576 30:0.2809684508659132 31:0.34173747807369986 32:0.5201051532513736 33:0.3453599145056344 34:0.6278843348226388 35:0.749743942586159 36:0.40521981924364486 37:0.7535840000571394 38:0.4567764124328412 39:0.6604185875536532 40:0.49934838477816634 41:0.7068826703643063 42:0.41870450895518874 43:0.7175629551346483 44:0.7340793683995739 45:0.5789973855343028 46:0.6710840401246051 47:0.6749666540393828 48:0.6061849489619153 49:0.5221084262486287 50:0.4100052632397214 51:0.4461287425184789 52:0.5390431179578716 53:0.47122077891571135 54:0.5306404383191196 55:0.42488282851862175 56:0.33906408354997336 57:0.36149866809397285 58:0.39144891185772984 59:0.25818328240245664 60:0.412379051466643 61:0.34078740071913227 62:0.37016547798159977 63:0.7978089517577751 64:1.0 65:0.49791138167698146 66:0.4940097499980024 67:0.31610355118110084 68:0.4521283904584718 69:0.3977145359603595 70:0.30981059787820664 71:0.5554584129380137 72:0.301310163082888 73:0.3632817784376044 74:0.43399644625965 75:0.5690716319980269 76:0.31718248561888424 77:0.5021533201209663 78:0.3223253427783646 79:0.35417865843320573 
-1.0 1.0 1.0 1.0 0:0.21388710421664645 1:0.3551347690340604 2:0.6325408812837348 3:0.50524629452648 4:0.5574970062569097 5:0.6727246973294082 6:0.31543576110649774 7:0.34462597441282394 8:0.24653018506339364 9:0.37990845449296545 10:0.6484487552649537 11:0.650206823741762 12:0.6728333984493111 13:0.5360207909022434 14:0.24204320362894519 15:0.31373658897468804 16:0.22901892895240422 17:0.4451017234396582 18:0.28523315516509984 19:0.6067341531881267 20:0.41313139032911905 21:0.4613769756224202 22:0.21337650958509896 23:0.1944432597376093 24:0.23344327355447092 25:0.4290652613977637 26:0.4928373936117859 27:0.48984762437460716 28:0.5785975958770766 29:0.45403199529461646 30:0.23532100723515723 31:0.30887890058906603 32:0.31012471941747816 33:0.19704752411454876 34:0.6327938371883446 35:0.5884721804945932 36:0.490388211210235 37:0.7025265451791856 38:0.5722346004246006 39:0.6991638868072771 40:0.5963317947864295 41:0.4811490531345481 42:0.4058337087271863 43:0.44511671364990496 44:0.5304387170537702 45:0.3809934457167438 46:0.5555252800154757 47:0.6010575258063038 48:0.6283262483363481 49:0.6205929303560682 50:0.5188837366714817 51:0.48838105832587586 52:0.5426025868052982 53:0.5136089024574089 54:0.39778264107825734 55:0.5231657719469766 56:0.31885980368720446 57:0.5490079546651865 58:0.3943890558234735 59:0.24837758496038367 60:0.26669404038459454 61:0.20590269774655826 62:0.2385009466320244 63:0.5628029790230492 64:0.5554584129380137 65:0.6185089810503965 66:0.6126151354226825 67:0.18911667623671632 68:0.3472543266885183 69:0.2708252192957849 70:0.22300616306183985 71:1.0 72:0.20346436206363006 73:0.2565221010907538 74:0.2119111598228559 75:0.711167129384741 76:0.3815441842860039 77:0.6208766888384056 78:0.3002873595158988 79:0.3589573927522613 
-1.0 -1.0 1.0 1.0 0:0.3222376611519915 1:0.48892611017683485 2:0.5034458623487315 3:1.0 4:0.5127744559158289 5:0.44004020069628474 6:0.6248651676960153 7:0.7034507279085254 8:0.34355294083073873 9:0.6321286603775622 10:0.45641474922911407 11:0.5733479178226921 12:0.4850404986812129 13:0.5775247205890527 14:0.29164857937082533 15:0.455919874182939 16:0.31019422980320754 17:0.6196651783460135 18:0.313645979990698 19:0.36941754403604316 20:0.5823745469244972 21:0.6202965965689982 22:0.3559813872759209 23:0.30286632006427755 24:0.3124807692772277 25:0.4670204710233273 26:0.6283894042316457 27:0.7235261390805021 28:0.6176875526054535 29:0.5665903405522714 30:0.3036854783762211 31:0.3623655505051916 32:0.34931471529383623 33:0.3514639216353501 34:0.5643708164495609 35:0.5625477660454032 36:0.688415762316883 37:0.4109698954510761 38:0.5276982002203823 39:0.49389080559124166 40:0.5488704157622007 41:0.4521815350945136 42:0.5675030002253311 43:0.5256629155237701 44:0.5409367644660688 45:0.592343112763148 46:0.4728767881739048 47:0.6514221228210226 48:0.6727980962454048 49:0.6098875174167275 50:0.6963693737122096 51:0.6682143085730288 52:0.5820871150876222 53:0.7644273493938556 54:0.45666751798832445 55:0.6528135503327003 56:0.35453833551357194 57:0.6005848204927982 58:0.5770860479667084 59:0.31901282385693785 60:0.3689568664337835 61:0.29076304203842224 62:0.30073602342422884 63:0.4467013477602313 64:0.3953295684478683 65:0.5771697966984953 66:0.627140204275745 67:0.3451741814446181 68:0.40964886587891713 69:0.36388968301490926 70:0.40084521642427706 71:0.50524629452648 72:0.30032680237248843 73:0.3741449138926862 74:0.3131774017497511 75:0.6956850882804981 76:0.7016162137568701 77:0.5974467956886179 78:0.3412129941190874 79:0.42747272636774253 
-1.0 -1.0 1.0 1.0 0:0.3327979193021271 1:0.4197346460563515 2:0.5345748987532001 3:0.5775247205890527 4:0.5285988296644075 5:0.5341552392878497 6:0.4506328573200895 7:0.45439796183020875 8:0.28145959487202454 9:0.48963029103531186 10:0.6057003681968816 11:0.6260248213371195 12:0.5790380851951038 13:1.0 14:0.1893382727100677 15:0.23999270541295234 16:0.275311123793663 17:0.5451218577474761 18:0.24898606523480601 19:0.5127004151644226 20:0.5219153829924045 21:0.6750879391032886 22:0.19626762978616363 23:0.251390327859046 24:0.31365649771672865 25:0.3334016738586656 26:0.6013257983063117 27:0.4457944443885573 28:0.6855385013513501 29:0.5689335448607893 30:0.2334703038535807 31:0.3015124139248467 32:0.3614141551634935 33:0.2591289281322642 34:0.4959334901142485 35:0.5686960947064771 36:0.42569486089951436 37:0.5452228668605279 38:0.5872567063058767 39:0.5663196544158062 40:0.7755233122592549 41:0.41659664727115486 42:0.47782303363255774 43:0.4333634024803198 44:0.42775162519553567 45:0.6247898832926118 46:0.4969282481595455 47:0.7360395088331884 48:0.6725393618957272 49:0.6943399781155193 50:0.6585710552564579 51:0.595031709870055 52:0.6822882241502313 53:0.6807854747056157 54:0.48560422910962836 55:0.6320784685828087 56:0.4904358391105568 57:0.5037749459663681 58:0.5645153907068642 59:0.25720310723787565 60:0.34743357516529405 61:0.2757746939508459 62:0.3316115446503645 63:0.41037302392164876 64:0.4491881899367995 65:0.6544437326611139 66:0.6871826911362501 67:0.20480975326994846 68:0.24721400419468514 69:0.36388926894273155 70:0.19199930015845662 71:0.5360207909022434 72:0.28540100928290757 73:0.37071522859102213 74:0.35781675380982175 75:0.6255778603840076 76:0.48658421783824024 77:0.5489361060359681 78:0.3412516608244564 79:0.30514415277876517 
-1.0 -1.0 1.0 1.0 0:0.2878999390700093 1:0.33994585962968205 2:0.5074174991106679 3:0.6283894042316457 4:0.5578861431219593 5:0.3509894710604139 6:0.4521427171028697 7:0.49108094050630047 8:0.2429307004331715 9:0.5413635897655745 10:0.4386274677855083 11:0.47366416681463486 12:0.4905864142199257 13:0.6013257983063117 14:0.2184889886013978 15:0.15426462487644277 16:0.2549731434442014 17:0.416482945641131 18:0.2736780622645078 19:0.3063735037129547 20:0.44532104619074964 21:0.4751397712520564 22:0.21170406578675144 23:0.22398839534105877 24:0.276118676723346 25:0.23378139886087568 26:1.0 27:0.5947957518748155 28:0.8591478820021053 29:0.5387833458181273 30:0.22917383409660275 31:0.23038695607806614 32:0.30800388734910505 33:0.3151448277815355 34:0.6792317862012287 35:0.41131582641749587 36:0.6697448846427744 37:0.40960315484641874 38:0.6017976200204106 39:0.442995693883496 40:0.6037754036225221 41:0.5233243204166811 42:0.5507121366436993 43:0.4765249711219992 44:0.4690250700103705 45:0.5703365376792643 46:0.5813052364277485 47:0.536424983857444 48:0.6742767899835804 49:0.6352164727061123 50:0.8577121704670574 51:0.7331718922270835 52:0.7411582389346327 53:0.7190589348719033 54:0.49181408711361746 55:0.7479650793903379 56:0.36375972616013624 57:0.62626245414977 58:0.6831656647840434 59:0.26353941927069374 60:0.2819609881742461 61:0.34759490832211054 62:0.32415875147160117 63:0.4541232320827035 64:0.40686019091869574 65:0.6703838204481971 66:0.6375462475062391 67:0.25055301137729286 68:0.21793064075366825 69:0.3480884146629443 70:0.20366830861520843 71:0.4928373936117859 72:0.26209859295121707 73:0.3467595845936571 74:0.33337327870977895 75:0.6146997890326749 76:0.6205749678137491 77:0.6876380378633914 78:0.3686080923150681 79:0.215737967544084 
-1.0 -1.0 1.0 1.0 0:0.37239967995720424 1:0.38585069654033605 2:0.4839868747110524 3:0.6176875526054535 4:0.5628240764767778 5:0.4216954475986936 6:0.40268399430416857 7:0.536697092722601 8:0.26389728434129917 9:0.4973502683650942 10:0.4357981807603878 11:0.5428291007604411 12:0.5176589638016693 13:0.6855385013513501 14:0.14454348877546527 15:0.15951416461026557 16:0.297146170623768 17:0.5024277151513373 18:0.20082375861599178 19:0.39757835270895303 20:0.37595162696724416 21:0.5461592013670307 22:0.13588348129631378 23:0.26402296356469507 24:0.3163418624100903 25:0.2610072105652562 26:0.8591478820021053 27:0.6394452750775488 28:1.0 29:0.5661275976440763 30:0.14788780660633283 31:0.23349623307957965 32:0.3593140450470378 33:0.30127986731363793 34:0.6095971729716743 35:0.5011388794226818 36:0.6319087754246749 37:0.49915948166737434 38:0.5783877509110522 39:0.521382749766459 40:0.6983998977712076 41:0.5334284332453135 42:0.47933133893332946 43:0.4615940434657182 44:0.4831013830053442 45:0.6083810036830382 46:0.5533589051243728 47:0.6304562918858798 48:0.7134821438389709 49:0.7137191047166345 50:0.7676695556659476 51:0.767650775543207 52:0.7757296003413456 53:0.7109595052049741 54:0.4448062685601377 55:0.6648728296029414 56:0.4475118394716386 57:0.6125081749594754 58:0.7314602859652588 59:0.24275150685967578 60:0.32714973005146164 61:0.3538781796801753 62:0.34087140764333734 63:0.40571871376014984 64:0.41779045303905343 65:0.7452812545998151 66:0.715963326712296 67:0.18594730435709975 68:0.2117036528837236 69:0.36768635496311197 70:0.2115968317711497 71:0.5785975958770766 72:0.25739704451771844 73:0.4046880655506784 74:0.357380136413996 75:0.6994886580580882 76:0.6457846613098216 77:0.7472293672988009 78:0.36129441715261257 79:0.2407323618997648 
-1.0 -1.0 1.0 1.0 0:0.3268587028961357 1:0.4684393401627679 2:0.49416169396951576 3:0.5488704157622007 4:0.5002672999443744 5:0.5120059766810009 6:0.37173692164829547 7:0.4623395993058662 8:0.24923287298212426 9:0.43884909749210665 10:0.5552939827265502 11:0.5845650564806459 12:0.49871602400412524 13:0.7755233122592549 14:0.20729734804350466 15:0.30907426174580793 16:0.34342855352381807 17:0.6199879199851891 18:0.25669163375929216 19:0.5054606783387732 20:0.4125929644095923 21:0.577287954232169 22:0.1610237371941805 23:0.3345372345628431 24:0.317753579820647 25:0.31788369288102286 26:0.6037754036225221 27:0.545856402840355 28:0.6983998977712076 29:0.5346996561983888 30:0.20054280506460737 31:0.2895479818033341 32:0.40299798805074827 33:0.3151943628574773 34:0.4476010477923662 35:0.5608152404259666 36:0.4777756916881843 37:0.64492084985528 38:0.5429582172756402 39:0.5338941400813495 40:1.0 41:0.45092172330368574 42:0.5019116345822052 43:0.4459891408183664 44:0.5377471863541748 45:0.5624476767738074 46:0.49180166644117707 47:0.7280825820857382 48:0.6710384935813221 49:0.6676264835254442 50:0.6678434760158913 51:0.6286020483145903 52:0.7830745261055396 53:0.6777099127447831 54:0.546817358306716 55:0.5892098401805264 56:0.48522376294709707 57:0.5114713226731946 58:0.5883855080273028 59:0.29380473654623285 60:0.4043772422015148 61:0.3454763769942777 62:0.3636553076124239 63:0.46859375932186353 64:0.49934838477816634 65:0.7111378312896945 66:0.6316615057961836 67:0.22737717685146902 68:0.3258647986317468 69:0.38831567490105234 70:0.27142421682524787 71:0.5963317947864295 72:0.35166369691434485 73:0.40744955514420933 74:0.3995965270105334 75:0.7490483062139066 76:0.49737100130160106 77:0.5831876834143914 78:0.3672364209568708 79:0.24274594430197025 
-1.0 -1.0 1.0 1.0 0:0.38380905536092624 1:0.4216105612250501 2:0.43775933040546827 3:0.592343112763148 4:0.5255426290637528 5:0.39183317650811866 6:0.4026389181879811 7:0.4894551829766935 8:0.3407741429489958 9:0.6096182118915017 10:0.3965231728213921 11:0.47429476584290237 12:0.4080586144492871 13:0.6247898832926118 14:0.18471347984384817 15:0.3673014989928385 16:0.32085627859008214 17:0.40725846718675385 18:0.32915869529378 19:0.38720740655106084 20:0.4544264413218485 21:0.5229798572277385 22:0.2595307689319638 23:0.3341926559753754 24:0.3837885398127329 25:0.38079707658214906 26:0.5703365376792643 27:0.5020752362959346 28:0.6083810036830382 29:0.5591462712384124 30:0.23335330901908624 31:0.2739475431939711 32:0.46422540633489706 33:0.3920327512117705 34:0.535187305216565 35:0.6779890376392423 36:0.4955013751489308 37:0.48754956359703083 38:0.5328857498052468 39:0.4852461367750839 40:0.5624476767738074 41:0.5945066531617229 42:0.5580207604127754 43:0.5876385741984249 44:0.5749100660232114 45:1.0 46:0.534672667499804 47:0.6533911122967402 48:0.6332515947579193 49:0.6408626685252232 50:0.5442246371518198 51:0.639934301643176 52:0.5924857326618443 53:0.6109445838733257 54:0.5617216873811721 55:0.6379991150351301 56:0.44554073158526863 57:0.5139940979408482 58:0.5689035273560326 59:0.295803282261615 60:0.361061940959127 61:0.39122547311970785 62:0.38096793632313525 63:0.5118528747262124 64:0.5789973855343028 65:0.5852699731102724 66:0.6196455035281433 67:0.2243851084738436 68:0.2679620161110913 69:0.4316035542744532 70:0.31009797733751787 71:0.3809934457167438 72:0.3592080690375844 73:0.4271657298595712 74:0.3952319734488324 75:0.5679533989979255 76:0.4865606737086722 77:0.6351268678417568 78:0.4150167025288821 79:0.2856955854665555 
-1.0 -1.0 0.0 0.0 0:0.3295522511817277 1:0.45789553168654695 2:0.5796964387244823 3:0.6514221228210226 4:0.5945595893942266 5:0.6347918726049888 6:0.3970322364358441 7:0.46374303853047444 8:0.22078316232653178 9:0.47793523884227096 10:0.6272448025719595 11:0.7179755681797328 12:0.6007402240312715 13:0.7360395088331884 14:0.19040111737819482 15:0.37209126649934937 16:0.35152477435589935 17:0.4993351816575624 18:0.3108168850918903 19:0.49417898637896784 20:0.4715384942649564 21:0.5225962052211988 22:0.23147445424208904 23:0.3372350903237846 24:0.3640949193992594 25:0.36500975975687544 26:0.536424983857444 27:0.6122336414800685 28:0.6304562918858798 29:0.6142756391872133 30:0.26285122975862824 31:0.3768805010405518 32:0.4119202653884802 33:0.307397993297355 34:0.5680557916667186 35:0.7646370494299242 36:0.5414186828481267 37:0.6774122906116627 38:0.5448277880376005 39:0.6287799886595463 40:0.7280825820857382 41:0.5319985583418381 42:0.5231483505305157 43:0.5861298863819259 44:0.6056984813956123 45:0.6533911122967402 46:0.6186592855753975 47:1.0 48:0.7220682530373801 49:0.7483768796650767 50:0.6053511174707786 51:0.5984616146716322 52:0.7111211862608073 53:0.6807290664743375 54:0.6038310318406166 55:0.5917254974869544 56:0.40914420042096866 57:0.5832286049712732 58:0.5483113897234757 59:0.325912900202817 60:0.41149551517993843 61:0.3132968109237518 62:0.3613333421495777 63:0.5873518685568916 64:0.6749666540393828 65:0.6712829348826159 66:0.7210327373157478 67:0.285916624069837 68:0.3067566147822863 69:0.323917002657933 70:0.2623831505003419 71:0.6010575258063038 72:0.31976704078511226 73:0.4041231835090766 74:0.3428194654392088 75:0.760110659793805 76:0.4242500362191223 77:0.651857038698545 78:0.34131634056664173 79:0.376344370471167 
-0.0 -1.0 0.0 0.0 0:0.3208391741684939 1:0.37799966699988474 2:0.6300602625032066 3:0.6727980962454048 4:0.7141611076155756 5:0.5205042590792551 6:0.36166773484275183 7:0.4609053960644634 8:0.3192298871428219 9:0.540364224418258 10:0.5297905227114631 11:0.5967642968773227 12:0.6639433566300975 13:0.6725393618957272 14:0.14591494491042029 15:0.2961211355509267 16:0.29559754644383296 17:0.5228524201259749 18:0.2031446244600895 19:0.4667121795438984 20:0.4636854768492666 21:0.5051788485742914 22:0.20166611964515146 23:0.27977718561065634 24:0.31342471904852426 25:0.33581939023174 26:0.6742767899835804 27:0.6099771147636577 28:0.7134821438389709 29:0.6873863114272682 30:0.21003997221271153 31:0.2288286879208384 32:0.3568981269203336 33:0.3100156468670316 34:0.6452723871375905 35:0.580445736569099 36:0.6169648429640575 37:0.5772412787090595 38:0.683627100809244 39:0.5306231798500342 40:0.6710384935813221 41:0.5141108820561615 42:0.573877017209248 43:0.5433644726788417 44:0.681343943433951 45:0.6332515947579193 46:0.5845100670715537 47:0.7220682530373801 48:1.0 49:0.8271539724031154 50:0.6101219884660252 51:0.6497815658000502 52:0.7367929704253778 53:0.6312104308094089 54:0.6011197113655549 55:0.6681640529872515 56:0.34805912146199974 57:0.7396629687111778 58:0.5514051538588653 59:0.22103581377778359 60:0.32092102121030236 61:0.31245480215475285 62:0.31076735145413314 63:0.6089170143479194 64:0.6061849489619153 65:0.8507082920840302 66:0.8212469140487816 67:0.27544681253677955 68:0.3595820598615144 69:0.39067065036696064 70:0.29402023337535804 71:0.6283262483363481 72:0.24256837726180663 73:0.3873033902051772 74:0.34807524829009734 75:0.8513553726256815 76:0.569285816941658 77:0.7347799155225312 78:0.33712838429726366 79:0.25674972778056054 
-1.0 -1.0 1.0 1.0 0:0.23691674048298964 1:0.340804059938243 2:0.6044719926296305 3:0.6098875174167275 4:0.6521610426374704 5:0.5280766626770371 6:0.40165550607763045 7:0.4605719211678794 8:0.29231803575624765 9:0.47382481300444756 10:0.4829805977213085 11:0.5486759541432397 12:0.5617067520061644 13:0.6943399781155193 14:0.116999369059338 15:0.19948154288808775 16:0.23908022898456982 17:0.5070282583977234 18:0.19091635616578714 19:0.47790149252280495 20:0.3769829880157579 21:0.4644297895859234 22:0.18609112246426127 23:0.18423123779911796 24:0.24497184727177013 25:0.319311811839631 26:0.6352164727061123 27:0.5689807372206666 28:0.7137191047166345 29:0.6154125954372529 30:0.16789256272276915 31:0.20381658274279157 32:0.31241081171174645 33:0.2311900917072828 34:0.6258136790934408 35:0.5796941413931336 36:0.5736594661272363 37:0.527921097109506 38:0.5441037619122082 39:0.5079782174216663 40:0.6676264835254442 41:0.4812749736508498 42:0.5109412313966932 43:0.40955223620048803 44:0.5598373416764302 45:0.6408626685252232 46:0.5380635364347718 47:0.7483768796650767 48:0.8271539724031154 49:1.0 50:0.5988312573714187 51:0.6042530478412388 52:0.6838997541263623 53:0.629415660174018 54:0.5901153635729466 55:0.5778089639891376 56:0.430215393268675 57:0.6859908096481702 58:0.5737106254792289 59:0.23637867091106382 60:0.25628768003746766 61:0.2370594016158486 62:0.26552087907543465 63:0.588800099052865 64:0.5221084262486287 65:0.8299406885327102 66:0.8877549221581653 67:0.22298121414823424 68:0.24798886130687392 69:0.2605285917164724 70:0.21239392658478246 71:0.6205929303560682 72:0.23151079631391927 73:0.33886259993085743 74:0.30877472807416 75:0.7782602491289237 76:0.5406018603001306 77:0.7911346349176852 78:0.355470099750747 79:0.21793290338492494 
-1.0 -1.0 1.0 1.0 0:0.25739356058958535 1:0.4047038578532035 2:0.5132013689291153 3:0.6963693737122096 4:0.4665208061356389 5:0.3907747736854868 6:0.5522785074423247 7:0.5586971809972743 8:0.19323259607929497 9:0.49547450451357467 10:0.516072551075409 11:0.5423907730969324 12:0.4749969393315165 13:0.6585710552564579 14:0.2571752577687497 15:0.2740429237968636 16:0.24613980549030715 17:0.4221932305310975 18:0.3048805647696965 19:0.34114096256012605 20:0.4956023698345074 21:0.5576606301965714 22:0.22112798919654708 23:0.24344223249457364 24:0.2431956572416628 25:0.27189640492923783 26:0.8577121704670574 27:0.6172273527804484 28:0.7676695556659476 29:0.536732080339245 30:0.2451299295392652 31:0.3054538360953425 32:0.29133874696889817 33:0.3222275701788613 34:0.5868489286169843 35:0.43720577369980945 36:0.5661912894621636 37:0.41955793039366673 38:0.5869903707610217 39:0.481347806992773 40:0.6678434760158913 41:0.4692041378608024 42:0.5390446906495028 43:0.48652735256427354 44:0.4346886371810704 45:0.5442246371518198 46:0.5212367846636214 47:0.6053511174707786 48:0.6101219884660252 49:0.5988312573714187 50:1.0 51:0.681869544085272 52:0.7385598167633474 53:0.8182954367432012 54:0.4429196521894635 55:0.6765132125508404 56:0.3537727583875401 57:0.5197187274622688 58:0.6129145692933069 59:0.27349225961565743 60:0.32450752648015 61:0.2883056285581159 62:0.28606188365082647 63:0.38243154789936595 64:0.4100052632397214 65:0.6406185442912566 66:0.6366544735752466 67:0.21356471113567438 68:0.22476714810483428 69:0.29607539238351127 70:0.19795649400512558 71:0.5188837366714817 72:0.312721045409037 73:0.3248146979462587 74:0.3174865494303611 75:0.642197757206779 76:0.549915624479659 77:0.5844976484506488 78:0.3238524109595639 79:0.29465599136619813 
-1.0 -1.0 1.0 1.0 0:0.3884169404039516 1:0.395825915204553 2:0.48191198405559776 3:0.6682143085730288 4:0.4986390336219848 5:0.42157927517362503 6:0.4779871379515317 7:0.6808866765624926 8:0.22228920012842773 9:0.6392325490921802 10:0.4430564713999794 11:0.4935911831910337 12:0.4663423254869597 13:0.595031709870055 14:0.11068198782168501 15:0.2105033343287737 16:0.28485632871003086 17:0.5082374202465659 18:0.22830907959344404 19:0.4046470825976832 20:0.49960694237512615 21:0.5594274141668842 22:0.13931812301165875 23:0.3055485650293928 24:0.34487211705670506 25:0.24572542899784805 26:0.7331718922270835 27:0.6318423276522763 28:0.767650775543207 29:0.5603035710565876 30:0.21156373458288985 31:0.255090352616547 32:0.36042549228266385 33:0.3684245055532958 34:0.5157731442952029 35:0.4984070687485074 36:0.6644131106040925 37:0.4919540434039459 38:0.514398452383267 39:0.5338881245530627 40:0.6286020483145903 41:0.5080877669608781 42:0.573543924422153 43:0.533991593498626 44:0.4933543977884804 45:0.639934301643176 46:0.5378130171918265 47:0.5984616146716322 48:0.6497815658000502 49:0.6042530478412388 50:0.681869544085272 51:1.0 52:0.6648315767897834 53:0.6538276152599088 54:0.43279633590636923 55:0.7472364325492928 56:0.42469617581299857 57:0.6599420211559652 58:0.7642867766379341 59:0.25743256324830494 60:0.33096541077412506 61:0.3286885076454176 62:0.3168269677344711 63:0.43657585095149837 64:0.4461287425184789 65:0.646766664885104 66:0.6205433251767081 67:0.17474780674726115 68:0.22968534532840396 69:0.39347018727010935 70:0.24419494211947196 71:0.48838105832587586 72:0.205934092632527 73:0.38173684626382237 74:0.33999931291427987 75:0.6616743229980702 76:0.6751667396367824 77:0.7101925829769683 78:0.351407415047671 79:0.23504919216059633 
-1.0 -1.0 1.0 0.0 0:0.3960094461357592 1:0.420603046408541 2:0.4990975944859798 3:0.5820871150876222 4:0.5605288360405803 5:0.4440888603808746 6:0.30973625870216676 7:0.46889750565839916 8:0.32998847052514596 9:0.5094383205568344 10:0.4632184026385125 11:0.5521874381317408 12:0.514516033798672 13:0.6822882241502313 14:0.13537594773607636 15:0.26834938103752737 16:0.38004040351390755 17:0.5327963972170988 18:0.19339954797246664 19:0.5091991000778021 20:0.37520896911913426 21:0.5070415183599994 22:0.1531882883523742 23:0.3247045130102794 24:0.34692997428995254 25:0.32094782008867506 26:0.7411582389346327 27:0.6544688656861832 28:0.7757296003413456 29:0.6581753973729572 30:0.20243191816745706 31:0.34327602071513 32:0.42579070653429074 33:0.3032926348501897 34:0.5606210419386097 35:0.5395006083255675 36:0.5351410790249069 37:0.5878183559972969 38:0.56500358701876 39:0.5476092044046499 40:0.7830745261055396 41:0.5543282714835491 42:0.5027355003409353 43:0.5864557457765309 44:0.6233192043253226 45:0.5924857326618443 46:0.561415604231247 47:0.7111211862608073 48:0.7367929704253778 49:0.6838997541263623 50:0.7385598167633474 51:0.6648315767897834 52:1.0 53:0.688283372313527 54:0.49116594388526824 55:0.6252427748260128 56:0.4029026001600774 57:0.5675787973113152 58:0.6471671124491558 59:0.22551887960443018 60:0.37733740164605734 61:0.3715849526737759 62:0.3762439554314511 63:0.4702275672482865 64:0.5390431179578716 65:0.7657342304863124 66:0.7137867003156944 67:0.2506255231448593 68:0.3124070163029188 69:0.42578782647974966 70:0.2470220993238457 71:0.5426025868052982 72:0.3235116391362049 73:0.4230799997525364 74:0.4010352367686447 75:0.7519856898163075 76:0.5996996536462236 77:0.6719457926498089 78:0.3081719877002966 79:0.27073578515641095 
-1.0 -1.0 1.0 1.0 0:0.27374508843008694 1:0.3980508626061982 2:0.4671442534674476 3:0.7644273493938556 4:0.4419382931764161 5:0.40787669317758746 6:0.5077952988168284 7:0.5376917566008808 8:0.21258864728356555 9:0.46858613576676994 10:0.49379426347132827 11:0.5543923368334693 12:0.481217176922116 13:0.6807854747056157 14:0.23527324750018214 15:0.324505436118747 16:0.24519962893378539 17:0.43105244858341385 18:0.2696564341543477 19:0.3443386721088925 20:0.4703323310826909 21:0.5839487631126835 22:0.17241648684445027 23:0.24423493352995612 24:0.23408302616829263 25:0.2780296325566918 26:0.7190589348719033 27:0.5342613778050058 28:0.7109595052049741 29:0.4730645020964195 30:0.24506523376101255 31:0.3482152853864539 32:0.3087729543287043 33:0.3166761490326414 34:0.5431768338264891 35:0.53755205239392 36:0.5898464359706503 37:0.4534227845213829 38:0.5551310891868453 39:0.5291523583590846 40:0.6777099127447831 41:0.4348728797480638 42:0.51026706481006 43:0.5190086820598596 44:0.4665523464548369 45:0.6109445838733257 46:0.4345188340877511 47:0.6807290664743375 48:0.6312104308094089 49:0.629415660174018 50:0.8182954367432012 51:0.6538276152599088 52:0.688283372313527 53:1.0 54:0.45851466520057094 55:0.6322072830486556 56:0.3582109056477546 57:0.5057016799827465 58:0.6164392003637694 59:0.249552944793262 60:0.36614912120283316 61:0.2543025674366739 62:0.2815046451185325 63:0.3836217257017288 64:0.47122077891571135 65:0.5279564843691278 66:0.6449059701254775 67:0.14233031076886343 68:0.2110118294181167 69:0.2940778227962411 70:0.1755246220569778 71:0.5136089024574089 72:0.2649729531229628 73:0.30429391750845636 74:0.336905869511569 75:0.6218602451686479 76:0.5079962638121912 77:0.5502428624798367 78:0.2635792534542237 79:0.3068351641961815 
-1.0 -1.0 1.0 1.0 0:0.3082803205398037 1:0.3194287763007311 2:0.5764892473371972 3:0.6528135503327003 4:0.4981705745267253 5:0.41718540493370215 6:0.42950208378326094 7:0.5500952326929734 8:0.2302136880992179 9:0.6032140843243806 10:0.502099541137654 11:0.47929673581317767 12:0.5234160430257654 13:0.6320784685828087 14:0.2529810869766166 15:0.253092507467551 16:0.20949455387508908 17:0.4343025544490398 18:0.2914816767354783 19:0.3786374015459999 20:0.6576035413515399 21:0.4926126007932961 22:0.20896690215266034 23:0.23552352252181769 24:0.29251308378687657 25:0.2523674422858628 26:0.7479650793903379 27:0.6148230774572749 28:0.6648728296029414 29:0.4634427638564754 30:0.34148158272505064 31:0.2457234589009618 32:0.31175573473362495 33:0.27508157238943626 34:0.6208179993163523 35:0.5337536182657554 36:0.6671629785930057 37:0.4818922524500533 38:0.6539176369240134 39:0.5653805303836482 40:0.5892098401805264 41:0.49228607575349564 42:0.5745345952652943 43:0.5616479527510474 44:0.5428145068204207 45:0.6379991150351301 46:0.5499983823134436 47:0.5917254974869544 48:0.6681640529872515 49:0.5778089639891376 50:0.6765132125508404 51:0.7472364325492928 52:0.6252427748260128 53:0.6322072830486556 54:0.45625972176131147 55:1.0 56:0.29273545930076084 57:0.6278581894773253 58:0.549666962639545 59:0.24819293129449274 60:0.2931774913736057 61:0.27007230836611185 62:0.24122790001509364 63:0.5031197820358226 64:0.42488282851862175 65:0.5880789005458795 66:0.5918714975544719 67:0.21280750537579593 68:0.17040452824307994 69:0.34118365816507806 70:0.20520186373951393 71:0.5231657719469766 72:0.24571647758867174 73:0.3113584696853644 74:0.2670306972777876 75:0.6557055450050522 76:0.5615633037777921 77:0.6611129935227253 78:0.38031823189065717 79:0.23881486526799153 
-1.0 -1.0 1.0 0.0 0:0.3021425931370625 1:0.3832898089690634 2:0.6107393229205949 3:0.5771697966984953 4:0.6592746605499022 5:0.5158719094871516 6:0.41083398424577355 7:0.5193637990329798 8:0.28148545720201723 9:0.47300258304220705 10:0.4871638364642551 11:0.566835541411828 12:0.5635707073204376 13:0.6544437326611139 14:0.12347850352326434 15:0.23981006032664717 16:0.28920584109199216 17:0.5916980834712412 18:0.2127151795489378 19:0.47832463166766337 20:0.3742235680105917 21:0.5309093794451094 22:0.1735699763471455 23:0.24003470749717937 24:0.2759566583520674 25:0.2849266026846137 26:0.6703838204481971 27:0.6141840703920153 28:0.7452812545998151 29:0.6897944988663399 30:0.11641120828313462 31:0.1665524928881469 32:0.3559705114322958 33:0.26703592379959995 34:0.5499065920920991 35:0.5590969383807045 36:0.5492919209804776 37:0.5666935668163166 38:0.6076272021539055 39:0.5114531032714704 40:0.7111378312896945 41:0.5471571422469216 42:0.44722225062206516 43:0.47513113439310883 44:0.5868541356951378 45:0.5852699731102724 46:0.5969100406575826 47:0.6712829348826159 48:0.8507082920840302 49:0.8299406885327102 50:0.6406185442912566 51:0.646766664885104 52:0.7657342304863124 53:0.5279564843691278 54:0.5526156961949361 55:0.5880789005458795 56:0.38615292897281983 57:0.6785972018775792 58:0.6070037128129937 59:0.25597187916791564 60:0.2673598919661886 61:0.3380992164325906 62:0.31853497235403505 63:0.5423449157771607 64:0.49791138167698146 65:1.0 66:0.8580820297496214 67:0.23752447899746582 68:0.32496209647492325 69:0.3655467216031208 70:0.27095196823379675 71:0.6185089810503965 72:0.2788528575263575 73:0.38178012867171063 74:0.3324231899360922 75:0.8403659712846926 76:0.6003617128355054 77:0.8169291313116306 78:0.3348234412431644 79:0.19163948404951037 
-1.0 -1.0 1.0 0.0 0:0.2893206151930503 1:0.3193012826319301 2:0.6756791900418408 3:0.627140204275745 4:0.6176883190366307 5:0.5496485408348232 6:0.4505636348486016 7:0.5136499518495885 8:0.29343606660406707 9:0.5073291351710998 10:0.4996411795742545 11:0.5920906953348946 12:0.5229743196444424 13:0.6871826911362501 14:0.1617026521546207 15:0.246217311366088 16:0.23007544082565418 17:0.5306402005199492 18:0.21282942862250262 19:0.4851837495122813 20:0.432297265888083 21:0.5503066132736135 22:0.20698024598528447 23:0.16155850682794282 24:0.21970621165808377 25:0.3381156957512557 26:0.6375462475062391 27:0.5870080591342377 28:0.715963326712296 29:0.6835015375431225 30:0.20016932254090675 31:0.26188859316997476 32:0.28445689138711205 33:0.22584924667984096 34:0.5809907388600755 35:0.6135559448252698 36:0.5519881571674413 37:0.5091640978758606 38:0.5780315524870987 39:0.5714440639831957 40:0.6316615057961836 41:0.4624625754449474 42:0.5008968523939727 43:0.4992707939547769 44:0.5546078218545669 45:0.6196455035281433 46:0.5233326414579862 47:0.7210327373157478 48:0.8212469140487816 49:0.8877549221581653 50:0.6366544735752466 51:0.6205433251767081 52:0.7137867003156944 53:0.6449059701254775 54:0.5369538657232388 55:0.5918714975544719 56:0.3621962450663633 57:0.6835712025157323 58:0.6032899004747989 59:0.23581535569014805 60:0.23760344325895055 61:0.1879262129697355 62:0.23504662400683785 63:0.5597916432351511 64:0.4940097499980024 65:0.8580820297496214 66:1.0 67:0.2325775504227852 68:0.28145969342283594 69:0.24614945448795073 70:0.1808562370258181 71:0.6126151354226825 72:0.221003004460468 73:0.2999883743038818 74:0.26743202243507236 75:0.808301810137317 76:0.553762335169059 77:0.7852717313838091 78:0.3187403689915973 79:0.24812390495783115 
-1.0 -1.0 0.0 0.0 0:0.32816366824490284 1:0.4408571635413053 2:0.6735568594337027 3:0.6956850882804981 4:0.6206782789555348 5:0.5450995830849377 6:0.3871131971725825 7:0.5305633635109266 8:0.24571642308799607 9:0.5083213643468091 10:0.5303044764193143 11:0.5887477142846227 12:0.6110820023120744 13:0.6255778603840076 14:0.17856280393540705 15:0.32945792768809307 16:0.3751217718269772 17:0.5405431510846457 18:0.24366522136225865 19:0.4490677653987241 20:0.4754998618223898 21:0.55052495856182 22:0.2131328967776718 23:0.3144476671336458 24:0.3095169839801299 25:0.3544804403300196 26:0.6146997890326749 27:0.679684994905166 28:0.6994886580580882 29:0.6316782360822395 30:0.18914277371421967 31:0.26458525290249296 32:0.387369215786779 33:0.25985300494903446 34:0.6161651798589248 35:0.6210019178665915 36:0.5962134857323701 37:0.5925935279208632 38:0.6571348152875185 39:0.561997778875371 40:0.7490483062139066 41:0.5043029260939109 42:0.5690306184416138 43:0.5222143494355174 44:0.681573391633624 45:0.5679533989979255 46:0.5224960758135277 47:0.760110659793805 48:0.8513553726256815 49:0.7782602491289237 50:0.642197757206779 51:0.6616743229980702 52:0.7519856898163075 53:0.6218602451686479 54:0.5960239292051172 55:0.6557055450050522 56:0.34704183777622793 57:0.6875599794906679 58:0.5630644895210347 59:0.29222878799810154 60:0.35179700461816926 61:0.3105222724757332 62:0.34514575027686606 63:0.59804566943962 64:0.5690716319980269 65:0.8403659712846926 66:0.808301810137317 67:0.3072635217165192 68:0.3787333036926846 69:0.3822822336059667 70:0.2882986862826485 71:0.711167129384741 72:0.2665165930267716 73:0.3846701920999093 74:0.3302946000473664 75:1.0 76:0.5882721619173199 77:0.7733909435254962 78:0.32934557592616864 79:0.2532041219052746 
-1.0 -1.0 1.0 1.0 0:0.34948717989142936 1:0.369554354090396 2:0.5752983959517117 3:0.5974467956886179 4:0.5745761074697955 5:0.4482541171552195 6:0.37521768954266366 7:0.5300519080328203 8:0.2771632034717223 9:0.5222384577286097 10:0.4384610508796391 11:0.5345773203777627 12:0.5190677010307597 13:0.5489361060359681 14:0.12001285425909117 15:0.26387006666355356 16:0.309572855074253 17:0.501236446662907 18:0.21818722644636734 19:0.40148124887901604 20:0.3822503822456816 21:0.48456199633774616 22:0.16844571261407187 23:0.2729700216484325 24:0.3346650169652072 25:0.31357674794255486 26:0.6876380378633914 27:0.6403377835159396 28:0.7472293672988009 29:0.5967139051454289 30:0.18825257269471948 31:0.249218368506678 32:0.39304433626328494 33:0.29894581879404847 34:0.6401378229817962 35:0.5448533178708161 36:0.5908885867041684 37:0.5249449085051254 38:0.5917923560922671 39:0.5287212533516312 40:0.5831876834143914 41:0.590406492202906 42:0.481052178898627 43:0.4999046818779619 44:0.5798145541601536 45:0.6351268678417568 46:0.549230147526891 47:0.651857038698545 48:0.7347799155225312 49:0.7911346349176852 50:0.5844976484506488 51:0.7101925829769683 52:0.6719457926498089 53:0.5502428624798367 54:0.5365748564554254 55:0.6611129935227253 56:0.42714137954716364 57:0.7025540765820282 58:0.6806679139612433 59:0.28203342326173314 60:0.3204105311214523 61:0.3240978357635501 62:0.33767540874848745 63:0.5378002925954409 64:0.5021533201209663 65:0.8169291313116306 66:0.7852717313838091 67:0.23238645936469457 68:0.2774018355730993 69:0.37678832189626804 70:0.30616489633332494 71:0.6208766888384056 72:0.2531406771671932 73:0.389341854373631 74:0.3629818722850649 75:0.7733909435254962 76:0.6306066772466422 77:1.0 78:0.3836286775195288 79:0.22896979451990868 
-1.0 -1.0 -1.0 1.0 0:0.17096670296637953 1:0.16873923522137935 2:0.3295488576507613 3:0.6248651676960153 4:0.21722628830017915 5:0.26965870201306497 6:1.0 7:0.752939646923562 8:0.1789132501935363 9:0.5067608654393354 10:0.37665747032401364 11:0.32352642742874216 12:0.21048293531530402 13:0.4506328573200895 14:0.2743762747059669 15:0.3716962624110511 16:0.16618947687213342 17:0.501024286802118 18:0.2703556994063563 19:0.26884849713777914 20:0.5499452913529199 21:0.5712619710768879 22:0.3153251662642802 23:0.2459566756932312 24:0.18120037516451962 25:0.23142174295719656 26:0.4521427171028697 27:0.42140427047431683 28:0.40268399430416857 29:0.4118896740558663 30:0.14212742718041338 31:0.13736453626437728 32:0.12670816680996733 33:0.25204269743394797 34:0.34104148244755944 35:0.2969286840201128 36:0.479227005241167 37:0.24385225416229817 38:0.31744075061916155 39:0.3395213766189803 40:0.37173692164829547 41:0.19754970174009276 42:0.5849779524572938 43:0.23932160664283741 44:0.21284706582801152 45:0.4026389181879811 46:0.3346119182196283 47:0.3970322364358441 48:0.36166773484275183 49:0.40165550607763045 50:0.5522785074423247 51:0.4779871379515317 52:0.30973625870216676 53:0.5077952988168284 54:0.4768270827450589 55:0.42950208378326094 56:0.1985889678791444 57:0.41467628076231605 58:0.430701168671382 59:0.3441419937585054 60:0.11367813364856195 61:0.10062869837810676 62:0.10679567004486289 63:0.25400749711806353 64:0.1387841152437908 65:0.41083398424577355 66:0.4505636348486016 67:0.25822655439774905 68:0.257204440738046 69:0.12524126445228567 70:0.23828283170576825 71:0.31543576110649774 72:0.2475294569393637 73:0.15202431470161382 74:0.13195347061570123 75:0.3871131971725825 76:0.4891243232330235 77:0.37521768954266366 78:0.25600092726583945 79:0.17907090090646172 
-1.0 -1.0 -1.0 1.0 0:0.28409590858248984 1:0.26086432983775404 2:0.3927875717591897 3:0.7034507279085254 4:0.3268929391739135 5:0.35578533984219135 6:0.752939646923562 7:1.0 8:0.2694875012785639 9:0.5680429471895686 10:0.30443800999131987 11:0.44911029124690366 12:0.35012048875125623 13:0.45439796183020875 14:0.24594603899310333 15:0.43003877609717733 16:0.27656036719994703 17:0.5488999949654505 18:0.2515504578522612 19:0.3869557038680348 20:0.5261673280681566 21:0.574700398516439 22:0.2723921223314552 23:0.32168204940063205 24:0.2671768063248481 25:0.2412849805908987 26:0.49108094050630047 27:0.5958534843083441 28:0.536697092722601 29:0.5198042798260596 30:0.130566725487513 31:0.17897040839824307 32:0.24223652047247238 33:0.31272675669146405 34:0.37468471247465596 35:0.4085011774976042 36:0.5957191978292465 37:0.298956463150436 38:0.355029819420573 39:0.43032606061755974 40:0.4623395993058662 41:0.39819811175144215 42:0.6283468359054531 43:0.43497230616033355 44:0.4008232146744771 45:0.4894551829766935 46:0.3912894067543927 47:0.46374303853047444 48:0.4609053960644634 49:0.4605719211678794 50:0.5586971809972743 51:0.6808866765624926 52:0.46889750565839916 53:0.5376917566008808 54:0.5022170837695934 55:0.5500952326929734 56:0.28636397870127284 57:0.4535371615674826 58:0.5359354617266655 59:0.3418232500229235 60:0.1782215513583992 61:0.18579675854666955 62:0.16701040163694944 63:0.2986955094482535 64:0.2379133322563917 65:0.5193637990329798 66:0.5136499518495885 67:0.28097998749350445 68:0.2933703793319929 69:0.24642718976578024 70:0.3516126721053422 71:0.34462597441282394 72:0.2242670958338071 73:0.25129825179986737 74:0.167741816756321 75:0.5305633635109266 76:0.635073482201783 77:0.5300519080328203 78:0.26172908865891986 79:0.20266577494308988 
-1.0 -1.0 -1.0 1.0 0:0.34377954703515873 1:0.36765327589928626 2:0.3547398927160722 3:0.6321286603775622 4:0.4643606298910491 5:0.3210666905848742 6:0.5067608654393354 7:0.5680429471895686 8:0.42860423358677774 9:1.0 10:0.3597847920169691 11:0.4934196042632111 12:0.4196441436587881 13:0.48963029103531186 14:0.2278219787238698 15:0.3405028099887555 16:0.24808151317047603 17:0.6282365079839825 18:0.2827561778704791 19:0.43231813115722095 20:0.7409092048797723 21:0.5349001110176742 22:0.2747165107638193 23:0.2836537764365486 24:0.3257314945511982 25:0.4205237103465775 26:0.5413635897655745 27:0.6835071947367306 28:0.4973502683650942 29:0.5249347797219154 30:0.2997015958873668 31:0.29239189117121245 32:0.3807934653845858 33:0.331217252218288 34:0.5141198739083016 35:0.42640857407172417 36:0.6830261755382293 37:0.41455346469135207 38:0.5141341200922471 39:0.4261403798049588 40:0.43884909749210665 41:0.4786345084839875 42:0.5266700324659034 43:0.431927782488495 44:0.4881315163066997 45:0.6096182118915017 46:0.41453229622600507 47:0.47793523884227096 48:0.540364224418258 49:0.47382481300444756 50:0.49547450451357467 51:0.6392325490921802 52:0.5094383205568344 53:0.46858613576676994 54:0.38114575748719737 55:0.6032140843243806 56:0.3644536091257678 57:0.5989551399917601 58:0.5007320828122399 59:0.18109984014685251 60:0.30881847438629484 61:0.2788804173234865 62:0.24491378806154043 63:0.40220150948992966 64:0.4107795589095901 65:0.47300258304220705 66:0.5073291351710998 67:0.29146001038066816 68:0.2894154873362728 69:0.3199547380737002 70:0.3367775703765409 71:0.37990845449296545 72:0.22902947691682554 73:0.3376862813715863 74:0.29623583272576 75:0.5083213643468091 76:0.7041621998245202 77:0.5222384577286097 78:0.34207658158754817 79:0.33225751415888183 
