svm_type c_svc
kernel_type precomputed
nr_class 3
total_sv 3
rho -1.4 1.0 0.894736842105263
label 15 45 25
probA 0.6931471784024834 0.6931471784024834 0.6931471784024834
probB 2.391895380739567E-16 2.391895380739567E-16 2.391895380739567E-16
nr_sv 1 1 1
SV
0.2 0.6666666666666666 0:1
-0.2 0.10526315789473684 0:2
-0.6666666666666666 -0.10526315789473684 0:3
